80 126
0: 0.6313112360498188 0.3105055161551675 0.03890564494293569 0.800950679468248 0.2193420456454066 0.4728714450260618 0.9893129595898708 0.7616212986839358 0.6774236781054122 0.720072044007726 0.33551277253521317 0.3889227581989255 0.7353028482063715 0.7908774989294237 0.4434601637977861 0.10332279552704482 0.5679351375765872 0.5131305078884327 0.8366204231260604 0.9164705844064311 0.5967198505491758 0.03217785728689526 0.4037159069871882 0.013531563861001739 0.8495242002779393 0.2126619742113648 0.6105285298165031 0.14470072946666557 0.7810164179679198 0.7638736153375434 0.0025321447541352127 0.07775581100442797 0.7643979773179783 0.643750201964723 0.29782341128822976 0.19651978623713284 0.4314454652135753 0.2077366138655462 0.5387657290104986 0.5693598228619365 0.6598426040359671 0.38610853793481503 0.09595577076160844 0.4573578342317466 0.28510340493664044 0.8969907045782798 0.7995673861034088 0.2835453659268239 0.5489581666443888 0.1321857854739633 0.11082337591848579 0.5426033490587275 0.8868934960074019 0.8890621504916213 0.04029056460396219 0.9946853921050931 0.9046087096574816 0.5641315196818555 0.4698890738015298 0.7575306930241098 0.296470483453269 0.7725805599266279 0.6419517921162324 0.5877907678934552 0.018618874981240263 0.6129028902170758 0.841365975618899 0.7255017000576859 0.24519706947225994 0.9569115478307824 0.7157732603109257 0.1648917962505284 0.5082484292423494 0.21279352616936353 0.25400062192819184 0.11022220129126781 0.9501442041196524 0.9825023814669342 0.17433943399691787 0.6771153942549144 0.8019758204495145 0.914666159526243 0.3619855682476888 0.6078352503152541 0.042165861786749526 0.8403218712383512 0.038898500292559146 0.8832392851074365 0.6866221472245294 0.9711701106557957 0.5495326858565782 0.6346318124869907 0.3150798524845163 0.5386757860447519 0.002340207840825337 0.6855047455740563 0.24784655503667152 0.7572249319642507 0.5196382527537297 0.38616044634892066 0.25298577363529573 0.4056788825743812 0.5173811430981999 0.14346854472043336 0.7860445991399588 0.6390512562926176 0.26157127109773737 0.1935171811142632 0.5427515098243261 0.8656650290926765 0.9294888669814959 0.7166759801130945 0.5396807004055686 0.6550304218825208 0.5416161233507006 0.3525968426067362 0.02869945326949408 0.677816654693615 0.42407590674843654 0.5369357739980488 0.2980857941646957 0.6216739428271998 0.31160099599788227 0.8520869496556762 0.8165234724814364 0.8752944457807467
1: 0.807495242463042 0.7609784003556839 0.23575173783840675 0.5279839572535792 0.6797429371965538 0.6759856643010668 0.4834683755671293 0.893148945427099 0.3913681562617718 0.3042788512119444 0.550153391205252 0.33148619153795245 0.3383413870081 0.6064248358534455 0.6018026646810792 0.6232951934477918 0.49977582300114676 0.5068253758517233 0.7351298829291283 0.5192164759436334 0.5928508304998541 0.702579450799845 0.032616022603451866 0.38483136993055633 0.36884608419750875 0.5316150150499489 0.5718561485615068 0.04694210411396016 0.386864255908545 0.8814448787780254 0.6969727377311844 0.047983258060827705 0.4582663442553856 0.5466576055273351 0.16943612698065136 0.5198993623816494 0.9675384034279537 0.27626295093867437 0.7814523519992252 0.7999550941058369 0.44425405324686107 0.9912693822200784 0.6371487377348419 0.7283283350633708 0.08599231544930686 0.2983781789614437 0.5851088646778166 0.29096865764727187 0.41351593130525477 0.47743726497460237 0.2203778250865528 0.9010864830638926 0.8772100620582948 0.5783054565183018 0.46487945618799886 0.14877159461002787 0.027727227532158394 0.1270352031257943 0.9822577351169862 0.29062182628718614 0.8139792494747915 0.21179051419717132 0.5864743256515731 0.09989595445868948 0.6780622653386813 0.3956738806366713 0.36306515289436325 0.9525874879491616 0.37939647581180636 0.9866441046008796 0.43777862866944106 0.1859488654318351 0.8993074404600809 0.683964924289922 0.19938896292292152 0.8333785430481321 0.3524707681450375 0.5161315835151631 0.3117979525823692 0.8132159045027155 0.5630880800268228 0.28698102936796865 0.03510913985563324 0.5288723404918098 0.8513565303480088 0.45469869249740136 0.21617847217028519 0.6238587655614308 0.6197402767771838 0.48269283983819533 0.8062159483998518 0.32765382973279955 0.5287471027393837 0.22181523113156065 0.9163330218784796 0.4269885350157958 0.4083589354310885 0.8101645860758493 0.23150077977386896 0.4020070539608135 0.5639602320294397 0.9097175211585733 0.06920444359365929 0.6778955301055095 0.8045534954875792 0.8382887732488808 0.4911497322802344 0.25995375210770355 0.3462466792721677 0.3008310601549883 0.6546973193983514 0.24371728479829835 0.7254422172883224 0.9758420798594208 0.025271404914853135 0.821620850111725 0.9938531525512698 0.17065466184989087 0.16180950048067289 0.4438256907167125 0.7614166520717461 0.12364307994112533 0.5343898700166804 0.7332176719384215 0.10337103797568059 0.30188721998260615
2: 0.2364944894738984 0.6032145724904442 0.9542073244212403 0.21959333000889858 0.5139343758334151 0.7819043304295754 0.3739018698437251 0.8855784002417639 0.7482861097545817 0.6071691594682593 0.9907818976547262 0.9773829632514459 0.9047567673597557 0.5248323594456146 5.710210021193651E-4 0.23508452384811218 0.4827166158312143 0.19549842771060888 0.332607200736318 0.36964226500794195 0.6917079900591022 0.49563914423046795 0.9819208299304087 0.9886108951675902 0.9165594622853374 0.9846116326359811 0.049806156289380565 0.6563199473361712 0.5323050895083626 0.6016769953974205 0.7357142357951175 0.226121754960662 0.7829280865627661 0.45572055013444224 0.37974111495157903 0.009070170408133627 0.747519527684366 0.5752586097294784 0.6676804136756861 0.17639917870964927 0.38326190072510347 0.39744814302440024 0.27955450899135414 0.03242866346202322 0.256718638713471 0.592199621631762 0.5877336376686624 0.44003221338876997 0.8532306462935225 0.5411255059421655 0.49219856139441465 0.732560015398312 0.288790828736035 0.42093993627537263 0.11819626057519639 0.904117296447141 0.8395886276699632 0.377057872595567 0.8954847323716855 0.7343567783214914 0.9514863948613984 0.7155248388428957 0.48855761157300803 0.7744515260409349 0.29500974729972385 0.39004117339275235 0.1536846171455607 0.7976720592344342 0.9910047839318845 0.31572736974930893 0.36129970802846034 0.40099977413088184 0.3479347612030429 0.2024103520605205 0.9412132675385408 0.9334664145502801 0.323859696684894 0.6675927739839428 0.5833210091552011 0.8224168464028594 0.45446213252507095 0.3629005641848667 0.2579263606484623 0.6706507896840334 0.17305329761584787 0.7276868497233908 0.007489726073193759 0.20540634372943478 0.28931341744408734 0.7696027717618958 0.6055622988931085 0.274406445048647 0.8905908094711882 0.9643290565150795 0.7788576850066037 0.6046969746446846 0.08290470264839456 0.965294685328427 0.0448606274555049 0.9667630370230768 0.7983664919038711 0.3190916940913331 0.7300659974040389 0.7194178766926093 0.3615552447885799 0.7934285454087049 0.40288802477604146 0.45021645831875 0.6294527377059751 0.24184648150022403 0.7804741074143174 0.5716541059033996 0.29786454054293665 0.15305683640757206 0.15010299135240668 0.28516736044277446 0.4018230104793794 0.162639735854333 0.4835430309170051 0.28296353188290946 0.12828911926376418 0.8409772533231638 0.7166904999440549 0.9219616721116897 0.8065402006969421 0.013677472933127266
3: 0.11700431928799326 0.37463652873758724 0.34495032409524184 0.7193781261681889 0.26769806771831706 0.43831463981111174 0.44244168280867646 0.6647015469836997 0.9603459271778084 0.2674793193406103 0.6187041723649217 0.6972656448245994 0.20650426756572016 0.2828991604626935 0.4793519425402005 0.38503812960382955 0.6541461524044765 0.9069028176468943 0.6605048815144986 0.2639540668689717 0.9261509528571075 0.5758800590536197 0.5818545115233732 0.6955999803282386 0.785787088008952 0.6890976402982026 0.47809289060158366 0.562900079730047 0.578070652454382 0.7671754164661848 0.17565420506626261 0.22412332451426265 0.09607859811274255 0.11407700556616107 0.7350390008910406 0.2441627157825912 0.8777400004655314 0.7032261458772593 0.38856076690300934 0.42692103701697215 0.9513242799774828 0.8413683771389159 0.16917563693096616 0.5837700438930881 0.21679099283188308 0.40305512413086597 0.24812559473356433 0.2904331186133168 0.9753605207636346 0.07413532493008046 0.2774465461580702 0.608273760349942 0.6011107489737363 0.0943971733112211 0.9679623300188986 0.375855798586876 0.9860999698270351 0.4475109745057725 0.7242063482094673 0.2127731038593792 0.18446141412012207 0.31068111696307454 0.40478299329224543 0.8201304963019536 0.6311106021056972 0.8469238840090331 0.18000082730254263 0.5106891504845015 0.4171512754296133 0.09964488581173903 0.018180455902551795 0.15657381871640186 0.36676180519429236 0.8321979958489132 0.5478595800255817 0.9035709355604213 0.07928854126341967 0.6443656499382817 0.9151889518024424 0.06843016193804397 0.6754684644930412 0.5932078075073235 0.7841321130664993 0.6092146149251236 0.7181485959473696 0.8474852295559518 0.8116535618579048 0.4386275945851772 0.6655645460836723 0.612869775431582 0.7708985934404274 0.636376687815892 0.2591866934740734 0.6794129774101533 0.9924400986205155 0.3090188518263479 0.44833720387323583 0.46325159555465567 0.9469865469091728 0.44436287375055294 0.8102264628976159 0.34128663081719646 0.602516480501609 0.6123883637290409 0.9367529926148174 0.4105802924546429 0.6546248636154952 0.7757736135893126 0.9283563006307823 0.5434730059891737 0.8509370158386287 0.7905066327024121 0.9604069674767831 0.7549305893321404 0.4087661458548978 0.4006876753377303 0.8690643129698064 0.45038929343051026 0.95976078265061 0.6615132189398344 0.84122639333063 0.08037449826762322 0.5461088389642665 0.7605649019418285 0.5871434146700704 0.09242641727160628
4: 0.9399352190992301 0.14990961139348213 0.8244599412866199 0.8413738786089597 0.9608502473052756 0.7501494251736915 0.5088975672727083 0.2957558208221469 0.5261764755308216 0.7424432506373058 0.00948393918508128 0.9611966719831948 0.884201853970153 0.12565477773932443 0.3451806661479968 0.43080077613104895 0.8528774121477897 0.7831638544907508 0.6749565461219734 0.3681383755182084 0.9146979940336616 0.27751180302402945 0.46479908230722533 0.5301532445594925 0.7030748602400542 0.9709332904078314 0.1428515890799531 0.6453301248700533 0.7563293521329502 0.3559608914646194 0.5978093306960272 0.576718198267293 0.4125070682778563 0.672670555285846 0.5759028050836673 0.21991409182481336 0.3715322671439075 0.9877697782398535 0.8882419231749281 0.012865945331321016 0.7607927496308792 0.9156125330036382 0.3529901300929644 0.7673681864689736 0.5060653817909002 0.07235788737602966 0.5657827512402234 0.7713740480212617 0.43176313750275885 0.17187241071865678 0.916999083526553 0.7567607016419193 0.7928046870137474 0.3956088667410532 0.7559433174612603 0.3789401890647057 0.8749777858431017 0.29857659559607175 0.23968447984786456 0.31271642027797697 0.8914882381584979 0.04965224686985026 0.19825088501575605 0.9330469123251888 0.650456125323111 0.2468613946010103 0.2980699854922313 0.8198754566509654 0.3714419727954712 0.8968955775218033 0.8919899611567746 0.0029597491873666337 0.5886551480584915 0.4030109472276827 0.20691426827939385 0.9456259870502212 0.2943174974491942 0.5665884144973333 0.9390262510482194 0.7556399029421006 0.3477253568256049 0.6750175173342678 0.9017755779654154 0.006892133450485449 0.7038735785175003 0.722199145535855 0.10324443074723832 0.8573527118929984 0.20007541950976837 0.6878452688788794 0.5172055721332443 0.8567583717714534 0.4798321972138423 0.5878861842844229 0.8561309428256239 0.9517531603347322 0.1302774782671572 0.7006790862109014 0.8546037715905834 0.7167114526178914 0.2628405238304762 0.9723445137087141 0.9280330218475747 0.7652296953775811 0.576343785107199 0.10943936254733344 0.5842640480701773 0.6302814072617998 0.4075702746535924 0.2783092047932141 0.6346251755476416 0.14028759641678046 0.39640627810079565 0.6478441906285685 0.07614405901459576 0.46386261930694617 0.17098539704612303 0.2359965864284449 0.49811464930119076 0.5477531775728652 0.8928303436159666 0.6503001697558847 0.003889233406302317 0.6304963783350528 0.5928093746659451 0.34876495310242517
5: 0.9327166899492734 0.878579943241719 0.9757936858822526 0.9899031663475253 0.11664236498611791 0.9623961120408012 0.7752237763380422 0.2892756278552313 0.01393117382314002 0.5660381633450329 0.7983618994627627 0.5548300112476536 0.8231700368412562 0.40799649708810204 0.5188286774466749 0.7344357381226272 0.601151780108735 0.339068936265821 0.44509198631017 0.3764027167942121 0.4828373136856532 0.47930780165698217 0.5218968232352785 0.3774040956223379 0.33313884971331686 0.15758406449866358 0.5061947200815405 0.7721062043305554 0.5479616352411222 0.6253566226606373 0.5999522299353642 0.10494115792932446 0.2658873566436998 0.13049293765919678 0.6192874793679148 0.11684096870469451 0.9520776078123803 0.9574942886456145 0.6327050260569194 0.5783845895535049 0.17242107990419697 0.46723780003658444 0.31076872818500656 0.10569179710089127 0.3886434411999601 0.0023541882122199986 0.19537329681680604 0.7065315417273098 0.7740442911650537 0.7636185451794252 0.7188451320815865 0.621493916593375 0.37472072059347306 0.4082393620233423 0.08142344346501085 0.7487089675508425 0.4225823665844143 0.17268825823663803 0.030242972499658127 0.5704776356128588 0.24415846175491507 0.7807213872707888 0.17376021536601727 0.03631300974564411 0.0031421090433904064 0.2615008050059733 0.7126346912807959 0.2992730697824618 0.4648128485618366 0.07323198952487142 0.371397859539927 0.5510990235339946 0.07692367346501272 0.6044918150715616 0.8748121906998536 0.4565556522352686 0.92433387689155 0.20842864180433995 0.5286432102444768 0.8485033687522975 0.5336147548167632 0.4142742313232769 0.33663786248144323 0.4126143839485794 0.07905008784935885 0.8561152654174323 0.6138225283810242 0.06427804942773907 0.27289878990643945 0.7606293932597176 0.24080475511355504 0.6001233826460505 0.11048278568533731 0.5434993147628806 0.5445827270411349 0.992719655301738 0.6846078400216274 0.1784755341727361 0.28843696467242785 0.38939848463710414 0.4840208265450944 0.523566740621256 0.40679891963671544 0.4747738846950509 0.9470521215893734 0.7155943690426797 0.9305618000340712 0.36141980832209475 0.5542872914426652 0.0773556149365886 0.014118815171614507 0.584296604009149 0.4130568593569105 0.7208972434603395 0.09748457671855171 0.09190192197390112 0.11172943507476985 0.17591009788316048 0.015175844943572936 0.3507531330406657 0.603237766168358 0.9240121686052813 0.2980976423965068 0.809692323358755 0.014962828983808851 0.6776958207900525
6: 0.005501865609410461 0.006636569842498274 0.5760469339747575 0.6069727581111407 0.17115467456851552 0.5427800302691705 0.3034012918545119 0.4872578516282814 0.3511707790099464 0.9978866580438491 0.6941195982367568 0.9187907420248426 0.8205414436648553 0.6151951161916526 0.43470368191380326 0.3509026966127179 0.6812045469868933 0.24559055425517118 0.05645364231369321 0.6336926341060719 0.5165747749802697 0.6080807294117287 0.5415688387449938 0.21518543756839692 0.25577245730048126 0.3972462757639884 0.11595286279192996 0.9038025778512473 0.5953600607756706 0.14821863094465892 0.8524098314422501 0.32398325744773526 0.667215141231794 0.05587070023761487 0.2518651396398802 0.8070520443458674 0.6382396147549418 0.13728967783565849 0.6704390611867731 0.4799366697151044 0.5809247130686358 0.22523277097887362 0.316646956825668 0.7410977740301332 0.2633622276993497 0.28515038407553606 0.5556949802898632 0.1460396518312096 0.4731118391549144 0.4594937272967746 0.4267854843400838 0.9640295370019699 0.11140579178463461 0.06040679941106841 0.6045421918511426 0.31316009541127166 0.5724915462866149 0.45553509549464 0.517109331984657 0.8326483961371918 0.8574839409591541 0.4215670543628489 0.9711758336381426 0.30927140821101173 0.4629185398814464 0.07625595456383116 0.42811935723086025 0.5390971445084829 0.3312679267076406 0.9420538042793527 0.025661615454755093 0.9761770306917253 0.05400352133026998 0.04312086028607787 0.5458707790712946 0.3966241303741602 0.0773551906690052 0.1923576748707958 0.7930427488808837 0.8895087842748308 0.8767417890474521 0.7862392340274069 0.2639377939043578 0.975261493017879 0.9379157714763652 0.4926132177230115 0.5680450566944056 0.5477804489587303 0.9111852475498033 0.19025803951092568 0.7869919379226659 0.6381992536782455 0.48964768691276006 0.3988782770692464 0.8499114487037177 0.7062776140682387 0.40318904202601824 0.22434841229042846 0.0455254442007903 0.2796364413116901 0.41707285343382705 0.5363984923869377 0.991897043851394 0.28156544567857744 0.37726432270588983 0.6945680279591753 0.7412509954147768 0.31489061547117814 0.15420424456664694 0.6431376071293737 0.20995614766897286 0.5023951388127068 0.8025680659185702 0.6068799557721989 0.7927088298163634 0.22354674997727642 0.3766162451168026 0.936855449720331 0.8451524916032712 0.23279075010805828 0.6190613890939248 0.8791097762659097 0.7006127578565572 0.19642716003911587 0.1759489101434416 0.16901421986868814
7: 0.024323771930887417 0.6430972610078276 0.0808676665758622 0.3901217021027734 0.6024660545320671 0.6871631757314481 0.9988775417420007 0.9787949090782062 0.11353179792374524 0.654771515018824 0.12386144391743281 0.604495309361476 0.03597880720099356 0.9191504605521762 0.6825788811902525 0.4105046895751505 0.6088296222584664 0.8346969461462631 0.7145196735934155 0.2609840282822854 0.6808175870837264 0.6486686258124886 0.16872517303513812 0.7076566758458516 0.35887683667255377 0.6648034663760167 0.3870664113612152 0.8630364567956406 0.5982190316460314 0.7349467043078534 0.7280372273126932 0.7470032729864906 0.2639341152875301 0.3627739285036077 0.4259421311273436 0.9596621897360599 0.7379984221471131 0.317955767321352 0.7774279078418845 0.7258045831124301 0.8457685536804622 0.6796181372996891 0.40062908812294706 0.4549228321886294 0.7324844188665418 0.654709719416385 0.6217670908282775 0.9656126146428006 0.33300081906879253 0.3498957731572341 0.009863791388108667 0.434329971826548 0.24691147787708811 0.9148557264335859 0.7022996334770627 0.9458530711814658 0.15642551812887417 0.12036955138746341 0.4422680824236116 0.246431054358473 0.40580094051399584 0.4863354378088427 0.183747136081038 0.9304857553827223 0.9988358201648735 0.5328698546498648 0.710429769251182 0.8278644824587272 0.06486216294554892 0.5918981382522999 0.9621253725592028 0.801024716322344 0.7938839433141156 0.8871519009130129 0.6654642903891582 0.5101652175752361 0.94794493776578 0.26724745929181726 0.42530809095517597 0.9591995557419368 0.3185082807352111 0.05952700480650852 0.6490885740514413 0.7966022124388388 0.9185743142438577 0.0016023610376638686 0.5483686043856738 0.4125391930505684 0.27345884152026734 0.10304879359506991 0.9902383808121579 0.8473286332938745 0.9055994342294484 0.5914540668259883 0.1557307456661925 0.4061590946697047 0.9964521483559737 0.8050361069984472 0.803260272692149 0.6611265349498152 0.2524871699736242 0.00830002617629233 0.4321597641885234 0.21403348367225694 0.20248646946273574 0.6277133750329692 0.7947096533719092 0.19202683591513803 0.5097920840070661 0.33113619383967774 0.01462508845453292 0.9530335427523512 0.39584933894993646 0.707750061537363 0.03578597033302433 0.8890861747568203 0.940333951820548 0.0444887674283192 0.24706592772160718 0.5330131935318467 0.8483479227415326 0.8404800942185227 0.9074362330600895 0.39760171101348873 0.25661401731216615 0.2527669172720921
8: 0.43009068994045696 0.10622318956873689 0.28829396814322694 0.6245829955397396 0.6751585267010229 0.4100451463318018 0.3600013037026817 0.6117172710131973 0.1476420164551322 0.6293353370414563 0.69477421458039 0.19300740431907337 0.40053622083234086 0.9049971409128049 0.10122012753170351 0.02776206656432323 0.0026582988872280167 0.40135770713409546 0.8417379365227466 0.2059187247121148 0.1465345303755664 0.26236376601628597 0.3316702352936246 0.4260014900720276 0.3437629347817508 0.6907221847099735 0.48643235456397127 0.03145183831598175 0.6835904337851433 0.9931555641128446 0.7651105836661681 0.13766211996145827 0.8150128505383003 0.8148257313886277 0.34671769743091296 0.29005038510080017 0.15352746399299566 0.0721111182020222 0.41923827974800654 0.7077722097709348 0.8107371533242619 0.2853064319421893 0.26179276264930607 0.18817343714680212 0.3983261760644282 0.11144605206349423 0.6566935904995991 0.17384530616941463 0.16749752245005334 0.8823356201698197 0.1808623786610759 0.31715145087290386 0.9107822168324413 0.8640085955498703 0.09502273896938851 0.11635368737400642 0.6752014179699577 0.7712075927504287 0.8742780557043502 0.8429721354703795 0.6140823608808998 0.7941234935048725 0.9051292698396305 0.03177203802636852 0.2393992177996851 0.024507529229516933 0.5116830270856108 0.26277790716065874 0.927330773419757 0.7044047293137647 0.26774547090599954 0.8289738217712115 0.776796890105419 0.16313974503855166 0.5016928861987076 0.15385582776118234 0.8240557973675476 0.6568191173412848 0.0074550875106614845 0.499760477023102 0.17601511108981305 0.579496649833561 0.23764319228352537 0.5909016748266033 0.8407292197105466 0.6762813470226611 0.6737986004761174 0.26430532347007785 0.9056263082698243 0.9560503517868385 0.6439351683226382 0.15733918341029873 0.24232882854386728 0.9750621677845166 0.5889921928008016 0.7422934596402669 0.1015006660317177 0.04264776440618223 0.6675107523100318 0.7264753840071627 0.801975835884288 0.6862908712559487 0.6317917278178019 0.9505382501295752 0.215492610811032 0.405790538117373 0.10898847546751778 0.4382741570568305 0.9016781341222718 0.3448329627344616 0.777033184452651 0.1778566737438556 0.5574987158252946 0.013181142570889648 0.4379909443551817 0.5475282058619878 0.911210760037291 0.6038249755791667 0.6603803134880124 0.03798373627285223 0.3129186097624991 0.7668163697545056 0.48719575062877685 0.06921150124569009 0.05216486952005017 0.9251470001209593
9: 0.6878112510438522 0.25130798818133226 0.8675498368037147 0.3479093976082477 0.16964063754446745 0.3967931076075004 0.20419647026584908 0.23211445607899373 0.45937518845704806 0.9562089991352132 0.5219481108218099 0.986921646970458 0.6138142626760981 0.31929357198444386 0.36050593991119473 0.7626705517910968 0.5267501865685138 0.6007780771394556 0.9272840973991762 0.021985906827568624 0.36106397454125827 0.11286534457012976 0.6895799419563555 0.6113602365411213 0.7541335688779189 0.7157036579002372 0.8247281292535265 0.3590017148271686 0.51985171163332 0.6326783899462982 0.4102266402860969 0.6983673351600412 0.8019960784316283 0.11910234671437259 0.9203938620547882 0.19668434136710344 0.021389150983075034 0.580892122204016 0.936935727773741 0.15389578294249728 0.5032310615405878 0.35407718005952526 0.9778724177831974 0.6298487143974744 0.3711837139360491 0.37649503927561534 0.0025944156499519977 0.35617649359340364 0.1512299153478459 0.4097840519352757 0.4603879853587065 0.9942094022802795 0.5410263551034438 0.3027934653260822 0.7155905042406175 0.1113807409934211 0.9694150548918551 0.02678771566639626 0.3046062990319459 0.06597795459066158 0.8959524814024626 0.8583301432256378 0.7583340766359983 0.7137218333670666 0.28176167393814766 0.1374886861980097 0.658127225037172 0.4795389044690169 0.30070730712358296 0.4870145404376358 0.18422873472984125 0.8740257296742666 0.15383942856565913 0.2424020140097266 0.66269261622712 0.9764856057480635 0.8002467609725296 0.11324572210222716 0.5201240160481762 0.7550523395562206 0.52390553384713 0.7730695611522409 0.6151408514547092 0.3492970967054123 0.5188055564983188 0.15780905115288835 0.13127967983849154 0.6018484621301872 0.09358027594999052 0.7423867281817396 0.08813904805816664 0.1929375436453491 0.6720629830615836 0.9603283068537436 0.055873865917460575 0.7054137994902542 0.49763634804077184 0.23312483781251037 0.8427245802813533 0.8276590910819234 0.8369384981411242 0.7840539079000695 0.7660855390764294 0.6879611268685758 0.5224331538804792 0.5254309361763886 0.6146866461166975 0.006289634474147987 0.8735477004846377 0.8287691965483627 0.562783289598064 0.34805192865426826 0.39252742043874667 0.9140854799019485 0.10681971656819911 0.2692867669685002 0.14385032531731823 0.9275952389503618 0.5608509846397564 0.5538889324017338 0.39499136027175497 0.516299900870078 0.7690795576678426 0.060839051021077784 0.9215212955996939 0.8534761205091443
10: 0.4721821398715069 0.923046470045995 0.3609694940237341 0.6208347627280023 0.19867353258301235 0.9692958142005385 0.13757631408620008 0.41112548200433363 0.6433738414000139 0.27692007610506875 0.7740056047650316 0.37922006143413967 0.242116120017409 0.7052069553203009 0.8562829035159889 0.7402159102260871 0.055151722288235616 0.10817673637469671 0.5246709270759866 0.8898588533024343 0.13128097626345048 0.6802538484424285 0.12588849144617853 0.5055919661178048 0.24055705467015476 0.5494866679042439 0.5810248414239145 0.9757952934319685 0.23548106570452088 0.3003524807243856 0.0986965737189146 0.9002887398387099 0.3289273947147866 0.581818304529401 0.0944393183034744 0.2069287075747569 0.2616075091222191 0.33621026182837355 0.5650223072032889 0.637136514580566 0.6727018786920611 0.47057727189295206 0.7103184497429486 0.9674544450513984 0.9843591290923865 0.9846178122277945 0.2955587073645163 0.3547333465932947 0.7640824509324313 0.6678710634821511 0.10324415618451377 0.6193132326250338 0.8385932598686768 0.48375669874396743 0.8366847938508359 0.11356638912291839 0.39858239760431724 0.6691803580761573 0.006079533000905468 0.062430037713608444 0.9558297190810643 0.3958046556156456 0.6532467925953124 0.9080635963532394 0.2924931914297564 0.5627183399547866 0.25256082779900446 0.24252361695850289 0.47693848629630853 0.9201192966873641 0.7633438344805504 0.3703565829006138 0.6113011777245634 0.2597592677358336 0.6029095798279733 0.4072683322242364 0.22304306772416038 0.8502818495685832 0.2596492367117569 0.09153641651426392 0.1160851888397566 0.6442174669277051 0.37199587538957 0.1615890300676971 0.05667014427039119 0.038281894997915566 0.36179869518745467 0.23618314188322975 0.8849262821144256 0.12975823793378216 0.1295842878211687 0.6228706338068284 0.5151773555605587 0.47912442619756657 0.8943766304754746 0.3759506865425333 0.816361023692926 0.3627214746156381 0.9921934633996947 0.22686344539290138 0.5484898543884961 0.37914062123420833 0.335031874122499 0.7179879691313956 0.3719094462613489 0.05913980552649589 0.27610078017597306 0.9850656348529497 0.44317741715821135 0.821283531412706 0.8272541241692993 0.15397777903969767 0.264708976396283 0.21413204547147413 0.5310232124510521 0.24436380274778624 0.26490305024698846 0.8906896391346645 0.8023421405331 0.8055746574774544 0.051285526636040024 0.17195341932871389 0.22400585025574182 0.2497133392813401 0.401274378669477 0.3737880619429177
11: 0.10509519108560217 0.9920228945180777 0.8334931597260709 0.29498380027335325 0.5930490500827365 0.060639398451505566 0.03712927106062336 0.3942381997217369 0.7677588457479672 0.7957358497984581 0.5276533040819081 0.21993520827160518 0.440005688584304 0.6223400246137286 0.6442866669822639 0.5989772515965935 0.8267564431667782 0.6516181063074085 0.40792495027310016 0.9395596992281954 0.8822795774412964 0.04217252551900297 0.8177940084171694 0.7576589582967951 0.8267374390509914 0.6359114935821488 0.8809372918592149 0.19813915142473826 0.33285663777633523 0.3723044429329867 0.04070244262103884 0.8887645569405762 0.9064738936786663 0.38034627367753715 0.6987154282680911 0.939037863565468 0.22819949743615486 0.4493103266566226 0.20940136955958177 0.2756674902704781 0.6111363598075521 0.7873787124922407 0.06693112203863905 0.7925995083208082 0.2735374596932435 0.5914954320869706 0.0015429423076455118 0.9859328796503403 0.8254803912454189 0.972296441575261 0.35550931007475406 0.842669497246227 0.22508242473538143 0.20472795692057255 0.4185884736171377 0.7571331026860606 0.47247501527059477 0.10797263183133121 0.3686218769449062 0.16002421901047514 0.4787025709321828 0.5975605720596056 0.08500740918476113 0.36246090946454357 0.8719042624987257 0.0980503916991805 0.38109997846983723 0.8409880950519452 0.9845847274245285 0.5564229740818538 0.13616064946296036 0.8194208445782853 0.9034731346391276 0.25433862728801926 0.3982958797405439 0.5395199518501506 0.2574167160347749 0.48166628138998235 0.7768989923038059 0.054880878316592274 0.3689492452977746 0.4042004864735991 0.3464259310851062 0.7310499743060318 0.5016209889243979 0.13524093434591355 0.8429082175088928 0.8897648428275313 0.19787128330229542 0.10371578090139211 0.15042560887363565 0.19634813592105693 0.12117086234869823 0.30078898856101866 0.9468320698627202 0.45666743507057395 0.3913557199705362 0.882398679261598 0.9063481925258396 0.4637059588646908 0.13352035256026062 0.9069323200868925 0.04120426684185596 0.41367274744248206 0.848532723533549 0.6952515665946233 0.6053379226540884 0.19771226865220504 0.2571792494869223 0.4145377583372932 0.48022082483025585 0.567657767521433 0.4701430374106895 0.00793690688412485 0.11620932346519153 0.7729044314439509 0.6924642777737495 0.5187406580354355 0.9123839864952347 0.7703616960532237 0.18382642046923214 0.19084775782710162 0.3836635567055111 0.5205765657025135 0.8649578541549059 0.4665079483689605
12: 0.5860489611980718 0.20050308341809286 0.78563339851561 0.14785863347709682 0.0491733934150701 0.387025433907908 0.65120561111988 0.5405219098764507 0.8999048579512964 0.3952251643154261 0.7422913647349394 0.35553768402495967 0.9515677974351561 0.9915158413433625 0.8561839052673105 0.5101662313378725 0.2804207471251513 0.6441512940473355 0.3487564877532938 0.7386016574452281 0.2143474014612704 0.3222462700035901 0.9620687261800365 0.10039509800391655 0.718288476284444 0.6093313951295988 0.8855821744667446 0.05739467932781128 0.876762428379471 0.558596552286354 0.41783685913616253 0.7792669602941656 0.5458932434135059 0.28436081842205096 0.6706359709947273 0.7331722485678049 0.275683764983252 0.7579381858593554 0.9892310974693757 0.4149241589821535 0.2878433219424694 0.6559528329807185 0.14969579046278125 0.286971701299955 0.6352990164804878 0.39528920612195906 0.938620380245047 0.6027994972037017 0.6665899482831685 0.6812458731523056 0.4204567027717101 0.8178503246837683 0.5716642861404934 0.9940943145113355 0.054286062469486196 0.7138311662745934 0.0951690270581893 0.4441270327848047 0.834479689148272 0.196272365475203 0.4691433073250473 0.33641190340104843 0.798665871501717 0.9644671529068766 0.23909546356570122 0.6038528233161345 0.5716134997768995 0.8984262267496461 0.9357650820353631 0.9907889664143129 0.09508667492875633 0.05924060186508029 0.4794416818060492 0.49924858875702605 0.33142102475813817 0.6572531200638546 0.7945309752160236 0.14610527412963137 0.5225169951755732 0.2066970753871209 0.3591314877900229 0.5217678252980598 0.5361410708241443 0.355968369564018 0.3177030969506953 0.9896680498701922 0.9378711188170292 0.5594551163559579 0.34448050117865925 0.6206925079844338 0.6897173191353801 0.8398566427781998 0.6611045716133512 0.11783844359835127 0.7953955197961411 0.3791815557356737 0.48401429262275 0.053755858452877 0.7874251703243325 0.5721223865567029 0.7054635335603986 0.717470867243228 0.682669109239837 0.47726230815636705 0.7965958149303609 0.7464686934271929 0.9206281999563275 0.30957661623874566 0.7618316942966 0.506446601241445 0.8427485451666105 0.731950550646949 0.4708930195613763 0.8734307209116214 0.4711950423319786 0.22394147807002496 0.8481088215112859 0.6715830261916864 0.7019896751929883 0.7327728868392 0.208218090115179 0.5249077822174731 0.5401084481530803 0.144553636092006 0.4937045486124496 0.29219937531304196
13: 0.6730767404139866 0.8529753841915962 0.2907695344877719 0.571956593026739 0.5047971477119705 0.8482479258792559 0.27936857948374394 0.9876206968839398 0.7527901080906689 0.30079010890800595 0.20730839600109385 0.09337812318915995 0.8497223768848838 0.5722023784997252 0.5692206102344215 0.7769008552964095 0.6840440942647537 0.950303889637572 0.9182995644105179 0.9777806543664007 0.6647499881619601 0.17552593041442555 0.1420110997224623 0.3890461183414461 0.7017262176280902 0.0027103295116516213 0.09255006549147249 0.5640341544087086 0.45583931109043707 0.6253700791535983 0.6786445160947376 0.5120205691421506 0.13186869325831274 0.7787264474268424 0.8973747662187902 0.4333969405224788 0.1625803772676856 0.7333456887271145 0.31299575154019543 0.718814257051066 0.3636839024292621 0.1929549606793841 0.17432156050424086 0.7165958752333356 0.5271103985891346 0.3180262567602645 0.7030514144563055 0.058855929425413955 0.9639948482731584 0.71097374632216 0.08248646505527057 0.5291415961943716 0.20894088291974522 0.21931876535629247 0.32940699669855245 0.5530508637158773 0.953591789610735 0.8399335604048099 0.541450653067504 0.3981596736668682 0.29022673037949953 0.8404836139413467 0.9781513345405727 0.08072581314598992 0.5150465172117304 0.45344535130250363 0.05587020549131594 0.7940192637783624 0.06600843364123954 0.14358458472984958 0.6151693982676253 0.396761652473003 0.651515278537434 0.5015382537444693 0.753749825274069 0.13004032274873933 0.2639586136726152 0.27415027201073106 0.10889491098737969 0.26719540183116197 0.566061867381748 0.9064698009134976 0.7204320170246403 0.843560704320055 0.08816428999195913 0.24082827606981805 0.5085438986359371 0.9615727590406482 0.7810317727037501 0.6951693145676509 0.9603328657431265 0.4216443322406386 0.7314760647157804 0.32581318316689234 0.8348603960915837 0.5903322744907346 0.26700916383854223 0.6690958540932012 0.5684555072804153 0.4847117923909202 0.2509552543892486 0.1518298037460597 0.5904055678363876 0.025502574651892096 0.10088721149859692 0.1622920793208006 0.9437128488536075 0.29137446934630906 0.950950722572065 0.581452831858977 0.44642175865077927 0.39299379067713847 0.4225839166331594 0.6884149982319756 0.1260904907209479 0.2777536092174703 0.6683360522903203 0.8745441819127425 0.8133022633946502 0.3747645757956236 0.70993374539224 0.5275251406524604 0.5896812508800541 0.49456550061855087 0.6044388485796391 0.7795892327772201
14: 0.25169833881069126 0.8091456667930669 0.6412872199110126 0.5534151961146896 0.07362265367503562 0.05525389483338217 0.5981930411982103 0.4847131683083785 0.9312948200982095 0.32760167875584567 0.06534881531521997 0.8522596048319 0.282968299888554 0.9584512966144642 0.9850456424588735 0.6041590243020251 0.5942853362019243 0.016211872306512776 0.8477853350151423 0.933365938800485 0.541524710172414 0.8980497325946991 0.43614915063382986 0.6260080125363284 0.7305784195087539 0.3401516644639292 0.6141352562497594 0.5828098376445349 0.7286847158549291 0.9241630981332553 0.42237079311082504 0.49692406719363424 0.9217659434813521 0.8194556745098527 0.6585506740562825 0.6607344032744299 0.08228862390020353 0.06826142880520913 0.19765003072236975 0.2697035046949333 0.5608850274592105 0.19434388973065553 0.537902998728358 0.3930953187845214 0.6995445653336981 0.2957590706964762 0.44623528645885 0.9894109897288494 0.4050044919787976 0.06839201808749273 0.12078378906895737 0.9586331395541511 0.8180390974470325 0.39933763960606206 0.9883315062516054 0.24388334670901413 0.6676674285266483 0.2678272923086281 0.11093163063209921 0.42185376120672036 0.20886940204116466 0.6962850653143101 0.18868946288276323 0.05438220827602269 0.6082209000216446 0.405231142634529 0.31461680633786493 0.31279859434745116 0.26392836608773684 0.6431319313941424 0.9626682840480385 0.03217677930751528 0.8250641496758903 0.385929637630987 0.17151446748917787 0.40438544328396475 0.6093736859020532 0.7308666823954523 0.5243023316961235 0.9768381625379965 0.7098464313879649 0.8453534306758408 0.31859807492655 0.4881013727811627 0.327312273756898 0.2740103053826186 0.2709038019121669 0.34202626348161413 0.769645891472026 0.7556479550723659 0.20658382579984613 0.19882898473763144 0.11773139860330317 0.9568325419430366 0.4487321203149055 0.2445506686054466 0.774160607425965 0.6898154936361994 0.03845793255081753 0.18958729197750335 0.9827074896501845 0.24999014078908754 0.49426152458668615 0.9424866709087145 0.9349430719810512 0.48167026058963547 0.5496174174313905 0.20696812675726084 0.2649240568206994 0.06086888669647972 0.1955780804692978 0.9581276803932697 0.5737094591042708 0.26988757771777605 0.39915596877649673 0.8680499938877324 0.12253003681685348 0.23091041509027932 0.06843727697569058 0.271555499054585 0.9867547292277958 0.16442863279766073 0.19182618545810448 0.18956983668418925 0.7723696537317613 0.7432052723500823
15: 0.591513558909209 0.2606092284920185 0.4625050072343375 0.023622043815891947 0.4002092565503351 0.17013469270001735 0.08361511039166869 0.7536330895846168 0.1953729796933229 0.3130346101425415 0.6592384767373343 0.08018327740162312 0.7066233057747784 0.9762538341167438 0.35383332602701234 0.808831680124513 0.1497002804494162 0.2865946183907696 0.8000058889086014 0.404453390859587 0.5343020363517589 0.5329731983825388 0.3495180886086877 0.8642757422190148 0.7433115559738745 0.24292286069032365 0.39178201134877955 0.443138168581773 0.7873743470331198 0.5698930392480979 0.9431187405912531 0.9657468207231797 0.40148391040958364 0.13090082101619982 0.4258794058258535 0.12182920417881693 0.0691766219975034 0.42335010460312716 0.9285967291463391 0.7074755594386279 0.6351331366032051 0.345340299617499 0.266655554903271 0.24958767873474708 0.8984288049679487 0.1455456214396229 0.8475411768808925 0.8302376222229045 0.9663708889985687 0.3367522865558691 0.685544718832355 0.21387263239530874 0.6928054312415649 0.7214003868945892 0.9078748413764293 0.5726844262892266 0.22497246601393517 0.6979834804379806 0.7474457885996992 0.20409457655106011 0.5394328993544528 0.4439180594338682 0.32718161209334284 0.6391900285587737 0.8602864556866294 0.40350178668493786 0.5064972855362393 0.4520759085493339 0.021844431743116344 0.748838120493082 0.6826869353281841 0.8974953606413605 0.16311759150079808 0.1271119694940407 0.7182708702362386 0.22769926676890107 0.6229235218377971 0.05935951868097389 0.09992214440460767 0.16943108625142156 0.5421139455219205 0.813882650274769 0.025414563346945918 0.5780252358373669 0.47336769692858394 0.4417164743117269 0.3621043018527368 0.7280002393822462 0.24918981320440847 0.9320661768916942 0.3237768547126486 0.04816030885713718 0.4652034016903124 0.12238749362445334 0.2722625531093823 0.364102162914554 0.19851540954534164 0.08079220631889905 0.2660430598960699 0.8721568665972735 0.9998833474193658 0.16771900340120482 0.8501422781189051 0.13617861540970166 0.7736048427093846 0.8793165622915152 0.10991518251722165 0.3722260134618488 0.8904977651677447 0.8767447223969241 0.19591837564328096 0.1660635881153576 0.7670333432369005 0.3136065011316034 0.36786642536582403 0.554544531003223 0.18763060235371098 0.6879821430397848 0.10274881019896709 0.09431797560541588 0.8473152522132098 0.9660437461683071 0.9655016310791449 0.13993757110181249 0.9483919594733429 0.6509872919694025
16: 0.750199868187838 0.058330351509341294 0.19747379866507364 0.8040262376649925 0.8655549965070459 0.5177179248976792 0.21815818647191754 0.7634489864091742 0.06057411157875736 0.30646507470910545 0.21983414721060857 0.45325024924594703 0.3645562595997023 0.3609632288251925 0.7445505107163626 0.7246040157105473 0.5501725129599575 0.8115391637234194 0.45157064937116487 0.13145391459289701 0.5191964719717846 0.8915126367400833 0.19318393650265941 0.9057542638998013 0.7575218571763406 0.49690871017200655 0.08554005524285602 0.668403241709213 0.40942487635353575 0.0329637308942794 0.8847172805888597 0.5886671206087555 0.5805987071073595 0.9384468129320066 0.7409312091543395 0.28790236632721666 0.19530790522498165 0.9399512976053878 0.3227356888068257 0.7726405911007578 0.10508132427339434 0.6556935133066076 0.37826323187769717 0.07760863746872149 0.17468161867803544 0.6419890756523384 0.0319970570368997 0.10101405789259643 0.7556605214513183 0.355459601059291 0.5032629290858504 0.32243439849293 0.2986289032765368 0.7901557828690916 0.47657335142132706 0.707906067430787 0.8524409795482019 0.741165166514557 0.05415292943446004 0.1273163621156218 0.8518126531014377 0.7449064917150204 0.07741825855121753 0.035960668017581576 0.9044639835621043 0.7511942246861316 0.616881597435551 0.005133794533246805 0.25469606848666304 0.4932909498665119 0.598892331866222 0.9258829348376744 0.22238322163761137 0.33954686032822945 0.8628262170502291 0.3555570255340449 0.19468145009504845 0.13385968564040096 0.4237769383418428 0.528545603161722 0.6823244008793942 0.1620697951877782 0.3535005284206345 0.01060740287225903 0.5431987206974325 0.9175394719420394 0.48630813445064724 0.8404476169410059 0.7229604505913146 0.7815469381118887 0.10679783799701748 0.2727096936975033 0.7657749554467569 0.08275927912125758 0.8827619766379817 0.9133059252734884 0.9078330591537748 0.2549310502564758 0.5693011793608519 0.12101869951586275 0.7821159220422551 0.9731079104494078 0.4291221941327793 0.03856201195842468 0.6349522928550925 0.2159977507741856 0.889191409723744 0.5118008714079506 0.4832313362586742 0.17580460706294332 0.6853616622788313 0.45758399143088135 0.8257050950436647 0.8167030473815985 0.6342849205687308 0.948652431210179 0.362634603267615 0.6692640470547189 0.21586902889021253 0.3983459574589995 0.6751041978498641 0.1405258928553479 0.34973183996314305 0.7483350312536268 0.9686486831707076 0.2180366008753708
17: 0.10555138792384411 0.4893655594563866 0.7954086397252016 0.9510767804937669 0.5999061591404677 0.6780105552243109 0.13484905233738442 0.503405528496288 0.0011446435455291226 0.8516810532082179 0.3351470857715739 0.8892536188233847 0.3890190408599956 0.8896559511782113 0.1956751530978087 0.7279220773540742 0.1972626153446363 0.41964925534884767 0.9055752409656758 0.4822263828746227 0.10498652607485193 0.32743949810917994 0.6442416237586844 0.6821597418449232 0.5367160881895123 0.29134556643312604 0.39659854580081644 0.5775314619310464 0.38108282936197035 0.03383974728037442 0.9393803364140585 0.5119692170835117 0.1446331927549246 0.15934714176193343 0.014191511506445043 0.06555728303290975 0.5199105663044764 0.030288487563279176 0.4189447654868389 0.6745148681105744 0.26591232766419604 0.12268079948722088 0.12134495142284873 0.0037021673922508214 0.37421912563178616 0.6981187599281196 0.526407781528364 0.821374299417834 0.725538778309334 0.4307166333983615 0.7145720410082358 0.5054858574392449 0.8291024622526574 0.835599367187279 0.8077841473425876 0.5969821961517364 0.7812964295563317 0.9597885697378107 0.6180050665526957 0.007895887723910033 0.28010741222779145 0.816837030795395 0.3859089078197647 0.590699626983892 0.38840564544255674 0.473323558154201 0.7271134598001194 0.7802501256341628 0.7517841112910288 0.5283274843455509 0.8691031368107138 0.9307898980532869 0.1456188397332736 0.9662598985333887 0.8840748369915443 0.7878565731979331 0.5512093422942516 0.008936782225109297 0.9012580163597061 0.2585827961686785 0.44230460927854265 0.6445366992893813 0.21683000460945256 0.2737518825902051 0.6010144304379417 0.9690939119049301 0.8103685849671869 0.07110766247572586 0.5760520657962472 0.340435125317859 0.023853389566168226 0.6717996393597908 0.8464487277293434 0.6149762639969978 0.06254865919160046 0.6704772018324936 0.8603263199788803 0.4145532449297008 0.5366699976769146 0.7144298883484448 0.3810099255505702 0.45346884738852666 0.47855767666565874 0.20830295338562155 0.9917065523841657 0.44519509671432667 0.14215024640196383 0.8483008743607402 0.18517270616518045 0.0036788408404720974 0.4198712703101276 0.5634237240937687 0.19623779637049887 0.25595582290317076 0.8966138278525095 0.32116450981021727 0.6227465026589849 0.5907863907102574 0.40132625476524675 0.04122832047255531 0.9244277706797341 0.08228369134877112 0.4137739554952726 0.5532166382577726 0.08939418361741647 0.6480132834395476
18: 0.8373719167792439 0.13285369404309966 0.1144200284893363 0.9278005323148261 0.4585531430998886 0.6562134496056078 0.4578424543869647 0.20249039501629817 0.878958208617671 0.8225399475170803 0.29287457427190655 0.4111616133583794 0.828801847012349 0.2136352425225756 0.21431550065036342 0.4708053746885591 0.5480925052650272 0.18142314583706676 0.03308716313003668 0.6542363965430973 0.3569511724526063 0.6851788079078561 0.4307228971310326 0.7400117557119024 0.6270961875840667 0.23604761007304864 0.539878828825276 0.012391342825829987 0.11363095256787359 0.048859636419380736 0.9671333444093654 0.959880719439956 0.009591974596779185 0.3498783477212626 0.380786519893034 0.6976559470851016 0.145284393489149 0.5440053356326467 0.5490651896111359 0.7221768172986226 0.4702536023285675 0.6060956773858571 0.6330863081058187 0.5955534294040408 0.32781045256146346 0.6284213033941469 0.6141250182791377 0.5527387949970781 0.06034897354528512 0.9299524257180128 0.9661803392492774 0.8263771543176878 0.1682654633703482 0.5130100652867989 0.07252583198187124 0.692147009780643 0.5861078617345982 0.938975568328544 0.4288788042089243 0.8516940769773189 0.6366550182728278 0.8871254494314686 0.37601574879310495 0.7907583094071405 0.8769457481467502 0.7592933854525932 0.9611083014976979 0.17685653381088462 0.3598473761862756 0.6979429990913923 0.5397485102281274 0.19388996050938223 0.8005747336851643 0.2963692366726439 0.8995774892426206 0.9503037138851064 0.7596397416195642 0.09712744612630375 0.011627424674511055 0.7429337408945537 0.23203305230789528 0.6984233756557516 0.996931703234511 0.010433539952458437 0.9670087646562339 0.9180792045566147 0.5336533529003722 0.2681814779693382 0.43366413518094704 8.240954757324781E-4 0.7239275210154063 0.18082716710651225 0.5945760639817291 0.29704040181065217 0.389808596645945 0.19914319999561336 0.5530767000904048 0.189729170990793 0.8741585686280334 0.8646061947295177 0.6993206963591309 0.3013421312438175 0.6850075566517746 0.9681392047173009 0.1961171059270399 0.17325917941998537 0.7408639150804385 0.23870489651324678 0.5175691138751147 0.6780741513078278 0.5496455517427705 0.13294744303120476 0.2818850220672434 0.39848380715000087 0.38535017978675656 0.5988379591177453 0.8042944951076595 0.08645808165955426 0.4142771049056809 0.39428714226280503 0.6368239728389106 0.10250235883723713 0.766558690586653 0.6559454605543125 0.8587561629005893 0.4272054482474874
19: 0.7489547676042617 0.9339202380831977 0.03491771003858524 0.43589967369420146 0.7513088697584814 0.8348959290346429 0.5685108333354436 0.1321420225461164 0.9117599149295722 0.7491517109915008 0.6410238470286179 0.9468590003013099 0.2747491930792698 0.8762292506253527 0.05382646073982145 0.52737929288619 0.001056664786058703 0.909509986616985 0.06437593834864219 0.1642126399523749 0.1705469365994845 0.2917201099876312 0.7445302966628249 0.633314699315663 0.8560001376440189 0.9113889055471824 0.4792853117102539 0.267711917325421 0.44034781031652137 0.4745436207825322 0.9713222629328742 0.014741700907291877 0.5998304410271073 0.5564323846833262 0.5200737096493299 0.08379762376324773 0.982036998888681 0.5148241951000962 0.4035848618477479 0.544350837561108 0.37048358781489443 0.02944276173931626 0.9072683829809945 0.895152305690865 0.04633271602415534 0.021349017920172186 0.9157210141847651 0.19290347361592153 0.1330503376483686 0.10159466759188096 0.01209040275902884 0.8023152826838997 0.9412433531025294 0.5002273026230015 0.714050891618769 0.20935869241408578 0.7186147442130983 0.6347350083161953 0.8162677956318278 0.6256422371016748 0.7539200215673204 0.09127656689756236 0.8062990522794423 0.3042355283225803 0.4840030326094954 0.8125508494605649 0.9742046343751494 0.5858899692264173 0.10943483203957738 0.7129172317256085 0.14570329621290357 0.6994909084970906 0.23697464173895955 0.7743860749670753 0.934537338316473 0.25170818217404 0.23601725358345005 0.9163567902399793 0.03177618440066343 0.1581952301218228 0.3213862868833457 0.5774883078180153 0.3281093675852751 0.4923190171778188 0.856278739611555 0.999844767178729 0.5997508243654065 0.357286474402955 0.00686030371182722 0.663467240486454 0.07939569256390977 0.4236659129377722 0.6739578073988561 0.1837796635795902 0.48074181386261317 0.21668406034214427 0.5774889410058801 0.25474560150045844 0.94840820012166 0.5863130982329298 0.47571607806785354 0.8974493533054747 0.9646528786322601 0.04804407717546977 0.7641052002347916 0.35678407756268804 0.4601132913467779 0.8433765538818158 0.11751694992373685 0.47818583547288773 0.24786225217180957 0.6364365397106885 0.414652060635768 0.2918615143923975 0.4283929888212712 0.7367681481291096 0.9151181198074524 0.8337159658361498 0.5977172813506599 0.6182266109219862 0.5471810679106592 0.9401912612461704 0.5315806367899019 0.29003396780832125 0.20820890263902359 0.8684891382545252
20: 0.5158691642662349 0.7684403987821966 0.18001138758589386 0.11415549637447475 0.6466026836315069 0.4960681544776726 0.11772407790913553 0.7247632636236742 0.23247946062407987 0.060896996020193606 0.5835810238539592 0.7414383015128152 0.8987576374346871 0.9779833945388944 0.765865131334935 0.13923036757581098 0.11332936299852736 0.6143879732804525 0.8485209845680567 0.7828390469930921 0.634163423315655 0.5614194991959978 0.4783601510514799 0.4659629233619891 0.8118629147708826 0.8881851971603636 0.9144838622402685 0.060546982233811164 0.7719044493471241 0.7465712009119889 0.7384940437669152 0.16646227847379824 0.2481958560056886 0.7401588914074527 0.45425821521189114 0.4226587347557852 0.24290979600054363 0.3182163861537505 0.9124397118546159 0.8175903435719589 0.7471207540707998 0.21078649237712288 0.2576995855469246 0.9197196199325536 0.47259335168282557 0.5820261220510534 0.015421923865603038 0.9381658799273561 0.9171401524158848 0.14633403076855833 0.01000990289582071 0.9190701144448715 0.1142875849413485 0.965437599902377 0.03824486961175966 0.18500650178793443 0.10255869978889409 0.024491060125983455 0.6088961630345419 0.3327788501339114 0.49050197708405996 0.9713714649122109 0.6037148566316707 0.7191978714380293 0.4906656878313106 0.5957405586491125 0.41513973544526606 0.3849431310452407 0.44903742580885353 0.7230744539268381 0.9724891317390342 0.7933710469013607 0.2060391306950673 0.20374477264591828 0.08110767293152421 0.5941385613262178 0.5909878149523956 0.5883688776084993 0.6678823068172073 0.8607694675048475 0.9740027177644064 0.8980285101279425 0.8517370125556579 0.8967986601089979 0.07766006840315731 0.6215900401782924 0.23916148431854634 0.7568867384201426 0.18526664646569446 0.7022411583550812 0.48252359735357775 0.08730608829469555 0.47344387583824743 0.8114930214089974 0.9328615541815217 0.7544564088274065 0.44378421014084757 0.6512783452341993 0.16904650497225482 5.763708214759911E-4 0.33166252008751007 0.37340972773366476 0.2916515862609135 0.542575091082732 0.9298545146680334 0.46054482385231355 0.13255932211228538 0.11291567227689547 0.48043567340951754 0.5739378383168358 0.9502837527311667 0.43074015278664135 0.16050331056401368 0.940639835324824 0.7561796712959257 0.4869337106029401 0.21558583835208123 0.8264427988233909 0.14815624845059439 0.3285831726728766 0.9791727389348858 0.520745851236699 0.4162080127760983 0.2362931208849235 0.8576194420429434 0.04565381072906105
21: 0.7280208912378671 0.3020804592701293 0.8567516278322987 0.49400234573786617 0.40310712065618926 0.9360763614232722 0.37981383490017795 0.4996355724046262 0.6403672500280888 0.7570218605088329 0.8359771150301635 0.848145684835228 0.5766735764111004 0.6545517944543268 0.06444158258757338 0.6474165782568042 0.22301419892673402 0.550519125972762 0.701239241229511 0.794696224149011 0.6499322094928 0.5321196835418978 0.39416317554465585 0.7005555160910184 0.7754402161375236 0.5813351170227871 0.20581963988380547 0.3599741869636053 0.24628510388231772 0.08321980706093002 0.635619403355595 0.8969268148482046 0.19738381007025296 0.6598149849314962 0.43859552806811375 0.651225331884217 0.12444609282084684 0.6469816011583702 0.8222547641558097 0.7250067562209775 0.711245026526202 0.7082006942124199 0.6622402363431443 0.6611378105661372 0.21569230842783427 0.6623984049527177 0.09340305948296768 0.5869412991588648 0.9378196502351384 0.592110167744764 0.2049516086974288 0.7240311726738834 0.36796377549394865 0.6938066841044537 0.5966663436055216 0.6386768296022508 0.8448971067956056 0.13396200619429088 0.23773954777156225 0.9869992836154704 0.941342370287646 0.3824517831670847 0.4106187726162466 0.7954352899285454 0.33825344732451246 0.10912760222363871 0.5193037458751306 0.5092878663399036 0.6494416030498009 0.7499214032259625 0.19486623175127804 0.14081463967989782 0.5145703846148105 0.2755912220131086 0.4405331675728863 0.8531883060832817 0.2912380309250623 0.5292279007491995 0.5244932936726956 0.2277961542100343 0.8458121877903692 0.737899837332305 0.9506581976909299 0.27972869012192514 0.26787602077472084 0.4493208053235169 0.11592854263734542 0.009939699084055231 0.8145910689807108 0.19618369046559503 0.19708701306887777 0.9124435947580448 0.02897683998310452 0.648810778859218 0.40125961612426864 0.39104816649380547 0.7700527423448432 0.8810289505486736 0.9609571738651603 0.48250367355275403 0.8429833700191908 0.6446862425737656 0.15802936392188016 0.6315825766011018 0.023813124242979322 0.22498360008139673 0.22043394058736665 0.5184862833604574 0.53607174124042 0.5318039017887395 0.15154394725604048 0.10010866499298154 0.45547768352202733 0.5714779027235881 0.4237862157972325 0.0940685970601911 0.0941611315463351 0.3389344917072018 0.9967245685328093 0.108056690129257 0.14727452247235173 0.47194076250233286 0.3042717284208972 0.4969242681745928 0.27255290070915994 0.7171449071510168
22: 0.6965339001461844 0.8160753341206012 0.8173324217502045 0.3718929604590171 0.3188625756808616 0.43210501431569115 0.6077303849453297 0.38629806177689807 0.5640084186368728 0.45026119974945267 0.0711352203959702 0.7367988694372694 0.042842151984407106 0.6231881920987729 0.475850694918438 0.015451587596665095 0.48492797342272176 0.31654490373183497 0.740683607780434 0.9184575808859985 0.10230513857845291 0.9244718422222264 0.09245944685684326 0.46293680227686684 0.7281538038374356 0.3515153063852814 0.8308959444783729 0.3127148432130077 0.47659139704109543 0.3074983593110062 0.5979600903513653 0.5518990028891922 0.7606662517418182 0.19796290005270123 0.8427787195151037 0.6092772298511181 0.25268534356226036 0.3351879150443292 0.6233687997692167 0.8070806402466943 0.774333510104041 0.043423695281703534 0.49289862606373724 0.18440936287757614 0.163611743941258 0.9868630946390518 0.9808861979688274 0.8286280227153155 0.8814424089440123 0.710004843176052 0.09868693009399587 0.9372958264155148 0.4928595137042532 0.9474459124622424 0.3738173337371259 0.22870373693509083 0.1860228547098326 0.7337732807647013 0.14910771916957466 0.12084891603320957 0.17686447072002276 0.7241082570624643 0.2703710102705804 0.3066849351516171 0.187996857426186 0.4219885707498645 0.8302212050838021 0.9677432101693858 0.18758239374901098 0.20365751998915071 0.33586969985704795 0.8887297734497134 0.22718350091232953 0.12646120012781936 0.5251731087370347 0.16245881760547576 0.5271838930976013 0.5139380191053327 0.06790150715818477 0.007492441162502139 0.9241912448949506 0.2213177549130635 0.55814175543096 0.46011380272534463 0.416901828414426 0.3025299335101982 0.5289450511710163 0.347768551657777 0.8252285194327793 0.5234539597880427 0.701773931334983 0.0028676500339616107 0.5120629809663089 0.7960269195702885 0.32099898903874224 0.6338518637661077 0.7078641718415802 0.14395693285383937 0.21764060030864785 0.13467670925979258 0.22533493149749717 0.253173417370651 0.19674694003066395 0.3843837538752609 0.254768778690477 0.00877802428365404 0.44924401612301 0.7651828641142007 0.4902197690533934 0.6751431970643688 0.9517895552130523 0.7104765644175799 0.05246816699139378 0.5369374027899514 0.23710738141897247 0.583516954628498 0.5468252316951565 0.8862402363881697 0.49247449858142567 0.08289209231270855 0.12214047752753443 0.21454149793678523 0.6754781786635706 0.6727976969530339 0.5819454185764396 0.34830323295337673
23: 0.2238559883185055 0.24405664856610776 0.43948783877120123 0.052894782583137956 0.9801766001137013 0.32610798071625424 0.30548129432902826 0.3220948947339669 0.15231490981748053 0.6906935726061396 0.15071405139209837 0.16898705564285266 0.4871201498942145 0.11472926547637141 0.795233281690837 0.23895745392203005 0.3473707989575585 0.4028549082316484 0.44163941886164915 0.9766374337755124 0.0510558824527686 0.5094154869770035 0.19209639429102499 0.39601546561601153 0.6572170425475636 0.7451330874999114 0.26698417630853444 0.7265762643479093 0.3640313877512693 0.6054879919515485 0.07768943811589046 0.3382072992591235 0.8225104379623666 0.7158340686565684 0.39685140726182333 0.38374642905077694 0.9631356819824881 0.7525322788882972 0.6164496797940375 0.540426332139247 0.3829464067338393 0.9698932438239799 0.48744117610838356 0.0801049748389483 0.9470414941512934 0.13947821996324572 0.7942240855413825 0.2530535136380291 0.021151026472865486 0.2913151527676886 0.13302659453759114 0.6312065937336773 0.6708800551550225 0.6358446682124806 0.3353883128376566 0.6241620189678557 0.23842134724745068 0.44091843021614563 0.10622357215176759 0.8548500893209604 0.938979589129787 0.43993008789819565 0.1305247598406457 0.4616757281396281 0.5068449705289498 0.5551672093178899 0.24358520048336174 0.6800689566038262 0.464998889368721 0.334729940776858 0.2566910855778264 0.24876245006569941 0.29233042388668007 0.5218701330398592 0.6835519767049224 0.2847475930220391 0.6189871264248995 0.6023626822904207 0.922310215348992 0.2757432475612911 0.5930791828830668 0.008528322750893658 0.4137894346710683 0.7501442002419608 0.7309011887485525 0.8977850929385187 0.9187131475219817 0.001799282337643926 0.8880311639222355 0.0691135228493327 0.33494408410469645 0.9706016635620159 0.470111815230007 0.6325784337740973 0.41036594123355696 0.009757051462484068 0.6398142787338739 0.505057718524704 0.29784911380792534 0.8067276548010202 0.0704297082392783 0.6695868441844025 0.14581202981418162 0.1672336355467371 0.7467299263993431 0.40623528905021333 0.8212110651838216 0.7203252529653997 0.42018295358896407 0.3791887183911452 0.4213609041726257 0.8574230760022279 0.5883051700640549 0.5477192693675136 0.44680867117908396 0.37935532111197856 0.28687686895613895 0.35798297802066814 0.3795549740608217 0.39280498753923965 0.558943138966965 0.5680926407994329 0.9392352084947623 0.9712117623390077 0.19596782325674167 0.36067077601224873
24: 0.474445226771798 0.9750568585247965 0.23420290212010209 0.1050961416957531 0.7872154017129972 0.2125912434994034 0.7332818132320228 0.2459146907764016 0.18570739433357186 0.8144513018327346 0.5642397358707905 0.3143937051122315 0.7135286220676277 0.29423805508344947 0.2906095260050624 0.9869557894091191 0.3136295393244706 0.2720191947163665 0.738937635176516 0.44723682806344534 0.15056886071310538 0.24884610564686538 0.5240088303291167 0.047770522016367 0.4370026884163746 0.13776049932602474 0.619264730054773 0.41280910610951893 0.8885734948910491 0.48039862237394726 0.044345955899227296 0.6755483400448343 0.3659452673091592 0.4081832926203569 0.8793830621570667 0.5010322601690576 0.35355158761919614 0.44322714636974936 0.10960690694587749 0.9102712779669359 0.6716932269331519 0.17645310276746373 0.25404426954850434 0.6916147030538309 0.221943240113185 0.7090711318784937 0.3385099746013607 0.3621769947130973 0.6253863538125579 0.49843296902604173 0.5358018672323449 0.2251242631901741 0.3290411026443757 0.9104191643274682 0.7149507228942902 0.057886253428997114 0.12788270662073598 0.3478961508392694 0.21657179816081185 0.36186576284536276 0.07820528737265853 0.29841315854766726 0.4028109461622652 0.9059762241920885 0.4626320667010504 0.02419225330888608 0.9180725308674065 0.5043453290942472 0.8079031092324257 0.9035969469512044 0.14066256295619184 0.5827808490353964 0.9536395920755394 0.6256483595060762 0.005675447139450562 0.10910220189963205 0.8236047270473009 0.5377900900255289 0.2358975940489838 0.8891994974507194 0.8605512407179596 0.4519861528534448 0.030197458967770152 0.06368947795742752 0.05156593958844791 0.12536881811337797 0.4278159272296218 0.8792952336756176 0.09289190674428882 0.44903655297947065 0.8921666652474726 0.4545851730782503 0.52152952912702 0.1022344525507558 0.13920175572497506 0.3114637376718036 0.5754876490327312 0.059032721619855844 0.873092279661575 0.9018144978641168 0.13537628053570017 0.8707515355068363 0.8859199682472699 0.22295441716615338 0.34710330610359375 0.08976329724328136 0.9282703480265905 0.8860649753210641 0.4287568673242169 0.5489362475660818 0.8640638617973481 0.6785248197171785 0.7243266160007603 0.4658663051940575 0.8856563151684773 0.7440753771227305 0.2827361424457213 0.5021764110738972 0.9841854328698566 0.9940094574950854 0.11273030636848225 0.9755458478983362 0.4453357733435429 0.2580799805058599 0.7924806601804578 0.39576482802726687
25: 0.8721392978155488 0.9855846082236772 0.2973429977937324 0.37599211878392325 0.12412447462444887 0.015089025655214083 0.7500210488900024 0.7565265725288591 0.6060717736783173 0.045510033608870626 0.29446081029093485 0.4707863601726193 0.5398292000362301 0.9617870767245327 0.44812038132346677 0.2818218599261768 0.20908619261388262 0.09512903714105259 0.09683022542667241 0.022572001699120103 0.6797002772898314 0.8308301738016072 0.7622795289695904 0.38420567144778095 0.16711555652466326 0.7159081378721754 0.8942339524001566 0.6142731599311536 0.047607511261427926 0.3643231883914636 0.7179112655343092 0.7100254062808797 0.4915343575263903 0.009297416976366435 0.6015108199636352 0.8221415345792059 0.8344701775040012 0.51025863480417 0.9997138005639172 0.6202376728470849 0.09603997797700059 0.986193119168755 0.7760410029142694 0.31391355997334747 0.5064730739074366 0.017698119053266237 0.11027553064515494 0.8717256178804954 0.5073356521455586 0.5367832454163267 0.2567279254166219 0.7353582436984851 0.4555990796279362 0.10647770000307177 0.1349417711587222 0.9873979870213008 0.1791458279348387 0.2815579797858305 0.10650776990767619 0.49849772242890433 0.6070100748419839 0.137218545536547 0.3199750399507165 0.0533512484738351 0.9290953519417735 0.8542658433247385 0.6904183138231382 0.8347811829202634 0.1278071994368768 0.45742383810699694 0.9210401699885541 0.9313758020789223 0.2679835919408792 0.4175968143232567 0.9712579856440398 0.7264937982202953 0.631701760300677 0.8494434838086469 0.02904511456071701 0.1250878214162804 0.6409849424266083 0.46237377723996576 0.3548664825227831 0.5796817070359884 0.524128055896243 0.25608767618692674 0.33036916167114094 0.7879677140339221 0.8503067602445139 0.19103359179315227 0.6670582507695785 0.7518743510423747 0.3823292713199983 0.7096707422636239 0.008509562748615584 0.6115867250685791 0.17883612379311076 0.03617897313705565 0.09424007460086781 0.2978855333468241 0.5149478689922917 0.6402662102390313 0.24417788254008232 0.5823025575953771 0.9843065447827067 0.11498222875593311 0.1697439179684921 0.546974103112041 0.09565153132246096 0.9889548020177331 0.020877172165747138 0.8447057510376247 0.7835160632859902 0.6702225570852286 0.1379064660368724 0.3746460244324321 0.5153260283413846 0.8018461484591249 0.19299153297521476 0.16009753451275466 0.09612768370329383 0.7987377225247475 0.27792642917057697 0.2823786972141398 0.84736634231612 0.23065584854292087
26: 0.02341909122617436 0.6982808293900534 0.5675838282464813 0.01807161068745 0.019530810130381937 0.6485487591621871 0.5705969380516734 0.1156187374059735 0.6477795265417513 0.15094551281698598 0.14066553459637798 0.4720987840225682 0.9324818008372281 0.7638450040348302 0.9443529653799152 0.5765201260016878 0.17222783726972646 0.40492895338808443 0.29522818609639934 0.8264073851944654 0.9219549953121203 0.5144472354866323 0.6802530813750093 0.28762563146919684 0.361904986510837 0.26363368322184366 0.6256445234890436 0.15422154560884926 0.21182050319498502 0.8262524755935154 0.8051956862459524 0.3622915025246112 0.1270573131050391 0.9548824949132749 0.27548661479919156 0.3636446390171735 0.9478582092440765 0.2334299955818191 0.8601093125996561 0.023036126016734104 0.26385541839816806 0.4134934013222694 0.9989777186353926 0.9670045599425832 0.5029383385358536 0.1845858651483019 0.8289887906618116 0.4828543134857526 0.15694415230755887 0.5768545753020651 0.8687455014462473 0.2430822849018517 0.8161985206128554 0.9498189125762097 0.4427483836343895 0.7135555679573548 0.40075471498286563 0.18178132734836105 0.8994076855640938 0.09300505262885594 0.3482488326744603 0.2419489782988623 0.7524227930706934 0.026907371017240722 0.5466102815138044 0.8009359013750456 0.1065216109248498 0.14058527971300838 0.4844357691888983 0.9151986761130464 0.11624784684501221 0.6443650852792484 0.4326563373444139 0.10709167721050283 0.7704286457351888 0.8778865106052871 0.4681966999777887 0.35461010348721267 0.9951517025425632 0.6811693409287073 0.8036468412729142 0.6035226568780145 0.9245249364264803 0.9067977791756049 0.19653574179982947 0.41947764811153954 0.2011879839659979 0.22059252380598415 0.17761781347869088 0.3087999052106061 0.3374897972451222 0.5773973454980327 0.4596526427378149 0.0540781905738289 0.49344195925564727 0.40411530076705915 0.16647917488284014 0.13427576970979005 0.509002596519347 0.5738874458179362 0.45675555226154296 0.9289798279565555 0.6659412453750022 0.7133146433239027 0.7075564129320636 0.9425375576491382 0.44847998384451015 0.24888092251999594 0.6700893582271745 0.7262106194047114 0.522102110205703 0.8692445460718136 0.9131132055861498 0.525111428276907 0.25636411406126713 0.7568212006878154 0.42921032212457744 0.9315682325906072 0.38024267073901885 0.02509059543268377 0.4948861390145769 0.9876983345808437 0.7774935409052955 0.28731687295485775 0.7475388353942458 0.2473521485874638
27: 0.004694185267961948 0.17787974168354315 0.9706630456632468 0.2812227203153298 0.8460878757872227 0.9491720090601291 0.26322106537823164 0.9887993711331826 0.10704182002340268 0.9750265415580578 0.10993592683352782 0.8669755161813497 0.8918774002936748 0.10589356356705748 0.36633090394474765 0.07750502212464472 0.8120260062019442 0.3414970679281438 0.3256598299724279 0.7541326996529837 0.9269089588361095 0.21345705031304985 0.844443769661839 0.49510904499540986 0.7326357305760214 0.6033716867981435 0.9691490844003279 0.3979304631520124 0.1825594765005386 0.4611118495975943 0.6286129091499816 0.3105303605642624 0.5489249277880437 0.033588009877436154 0.7351417813873579 0.19677853073581786 0.9162880634463539 0.7660071453130383 0.4717799645558448 0.644029451138316 0.23508329516730764 0.995645424129606 0.6340640736682023 0.5765925562414537 0.15765829677652332 0.9224201187962292 0.6416508476578437 0.1813809484261213 0.3292927503255628 0.11105202227629973 0.23852550068138012 0.9006270759958493 0.4131617380849161 0.956367299747601 0.9600681883568207 0.10143735750668226 0.8909007853147287 0.12629579013931413 0.16107637073040348 0.6930902396076613 0.5993738678210937 0.9863805147313789 0.7709115843269979 0.5303649932209259 0.03944191525090779 0.4051206587322075 0.9702587118266643 0.9148214864769317 0.7239739193614184 0.14122865397844964 0.6685570015369245 0.8858337455192669 0.22003864655154437 0.22188920992975192 0.0019818000597124907 0.2793134436921343 0.08415972687159035 0.3353664660375727 0.06892641085452988 0.7244414446580107 0.5897129168207155 0.2818129043968385 0.7732539039146433 0.8473593247094722 0.001988689869854232 0.9528916233482218 0.9551591222047159 0.9556545843392676 0.1691395879915949 0.14383135983483342 0.955300903204971 0.38860711193459274 0.3661764379625656 0.7407914396440838 0.3799357897348902 0.535546270544666 0.6543729969151414 0.4719217046891895 0.11310360730522029 0.24830166104055085 0.49988418690264835 0.4622602363913465 0.5564867655237108 0.0036128039802522105 0.03307788423373237 0.29061942361760096 0.6683846772207724 0.7074961069997321 0.12402609377114993 0.11086895523763962 0.6203154102099955 0.47595021836828255 0.3997960708072412 0.6705318465223773 0.7930765663972662 0.0750136724106667 0.4356279228073934 0.7363678274112447 0.3936683733531916 0.9580716982155515 0.6147798970564765 0.5196255558852926 0.1903015561704413 0.9994413251526696 0.5707682626327064 0.1829038535086308
28: 0.7347834146494584 0.09064768258170564 0.7009239211513508 0.4060689908684555 0.969895427418598 0.7394362890916908 0.9716333009194223 0.2904338524558683 0.3039464733409518 0.6914493326080241 0.12332592866160186 0.5884115005677152 0.07550562825172047 0.3806269666290185 0.4272170305494839 0.3601147660267525 0.8283889965266199 0.706776938362118 0.34600860803639955 0.678879998222278 0.9702955612558258 0.2373891650575124 0.8071972600149935 0.9344520745607353 0.19805683883132763 0.43565445684909143 0.3103332053009842 0.6155746252292428 0.53828602148994 0.9277792376710721 0.7585194883695568 0.1929879283071122 0.9742820794177433 0.14007143636964814 0.7296361770605441 0.8693445097115048 0.4083650883792955 0.8599049943391163 0.8842193527588901 0.5143099617972705 0.14338885273097135 0.40455346692162664 0.34462029676050576 0.06112505083947595 0.1579977336701519 0.11801613405280853 0.17401520965063633 0.005162179604609407 0.19726447190513818 0.8583425980899585 0.5340315387672523 0.41551776150101005 0.10366633683112503 0.9865948976926121 0.7062019526726337 0.04743926087354766 0.8729272466957171 0.12346875236282528 0.9251525917214132 0.7263941377728814 0.6350735414297788 0.6007285966663622 0.8903772481999733 0.1638451866894911 0.13312199919531942 0.10199364237423625 0.8986447355096747 0.7603046697445933 0.30013833839556214 0.4610451701528566 0.7705317460855002 0.7529979325519477 0.21997488036241497 0.9657081678567345 0.1322690897694463 0.2734742162787045 0.09781714497397076 0.8014928380042822 0.15803415610145644 0.4947609735604689 0.8637381553445789 0.46156480825503654 0.5780183200718207 0.06816514883109326 0.6857806386231466 0.04824533731860714 0.6140425612224044 0.47658326261921946 0.9786570151111474 0.3961259197290875 0.5171905175023194 0.7641894198601226 0.4599777793816687 0.858013921493967 0.550873402209511 0.34162867513901285 0.4279888067053963 0.4123096983664952 0.5879360025087337 0.21135067037548239 0.7131185026650635 0.4740472595988826 0.9718591693502048 0.009476260167650685 0.6902066278724143 0.4217144873648294 0.9298086271745236 0.7185979866410882 0.32910582311579617 0.38810067564066153 0.6192260048452888 0.770172582000045 0.5084181775616875 0.3058030633438764 0.8398526620632101 0.5256721002078472 0.7204491518392357 0.5466557389059508 0.5495227508864214 0.8024173059344468 0.8550311002554098 0.7492280340337535 0.5847567002311919 0.19302567854357433 0.9656897092113842 0.589671741813339
29: 0.40613235634340294 0.4166633643803256 0.7936962744150796 0.3185795876182014 0.26360547828990677 0.8357987612061888 0.3538693811054493 0.8601500988037186 0.9083972292582462 0.5739129836440915 0.07056011163404219 0.1498368675399906 0.8657614121932198 0.3776304896385758 0.7930743105049831 0.17279295683914586 0.3268893959114032 0.48099060212440126 0.5168572497333174 0.8578041608936956 0.9184063676513466 0.2500887592259474 0.7900844456907955 0.5800373118062309 0.9643571207123541 0.3130742508158827 0.5948747436412712 0.5308132561691582 0.3682758279256425 0.21349854681331837 0.9581602550129777 0.6237459586476983 0.9118789147351524 0.36426647900708375 0.6693192490531806 0.9239731957238 0.5921156734317631 0.22495057957683096 0.2599980306009215 0.8108361746373782 0.5997564455901028 0.17698586708025688 0.836118012138607 0.2142484881744583 0.6803937880595899 0.529271329414546 0.4428846855488665 0.30112799261349177 0.9126772541004261 0.4509609171039426 0.39068548066759434 0.930647386066518 0.38879710151819924 0.398735827387078 0.3730837127990174 0.04569268791400716 0.8886789916407597 0.7826069384428697 0.2676863423730256 0.9228011226476608 0.40204544069865944 0.19730417061498373 0.22648323261150782 0.8639831048609348 0.2714460612546087 0.5355677116255536 0.03432639613822064 0.48121557154297023 0.8045538647959606 0.6951634322301203 0.7425375062706094 0.1980269606273959 0.4354698921198572 0.3932028531679159 0.2692025908183332 0.9724765584348432 0.9024739705637713 0.8093558691396215 0.9985332079949111 0.5319644170582062 0.4536045425927395 0.3938021505032455 0.4087432871073391 0.602689923465996 0.7916461777194524 0.19627483272590684 0.4112116464363518 0.7152110508272316 0.32654824300119145 0.49930839321385156 0.3932701741167237 0.17243783914049837 0.3159937267421824 0.3718096870233021 0.9227780861748016 0.6775277434702529 0.643782729880173 0.9983296493397648 0.6947130227375308 0.9365323557812525 0.3108898998927251 0.2849206850092717 0.5783297554738466 0.2742782864004706 0.1955011690843994 0.29422222238719264 0.5580084466815582 0.9318476569671094 0.27602957767730396 0.5204255322339353 0.9517332362190529 0.25015649811686846 0.3050561841949436 0.8790259009137589 0.5382140842413617 0.3865121534702318 0.8723364851219206 0.5567785064694802 0.12698315758049594 0.5596636412619881 0.901459078227791 0.5440323265312991 0.6653693195107895 0.0737416522477371 0.8874373518382929 0.7546234528212118
30: 0.1920728222656024 0.5326177057713325 0.6014617278079059 0.12776801024685724 0.8191338592481592 0.7235949450750654 0.5642341241809102 0.001901977467269722 0.45240844103493216 0.6229755618377891 0.3207521111570203 0.35217308375297574 0.14523527667322067 0.8559329714187197 0.4371057142467045 0.19129821162281402 0.8207980290300417 0.7292494520757428 0.1837947776953528 0.5477570995210858 0.5957571289526588 0.6478628628829235 0.0702702228511568 0.9558010293114564 0.09104628940876813 0.32479890856465454 0.7518478986083 0.31851325688173504 0.9252984094879909 0.6989480759819015 0.34283920318872485 0.33816538111238237 0.052186619793462063 0.8862794225957478 0.8386874685708297 0.44737200286700807 0.725035934310035 0.8074659280229136 0.1750950289712837 0.3200536200153594 0.6503816638850553 0.35852915396725105 0.4335705885532619 0.5929755116587497 0.32672086327805616 0.12099370559884459 0.8405225686740121 0.3866384293980132 0.6555235213967513 0.644174776683842 0.5009684967587164 0.5785542819905881 0.658640441297706 0.27460471262954034 0.25812665436551296 0.552448370818597 0.5395649865061597 0.35623790436793423 0.6766010764502327 0.32368693166427287 0.38557645082850867 0.37995528588966654 0.9095662859812801 0.5242372369555438 0.5236128609244359 0.32202324439251473 0.12930378338932702 0.7197245551881973 0.9147913640374566 0.978544331226792 0.27563715637484465 0.9266588010817323 8.148682434420129E-4 0.5765696483716936 0.10825843107134792 0.9996609844689408 0.10007364861656998 0.3224263562534093 0.9366333858516528 0.7665277833263041 0.7920711635054245 0.8339455134924758 0.9451188137322952 0.4032299385840873 0.7258734167866574 0.5956594707602104 0.7311200589705864 0.5614485878590648 0.9416018677986773 0.6746696501698546 0.5305627617746622 0.18801061863399582 0.10355964053713262 0.9397694125907122 0.6176475044722425 0.808593011229914 0.00940179318703982 0.9375387799360911 0.534801780950314 0.28732280075600514 0.36183013007470766 0.3965109435646835 0.13393893347062602 0.719408051315242 0.06761361641334396 0.054143218630536505 0.8915791323404854 0.16569264802261785 0.2633057593011363 0.13120794886194975 0.5980821905028558 0.39603515866477257 0.8578507039375642 0.3143516182282178 0.3151883612876796 0.6726707934960495 0.6293398149178631 0.54995327898022 0.44625741883805436 0.8752221565583347 0.8165011075201044 0.30104625531831675 0.8700427672411023 0.9457834159717872 0.7050741541434273 0.1739497645360626
31: 0.351531446794084 0.7155091194119805 0.9250434039197523 0.9823901195503763 0.8623275469989292 0.6633981363550236 0.04677293588277043 0.38427365908951183 0.018250390989496768 0.05346942839234892 0.5924063673033153 0.1999068951785885 0.5732656621025871 0.1982856126648067 0.7634656773895185 0.4003414857760138 0.7965616036543264 0.3047871672188255 0.026403095782404074 0.5406552156818727 0.6035287381832525 0.47265811771738375 0.19493049811793783 0.10536207191741565 0.5115963481683787 0.9359523228815557 0.8012712006947629 0.8317784708546093 0.8483242630825845 0.5654665362771276 0.3580490122329929 0.5820543376137772 0.15184427779658782 0.9823548573973138 0.5783502239380027 0.7457112557730965 0.37269016057989934 0.372736804956202 0.7435639922455227 0.4719127491475753 0.31125109433951115 0.2385588545609656 0.18692736298191037 0.2543238676924656 0.7065284014285722 0.8717273136077393 0.2952711236799368 0.5213011894665965 0.5295707075376916 0.296538292102264 0.5222831382537677 0.920285962630863 0.3289083783565876 0.7896881052291747 0.6536762340117654 0.9276568063998015 0.9255027727590603 0.8576553228307523 0.9679678217525328 0.2639308298496993 0.36117166948112067 0.7280036538908292 0.9961488612970494 0.3490848963462587 0.7671473822935231 0.9941625481232861 0.29934012002528765 0.6939013736350312 0.7383692967716807 0.042500005552322806 0.05560382140238673 0.6906261829257564 0.8743078697402922 0.28601047281075487 0.27539939974838024 0.7398588657081067 0.37856278363673346 0.03069774090694244 0.14974187022562013 0.03047776439802774 0.9971727801057878 0.008741334245871313 0.3759424796600873 0.5755363250799383 0.1195202151258814 0.22679208900893244 0.30288053122011394 0.29944879876655406 0.5659088219144405 0.7982507553789292 0.391076552758711 0.07041704478555388 0.44233846326148896 0.8551412559430583 0.7924067583073117 0.5769324164407195 0.45569542926712236 0.46819801974262554 0.8201191507542226 0.8583200403564001 0.25152317587259976 0.7430443047419928 0.7018821394120744 0.11667496662518295 0.6617326085885109 0.9058469322629114 0.2869165880274993 0.16117339395196661 0.23105726676194183 0.24358986687771256 0.31283248206884284 0.46562379673759935 0.028753212088170943 0.22211771361967758 0.4286122813730051 0.35625690393065856 0.5459896322387384 0.9693569395760679 0.41725246398138194 0.28913506590432836 0.42957067937730853 0.5816318697224974 0.9648958239854167 0.5251952447489789 0.9090749734091483 0.3877488481150376
32: 0.8828570335219605 0.7658224416579704 0.037193948059530246 0.38853081930136013 0.9047643366259163 0.4729826967917644 0.28199629279486416 0.5787419328296345 0.05311059323001033 0.6653284416566944 0.5850401798567846 0.753849677285234 0.09782729480361663 0.9553210757056292 0.7307010117269169 0.7058298984229459 0.8140652564153458 0.4722990683835171 0.7597771744521773 0.42022766987238813 0.5871861239398437 0.10255180907965078 0.2043822249311501 9.453033498845187E-4 0.4100394408939888 0.16984359550304784 0.12132630387535048 0.5697359307647984 0.47091957508622606 0.2784633951646822 0.25763618031344426 0.31413932803881106 0.340168067609936 0.5457602804937287 0.1945572659174104 0.19060451954901925 0.22920646373695874 0.862255899280479 0.9853272842943169 0.5288010389472845 0.917855546214529 0.13480955675927797 0.6272061077992855 0.9286293297394559 0.7241168364602568 0.6919430296980312 0.689691757953883 0.3931975032839369 0.3251628824119872 0.1603157406076905 0.5585476025136603 0.5990406902135191 0.32910276790975523 0.15747379882357837 0.04921162431641046 0.5691159788433106 0.2441600667910233 0.08837864983930732 0.5933532875033368 0.784614454214467 0.8952202180193188 0.18185452753853182 0.8087895932419101 0.9483893475211387 0.3972751470063288 0.6579763555968257 0.025666315151393837 0.195807074177608 0.5111129954798271 0.5785525503212725 0.26075671051851224 0.5380861287156163 0.5786710163699748 0.5002402779542445 0.20692450670238138 0.7186958961399291 0.2637903392577847 0.5234630123043993 0.03624370270151622 0.46514630823736913 0.008681357969421932 0.7101838543481992 0.20296288574979282 0.326505806910373 0.45722896308864414 0.1297197955184286 0.976447310598159 0.9012441922737952 0.0933369040320543 0.9841661477908721 0.13442668802827973 0.2805035795195343 0.9958312907715317 0.36363204743191024 0.1033229676270856 0.9586595145799077 0.9210132037837704 0.1863715569127068 0.8451263993173315 0.29604116188471175 0.8897707346488418 0.7900273415883756 0.9592348998847269 0.8579382523105131 0.07823137989651208 0.4575867638061162 0.7928658256454695 0.5995292169561811 0.08925555883287628 0.8852829210983442 0.8350951457086017 0.9181240582908874 0.6166428358042666 0.22955647659918088 0.3072746954476112 0.05212185380682055 0.10474233602518679 0.9063260771385461 0.6565223704040711 0.17034189180065373 0.253229341828359 0.7581989313671773 0.6091767904140735 0.7658943124163726 0.12013045753440921 0.5538851057660038
33: 0.5475521601890766 0.6455147780197688 0.13574970826072685 0.03896252404641498 0.23602502272748394 0.88829440005144 0.5559687574923143 0.9182719920566816 0.3414297529797784 0.6369953601677044 0.755464197674516 0.21760481262970532 0.7679346416905855 0.4806491216175347 0.289705673620958 0.44597800410602295 0.5580164802896896 0.4888929882202184 0.8391682943926202 0.8596751336480717 0.9988458160778492 0.6665078457766629 0.9900141024082059 0.9153636215725667 0.6173414068564486 0.7108781199935112 0.3025663798864755 0.6919820359651186 0.9473469465772324 0.47560297982018485 0.2722221400765148 0.6597238844444155 0.3088289877834054 0.47024475612841776 0.5970174014223095 0.6793269621531868 0.35168975348932263 0.059209711157271805 0.6318811279725676 0.5260105494568432 0.7857344458770051 0.7620126326103699 0.031683105078898266 0.5497851197073891 0.5435275462042691 0.2026858852662452 0.3635020969050976 0.30749217709371834 0.6043178752316564 0.8078501531280978 0.903110465968615 0.1318150394218801 0.8449080250975457 0.3109732128906718 0.9214919172997873 0.6386333950399984 0.5772882894553292 0.4845993304213899 0.5142794157770452 0.11647809846058288 0.8830514337690789 0.2928413308129173 0.43032045086425563 0.5904748857010677 0.46104898566602226 0.8331840094935226 0.41514720988030973 0.10804894665317777 0.4674459412580101 0.019655663117869815 0.3009498392686646 0.4547947699614653 0.7462754948064052 0.948682828103195 0.4467204820013049 0.0762985233305119 0.9237909305965926 0.2844504210150235 0.16055732239250697 0.45533334458070973 0.07135718393297275 0.8023477031238416 0.4206866043354849 0.5737304616692029 0.029319738059364164 0.43708820222169353 0.5525827290936863 0.3743617485412202 0.028233952390369077 0.7963495589554761 0.5166351105347512 0.331052560409013 0.9440331527704497 0.12128707349013634 0.11413193619290363 0.3328762400745563 0.3801591992859301 0.10203234734726341 0.7289009559422676 0.09416426147380064 0.7823746175281042 0.7892967239412176 0.18776746098120323 0.2126993674861365 0.9609202732071016 0.08245645641778354 0.9450604544231509 0.8159414631823366 0.7198787161808331 0.92000469944727 0.07471768410936896 0.45876878418207856 0.7750476337508458 0.35001316172820973 0.4881113309077303 0.5661000024605632 0.7793240150740707 0.1162541045611084 0.38653554779205723 0.24989559451535293 0.06854427108382166 0.2598909415238845 0.2043681387742582 0.7724191133898423 0.6909215682302712 0.5071539833995216
34: 0.20223844225219456 0.2762731224159243 0.38966609901238924 0.8901751376361626 0.4291042204174431 0.6566056665115474 0.47107025063894137 0.13116362441717477 0.9879601327891089 0.6120173412215583 0.9092850242434171 0.8093622386454211 0.41197149738259264 0.9780811295218986 0.6142102963746942 0.225731978127501 0.4861462243290825 0.4210202813570636 0.5203658170968747 0.1820698719163315 0.03422940997276669 0.44897197182100623 0.042306243172755886 0.5992736487733541 0.0313242617109567 0.48439784054316204 0.48608783815067846 0.013723877963844 0.8998140766418922 0.4335848798553169 0.20649042921200667 0.5112623733325171 0.9994799104114129 0.7878129183019841 0.6561432750699941 0.5850037102231728 0.13227914954343256 0.7956482582260697 0.9853985939122766 0.7362236351253557 0.3480702489073324 0.6569552919898017 0.5207426535288212 0.37682737722003556 0.4596394290969824 0.0066009439186990315 0.2747282591093979 0.7374071689475181 0.4537054460165081 0.17945965531289776 0.6218592839266439 0.03665716276385944 0.41914857238134784 0.878209541570568 0.41255194160363695 0.1259212508641271 0.7045304430099769 0.9015426628624762 0.09124371328177794 0.18690737841310856 0.764042144481 0.5327957765185439 0.8349156424770069 0.831109358225017 0.5543371464274437 0.03764057298786583 0.33473925540832994 0.12623551049531345 0.4042772656380753 0.47435474455258086 0.6062544630094087 0.6579509067729441 0.9954392356768054 0.6813287870293399 0.13243039146471725 0.7244977998641235 0.4633000958862269 0.8738456860848175 0.7191562768768417 0.15726711979089902 0.6573402180091162 0.755803931006067 0.6741545998906044 0.06215072843467018 0.2828723280621174 0.4319362903202243 0.30800471986576206 0.9845133561808417 0.9882262016506512 0.6922107538065742 0.29990935566613885 0.6148794432289799 0.4579880426295656 0.43248189636799017 0.17103303028386008 0.17293907907985762 0.22631468278508227 0.07409404839298328 0.9646854912096929 0.03423455471982395 0.23391231127897316 0.8500208129465174 0.24531960642056205 0.9968967546531514 0.11809054149594289 0.7362575347902732 0.6972578467347105 0.8250586009750646 0.8473722992400161 0.624566996961346 0.9292567769846263 0.3510809148239412 0.5904604455048468 0.05631069368279262 0.5724649164719258 0.47048296619037155 0.6439327971626122 0.4669813200594565 0.39702388184013593 0.8214787406348957 0.8338569387720234 0.4271847666829579 0.9665083813246497 0.805277252917526 0.05358682074543808 0.8082026708898534
35: 0.29959618132000043 0.8738131541320171 0.5033235851579897 0.14889941128326056 0.11480391398842604 0.6883316954105092 0.7565929630978493 0.7556203531418771 0.49682046047026973 0.8352599766312895 0.9946123026518893 0.22786087637923147 0.24191458668700783 0.27505420361466093 0.6215904732906024 0.16986854280340602 0.7150889433619213 0.5952202381165401 0.002324027397320738 0.8219733726389997 0.7830979918844735 0.44046322871813326 0.24802350021207287 0.22532464469000846 0.27514242107632714 0.20092883055038757 0.817124193198473 0.3198444961565142 0.4669983241690482 0.153757630008991 0.19490557204291792 0.06759234894010968 0.2845342308528005 0.7736809102216889 0.0690642476937765 0.2923662828065182 0.27901494345038114 0.8551448606170549 0.2279557728176158 0.43125083264646025 0.9392859676526916 0.4214572344607773 0.8740401618886674 0.8049529678051802 0.5748780939711385 0.13570880834603216 0.16713761933060867 0.3311513916067116 0.8292663793639137 0.0737296664825513 0.5904195491154418 0.8287166479148633 0.8639638133647258 0.2710981546896136 0.16663216691070515 0.19054253758145034 0.39182475158346397 0.41422801133696285 0.6428684916728316 0.7388622858753845 0.03187856469896466 0.4098171768329484 0.509276354772049 0.019305181318625908 0.9082097489140822 0.337449707299611 0.12040922182670055 0.13858317254385932 0.021845201054446983 0.466899505555888 0.24749785869499052 0.5055786312589172 0.6873054135933835 0.6046932451093435 0.10574016520642326 0.4967381149621305 0.2444215331848696 0.023746607377219342 0.2727780205387109 0.1340593336547784 0.33121499781896324 0.6253969213419601 0.9428492474091892 0.3375916073949069 0.23508261061917057 0.7849120477486602 0.6456735933477153 0.6942527934450654 0.22722445724768225 0.5395639398879506 0.8999520836055002 0.9708982461070294 0.3291979942033536 0.3926127895477757 0.26842893860926875 0.7919607878824982 0.6606764533959842 0.027055251756525345 0.9347860339144919 6.12667274734302E-4 0.373935361409819 0.6497487997454282 0.2322098689093064 0.22728428990411964 0.19328623793403488 0.5195311397232909 0.519291498473188 0.10050612723829866 0.7466215510487327 0.45221215144169313 0.42099018394802745 0.35242414618677875 0.201430810492921 0.7408232584187916 0.7307116212328317 0.794971235458935 0.19909248556680204 0.9812670506080443 0.20412236883418533 0.7725600386365109 0.7189422833934418 0.7515178905061127 0.066141783856984 0.2332957135181628 0.2975629807104403 0.9567817735640662
36: 0.2996236739826361 0.0030894687800353537 0.9789370609825695 0.9235319283790889 0.6875599469958256 0.19568686188587547 0.47754797759623646 0.0020939966805619825 0.14020860594990292 0.9465078675019496 0.29921183404133556 0.5204628412182137 0.054369317168897924 0.8193276152459125 0.9833661399104882 0.4212906607995057 0.3240994583142529 0.3022109959011372 0.20573770637757705 0.8094937717573443 0.150484418882463 0.7827455626315508 0.2117573289289707 0.939683605993548 0.9826457852751725 0.27250106008493036 0.9387837297387818 0.8806349555430717 0.7629917894433967 0.9367763868544299 0.22914505554089382 0.2082622905188779 0.14678424591306194 0.1780775045088706 0.7362011418067241 0.5990830913275905 0.5194168156800498 0.6204026598950704 0.48207523570370414 0.1229047774300861 0.4443699974555162 0.8462941972532516 0.5383993822434541 0.36647932638571523 0.6406275798547035 0.14974926247398557 0.9703623708644266 0.259128310161412 0.7104110580404346 0.8854636514693207 0.009545352913686966 0.6168476567602299 0.6164073457367634 0.21851710207902542 0.4024746213352334 0.9731606828947627 0.3422365863543265 0.20849012304619496 0.019517064308379073 0.22299453288609106 0.26072652976957633 0.19813579417092197 0.1026888271037093 0.9701136152601765 0.4816304911854735 0.41911251930400995 0.9811428586230565 0.23915137374012008 0.8537459447622059 0.5759169584909367 0.6895468323067936 0.39003946384898924 0.35596181745921807 0.9240382956626856 0.6872575973848413 0.6556409215277377 0.3275818704664093 0.0194891751721874 0.7951442647064123 0.7126525471406026 0.3603427481003316 0.8842498189842093 0.5421069072241942 0.0913485663586715 0.7028649396358259 0.805796081215201 0.34478319345101016 0.03149608104698365 0.7128457800484408 0.36876429258143517 0.33163098344402875 0.5997804595422778 0.23312343118052437 0.6029384657647572 0.16651967489996256 0.4983364412600527 0.7648112937510757 0.324128714140719 0.9271588587176985 0.014489045765511022 0.9640228025517257 0.8431421353212107 0.9501377215537845 0.9885654590334434 0.298276530567936 0.22293059647293734 0.5670446291179336 0.5096476018161834 0.6644921498273965 0.17513223596000338 0.8250806070095731 0.2883923995285662 0.39255763699519297 0.5046064960349178 0.6107769098866764 0.30155491130344614 0.33676931587482106 0.7341957962419741 0.07687112394098339 0.3546068285453623 0.6920155144719401 0.17182871405737954 0.9100925288601548 0.6668514618724598 0.7623957150404581 0.2182133939550147
37: 0.7715517154727554 0.4476932642590363 0.15703729013980672 0.15575216306734485 0.1916259907294633 0.7032282273099618 0.7911919018391926 0.007941255884263532 0.3076760298938692 0.18907943818134387 0.6302641547684238 0.3134023075335073 0.0956258467108595 0.5084093539824698 0.3302456002938039 0.8198252972484134 0.16538273712295637 0.8432988608020489 0.8000971075462758 0.17048529970458537 0.7652690185183094 0.7031901641811182 0.23994309473688746 0.6296279257115857 0.3720834772450117 0.3758493745680921 0.39351180843504585 0.7729019122731439 0.131104799808355 0.4743114158352586 0.5940752591417975 0.8551491836635741 0.45429547405922877 0.0875285908217649 0.6802137425108574 0.2602462622750411 0.28515923381254893 0.5629513131252037 0.011049580280265259 0.036323418756358694 0.8951507063087456 0.8760277368932363 0.6201649193422659 0.02457063728434028 0.589231612679273 0.8746165278312144 0.013239489026160234 0.5009726317065991 0.36711234089547684 0.4255650856402068 0.23651349809291522 0.5676976790841662 0.4119139388012165 0.6362132267602089 0.6215020794315709 0.7544978180118781 0.2594301344863039 0.8753400093423022 0.04595740493652056 0.42036121352160183 0.6388648775834921 0.2760796109564517 0.6418953585313144 0.581789549447952 0.26986578348528345 0.7675893145307177 0.6285733260215137 0.736456959375364 0.3508693921059547 0.4527612228080249 0.3516268143072123 0.09963907474187728 0.08021954879853088 0.3260266686927267 0.6691422841340415 0.42568424848216246 0.31421513464928497 0.9083099977641143 0.5412639306781785 0.2479311480353643 0.3851893216309594 0.36544676798098497 0.05200305563678431 0.9378603103254445 0.17791707611104557 0.07188859244639667 0.12023811657248928 0.4578998123791662 0.7940936281048816 0.3832751090213077 0.8414645985793822 0.06218788825398147 0.5223215749411414 0.5894611521340767 0.7426736092708613 0.48572842882923895 0.3749895377739785 0.633845021399432 0.22980896462477285 0.35475795660083775 0.15362100154444336 0.20535174393205247 0.16057212617270689 0.6497752901441886 0.8607167875581296 0.23618277176637703 0.7849155751145866 0.057568462332368675 0.28881024643987785 0.6714516260523398 0.26138463890967845 0.9597057296751337 0.7863995555591842 0.6160824631981403 0.5795385648858988 0.6223404209135337 0.5256164888940605 0.6098568700908797 0.9970019752814487 0.875812563636398 0.07793696531517103 0.8332515034964394 0.03426799220610022 0.2024126252952999 0.741933233943812 0.504717216157213
38: 0.6611946916152622 0.6868055016766776 0.8610135537873497 0.5943083139121726 0.5562066109876053 0.7259962604575166 0.3192900615808598 0.24907777459669522 0.22253416689336292 0.7443511180699398 0.5101610593090823 0.0024131935393413295 0.30539290679161035 0.4140706004566507 0.3348892822775783 0.9224944914156397 0.669825890241058 0.042644547436920366 0.2074027404391875 0.34431386930007235 0.6710023535529427 0.8562010133565384 0.6167406371532663 0.7252049240938357 0.5770860661050766 0.8812943557554439 0.530011365881919 0.46558669892255133 0.2893574211718576 0.007560741564185514 0.8064255573347814 0.24463538645586058 0.3450930824096876 0.59980131098618 0.8369123769888724 0.5348550493819236 0.6857780897391511 0.7204373029691632 0.8240219494476744 0.4800257634164735 0.8265447946568822 0.6219128691505073 0.4732632214439326 0.24776592996467983 0.8723039444328273 0.6735052858824326 0.3797208057248078 0.30095322563486404 0.2918531936098291 0.2981344205620666 0.06274020318437057 0.7715061416562663 0.4833189586521749 0.8121462863156009 0.4266662091656299 0.2655362715529125 0.9426073275695179 0.2846784042435161 0.4070641526330099 0.9806392827827547 0.2811105833198776 0.6630974998261199 0.6995494734395412 0.9740999319714637 0.4297360394332215 0.44713268540735795 0.7622960611288931 0.7850447757487656 0.11339392954304695 0.13671030506529602 0.7334890997252367 0.38408387011357614 0.08340173972197906 0.5271294902968665 0.5114340059831105 0.6007402324507375 0.6548327296190258 0.6800998222634017 0.007727476443974979 0.7619743687909398 0.8116562020710241 0.060296032495664065 0.5028426963117373 0.2643682412513483 0.5145880498413682 0.8944668359428212 0.10867590722110843 0.19804139373004237 0.8748899525476495 0.2837681175513943 0.5740465264882842 0.9421292134691501 0.54192603030991 0.9798735046777748 0.05683884087976221 0.85966214935737 0.993106291444495 0.02154803138539496 0.030417981457672494 0.8339409624872877 0.4119160647845904 0.6207536436945272 0.19214894095506152 0.4090124129577699 0.49305142205520536 0.7859877683658183 0.09829203488497495 0.7236068247987159 0.8232505095224263 0.175439383110235 0.26224387598337373 0.26090656431636283 0.4522314494089581 0.5836793291991969 0.6220382279187437 0.6757732270597874 0.8902171329716201 0.2829851142642069 0.6082162966916117 0.6065679618365792 0.046848282264356444 0.1640325708231981 0.5246214346206146 0.43045809868769136 0.5608559242534287 0.25056992344270623
39: 0.5923683507276433 0.37911070890457943 0.5606849256677051 0.6988226439293669 0.8011827410706875 0.29593127994277213 0.14333083900642085 0.8347600587504178 0.6625016720656302 0.5865141262165048 0.7619717577919061 0.13098777597008382 0.06517146655211681 0.5907282728771487 0.2725484954045234 0.27991245806635534 0.6972742478814052 0.6878710110917206 0.6052652096835703 0.6809587870780263 0.9165598357807945 0.9355785223435641 0.8990544659787099 0.7270005634623676 0.5271556141217724 0.9386912900611437 0.4653696295212949 0.24880158104009775 0.6516712486271756 0.9460295371929819 0.1322387682717968 0.3561438300016282 0.7755113131762621 0.8810418700823338 0.3603341001899901 0.7004540211058551 0.08415382765948254 0.1265480314042824 0.019881594836975047 0.8761221170423632 0.41434798291883856 0.40430440642914733 0.870555103532916 0.27633803789162814 0.4966299291850146 0.016879298417022404 0.5960707440485091 0.22415607939156124 0.6792503756065406 0.05233169575008734 0.7110163008974122 0.6106287144364863 0.9925534694821565 0.8914463038844194 0.7795217847846515 0.5892350668088845 0.23804156414384448 0.5027845390030188 0.163696971536492 0.09946124782531207 0.7678057444492292 0.5625694344460418 0.9543323344948181 0.12227352254565327 0.7576974628363771 0.3944299243214129 0.8271799836015128 0.6063571673566879 0.07156154220871203 0.08828832068213865 0.31520165507442555 0.9463773223639003 0.26404701700031397 0.9281817412204392 0.39049086163983815 0.7431509545400135 0.875956264145886 0.4355670369275414 0.30914693860885645 0.3305011117755905 0.9387894046179293 0.9176656883113545 0.3881989072890858 0.2146986460652377 0.5240857421617138 0.3996637608309438 0.7557471819361483 0.13977820960687426 0.24835912011789263 0.2150890867436086 0.1438118849278165 0.9656491403465284 0.8758698028951365 0.3304462623927177 0.477946402069483 0.9258038748571475 0.5491707230550362 0.6881973584006599 0.3584954599422553 0.11755988564081066 0.7213107824068627 0.46643450653274754 0.5254471137808137 0.27015364651881857 0.5637740845152827 0.17409799282763394 0.052148431982320664 0.9346380950255923 0.4806783326524726 0.9273514334476358 0.32272518808735584 0.24441770978974797 0.37245157874433044 0.08573354584997983 0.8138653308461674 0.30638854783881686 0.46115177539097785 0.6659634317767616 0.32369786975904835 0.10003258856232788 0.8147883582995938 0.5967847993350589 0.5688173205089673 0.4854495922517409 0.1894512629002727 0.929991471978997
40: 0.005075647905616321 0.5511915274031014 0.44574713787224907 0.5807852748785363 0.31858301618803764 0.06889816270841476 0.5899888446834259 0.034874407488981296 0.28042952679334343 0.26411469154353184 0.4407784984190162 0.7302286108471184 0.5619600333001737 0.46130543435334637 0.028070870900600675 0.49816549301114654 0.6670048454356021 0.4159604363371159 0.09449812929994694 0.5314495261729303 0.35328891045619415 0.3078241889512475 0.48768298817274514 0.8363435157616841 0.7873130366450575 0.4366591546830614 0.8074623255356517 0.021060334816490833 0.20532039671191116 0.6355891195396682 0.4033887189075869 0.5748197007753542 0.03753231762939835 0.29695035037469264 0.7055726288890146 0.49972372684300026 0.2936574695490549 0.6917113941875818 0.9158732150701998 0.27192165942745883 0.5047488443795461 0.9559050046663513 0.28664139927140775 0.6290430722237417 0.669803394180325 0.7161488029582723 0.5706633340108692 0.6076355944419457 0.46506934428393376 0.8312137275547624 0.7386490785185813 0.5873519244322063 0.4398467361666841 0.13773244337113688 0.7295549492696892 0.8378881869981522 0.04463661765677496 0.40552244069366716 0.8242246871670834 0.21018355526365273 0.1158152116357748 0.9316316186380447 0.21427933687461376 0.16514919294264507 0.8755792131865605 0.33209665713239955 0.4758807111571566 0.2912018775727412 0.5967289220111209 0.12653776240783188 0.9519394829971712 0.8261360321576346 0.8289262433096062 0.6530955162013397 0.49653352421219377 0.46937513125033903 0.48638468617764463 0.6998490419428335 0.6417475648866949 0.9474018227755086 0.15651899469217812 0.9937371081214993 0.009840957306116893 0.3781734730673001 0.7049025161820593 0.34913660992322415 0.7125950991477916 0.4695878686194862 0.6239501582649877 0.8456360305943356 0.5548877362856658 0.9825717190464446 0.6010657184256695 0.8781737619222965 0.09098667400577565 0.69112195470239 0.4665623563453253 0.3025945405856938 0.9697504214107048 0.2796384917492504 0.02248540567781876 0.18580949873967134 0.5488689756916257 0.2321437199338542 0.25053682854352655 0.8621287129465529 0.45847311377191646 0.7884931477983528 0.050621281847127664 0.09596747496408786 0.6508857797220325 0.469438305405776 0.9711037826256873 0.15601058910486487 0.48598478003802736 0.5054115070543655 0.3576893730800522 0.5170517211940567 0.5705906991624823 0.7431596144615547 0.969905562601964 0.7231076902182583 0.3954900639889636 0.24986181092218374 0.39248841066171203 0.6690402777502182
