97 412
0: 0.4592612757585287 0.8016206447217679 0.5704783571836443 0.9676943702690418 0.6267215824732398 0.8498558501491699 0.023694180566471323 0.5270801368769087 0.4937426843280981 0.6120914085826761 0.9715999767928549 0.43113941814092194 0.032776889771000906 0.40588542905425107 0.7974438506764079 0.5602019412561318 0.0727750503816772 0.6231860298279295 0.24922385883445608 0.9528344577616443 0.6032872549982932 0.8464145668589393 0.9888492705606982 0.008006852515684337 0.7346468608589484 0.42602895826546217 0.9858766434413334 0.479442052483802 0.8281838613811121 0.18707811804628016 0.6725995590656751 0.4770242743902413 0.4363912588367752 0.6597975718235258 0.6688718110343899 0.8083035478909251 0.6001936502780894 0.9880853631869801 0.05789603089589246 0.642549173341317 0.7389446103363777 0.4597364308695253 0.64831079345829 0.6604686001805699 0.8385052078872673 0.42360266998662155 0.39326117278736694 0.5646219778998873 0.8937335672145158 0.2113849296295448 0.1537389594885168 0.068727230577591 0.5939408592095173 0.5655525869392896 0.2913306098844286 0.25846414990664324 0.05334649272481917 0.9899245395859113 0.15461249496410567 0.5220503296400756 0.9832914859178955 0.3857358569002457 0.3837841514924105 0.08577549493602676 0.07894553729320453 0.31355194776355755 0.09973272306634828 0.5578453735107294 0.5504700967692023 0.2301823200749301 0.46657221771995894 0.7832996107410403 0.6670758643928688 0.08978439654124082 0.8208038030414433 0.7434331344151622 0.902140510744848 0.7696370819782165 0.5455940565581621 0.19506356335672126 0.7685278744785439 0.8836032075234129 0.13527036033796835 0.23815197609650984 0.715477457228771 0.6800881766315232 0.442983732535311 0.024698197149854106 0.521909113130017 0.8863422356930529 0.9335910535123746 0.37749565804886975 0.46571419263919145 0.5572420632988021 0.8741604082532016 0.17424522060687564 0.17458176351866606 0.21422688620397112 0.7861044595100259 0.9706912913930532 0.4711339601736879 0.8188530454679765 0.15579884778972664 0.485857451795803 0.7136221783790149 0.415470477285798 0.35464346893949705 0.2531233628065499 0.10316160815121733 0.5988129727305915 0.954876819735858 0.9527981939307887 0.17945859746821935 0.3148338870939713 0.14405453569475113 0.6850102383832093 0.2592115818518572 0.8869074260249579 0.7389552170930611 0.7161464006466114 0.8848433641344557 0.5745549028994844 0.378777905487686 0.03773926500021063 0.44594837336989157 0.4181446947414881 0.8378474153370474 0.413613459850678 0.011815839131187555 0.6005532477036152 0.03964507078812052 0.45926703753001896 0.07061592005250206 0.06556373870492471 0.2768340360511963 0.6968781887046184 0.3093123476500248 0.6728181273554902 0.34604995671332095 0.45999058439644924 0.7880921776007155 0.7404274062792575 0.7915793766652307 0.9838460548675649 0.8640792310492792 0.42888368466183513 0.2186496308787238 0.01049616647240692 0.001324814512488115 0.05370709415944852 0.6849057258565417 0.7622390302886823 0.16754549571312516 0.07929943453476906 0.5077512727199522 0.19259173239106853 0.8628047233311544 0.24276533616259832 0.43558189220497323 0.010922204439747452 0.9513111230678875 0.9840014317454382 0.022541321957651905 0.09502934528846296 0.37473328792853877 0.1171421415042243 0.21928200919626673 0.555373466417801 0.5139073320246883 0.4684906120299984 0.6463131319333134 0.8953236911044398 0.4355397521086718 0.02735184554376613 0.7518712198364627 0.4237025839743426 0.5114851633487822 0.008724438095352838 0.07284951687418106 0.31907312502101737 0.9304048895317302 0.11059625623208535 0.11517407300445803 0.5196257579330937 0.4350884164544886 0.16362831362289332 0.9491162133416139 0.9181894034180021 0.21344740220052638 0.31730070278288247 0.4753821528486293 0.17880198750338328 0.24716731557662996 0.8841327105531404 0.4594227417785446 0.8594423418580308 0.579229031442333 0.9723789858676366 0.8542571533343326 0.4249376155238199 0.8999892710935151 0.0776425100024305 0.6362066958609824 0.16472565823963858 0.5712348309801072 0.8751336644926353 0.3632855690709018 0.9920650687683417 0.7086027776762472 0.5568448224695128 0.932597893415145 0.5944502043776017 0.22498480209273863 0.19169776081408785 0.5609412368766973 0.429402169799889 0.8010107628853306 0.7517611841861754 0.841918558166191 0.6154710314136709 0.593433049885743 0.643924250994664 0.8432122791904371 0.8551984303845609 0.11820967375851843 0.8139509242609847 0.5992757053098218 0.14495424644778698 0.15231089164002198 0.7486296692266102 0.027548095191496147 0.17597417396027937 0.6867505479556479 0.9917713685022604 0.25040216094304535 0.01159017284811803 0.933069964501405 0.11109775344053152 0.5403833158158544 0.8375590685361759 0.1364784538619528 0.405601726723435 0.6229023510924634 0.32555885358639647 0.48108180073149376 0.02674982490343858 0.8683944802890889 0.4243364018044631 0.6861059576197343 0.6019363666698198 0.9850590445072188 0.19865434300167162 0.9867498358261406 0.8948876588617971 0.18364608959276885 0.673098808123075 0.06927796261477581 0.5152540009949644 0.42735749042876947 0.5059738486906963 0.18719038477730654 0.1984156799942074 0.3027817274304233 0.7179224422525139 0.12378293118687067 0.716569198230787 0.25188300884475145 0.6305781465763216 0.8861387380491436 0.053448053564937203 0.390417209583247 0.6324652126476389 0.016567603122850993 0.07757202147334197 0.9047483924827148 0.382529383006183 0.1897364878609552 0.582707677406292 0.06689138516648652 0.5860956296035768 0.32721131593683295 0.2292624366964061 0.23670737921666962 0.5337125900755041 0.8058565418216831 0.6166225338623332 0.8305312154005455 0.180258603762811 0.4625156482374957 0.44398555518506644 0.1271103678777108 0.6598471248838476 0.0046219568603148575 0.4760262950632207 0.9545872823989743 0.7814841765879235 0.12486646721316863 0.8197740763300091 0.7563586435922396 0.2310943216667395 0.0877749089358314 0.8403691398515915 0.26899583949732164 0.9174455108564613 0.8070239152700271 0.8959039580217921 0.062013501705887375 0.14266757496257454 0.46455189421818455 0.9553450424308992 0.4871238610988179 0.052472696477111835 0.5359969921710781 0.07856985224915258 0.16371624584401823 0.12685112040398694 0.6817216634884381 0.6838417816297693 0.9876532408137703 0.30892812598895236 0.3386587669001373 0.5055864299981794 0.7920755907279443 0.7378337536458378 0.00544199290014491 0.15412007241332504 0.21176045430760826 0.9508499577900527 0.15175874893860697 0.2290216785709871 0.006678586858764435 0.8507637614695834 0.4025914128704814 0.009127733259415405 0.08574773877691177 0.6962701441635166 0.14898819240893624 0.8446687797084588 0.7383812773129932 0.8664311640151432 0.01923245272862928 0.510855685911469 0.12928230663403784 0.1746127002316331 0.7077551831475387 0.9472624355688577 0.9410354198287275 0.06298390725848191 0.5038623664277327 0.003641380750939227 0.15939966767141767 0.09557895167654251 0.48832521510582316 0.04034619879281043 0.3878075514817444 0.7860837694098985 0.7731078149915352 0.4903264070481633 0.7504273612193042 0.9459259067446677 0.34798383047063164 0.7796968748721378 0.3972464087553118 0.4189084936913644 0.06751947845260398 0.325174335820017 0.8599854333383631 0.2805438272716423 0.06287755889396063 0.679212351887361 0.024255404986198825 0.3234065146649331 0.3951232145142769 0.2774550404631243 0.28121964018592005 0.9242393752129834 0.08018911182507227 0.6581689630842603 0.5011258576157013 0.1942101423700523 0.71038369944034 0.4696017440566822 0.8314240031699026 0.650630625484079 0.7733035963260929 0.058754819310702366 0.9637877640857185 0.5166139514214104 0.42623689273308407 0.9438471353612071 0.43720867467754665 0.15456018003370664 0.9226213690880788 0.01278526893817633 0.7484338858639222 0.07002403815947122 0.10684767088568448 0.8612447651543582 0.5263694792225833 0.3844325174924593 0.3946744365896778 0.2865066466177727 0.7936737382723754 0.6682850792698455 0.43874880040619735 0.5869817147528598 0.3866153346671394 0.5508818952766831 0.2422021040717539 0.9823947441665286 0.9333736553855767 0.5782908177107504
1: 0.8280174985415689 0.16588942636450843 0.4013099109114848 0.3781771545561402 0.6978424290928142 0.7268541872856135 0.11533896887874362 0.3082845591874158 0.22114574444837198 0.9420580985234227 0.3223836934549553 0.4147695587014857 0.7840956070217006 0.22272474162434697 0.83099498418237 0.7072559532132 0.9972609096136288 0.3264616629123902 0.9905725484508663 0.46938990386106305 0.5122157026713534 0.2955013055862289 0.291222412844261 0.5668400384992487 0.02935246049050433 0.9664991109039178 0.16313945584764478 0.489101278152267 0.8926866393632732 0.812173173806718 0.13350417542308035 0.16712520669206732 0.26216153312022683 0.8213586124291372 0.35923512725938367 0.44571355165478566 0.22993915019912925 0.10158961927158194 0.695539211462871 0.4577758481340033 0.40438915505676143 0.8971105903869394 0.8830543167190783 0.046965936438068234 0.42396453577391624 0.7552570725317512 0.14048002460806774 0.8158764156223971 0.5828795790894659 0.6454361559495898 0.43494353350716786 0.3388840042841341 0.2514816276333064 0.937475221654982 0.9689498899811074 0.5719028412057499 0.056435196984251146 0.2798969413173271 0.9706168087464504 0.5157170319514913 0.8493134350089433 0.5837172741173569 0.7029961613095131 0.7452275279026069 0.33691861111938515 0.5136527129264542 0.718635634737925 0.5038624416208928 0.8726292408349788 0.11616148820809202 0.7771358209913928 0.6805645591866611 0.31529908474510027 0.47253309223606976 0.5163092444408921 0.13618302010418104 0.05070887044875794 0.5552794610198374 0.9216496286298426 0.5267608042313916 0.240298658170502 0.7873693424148537 0.8741715065340588 0.9831236621052097 0.11288510014462694 0.1563881539380716 0.5732809441699729 0.7493396735164513 0.6472947567261673 0.11949277902105304 0.4291909536382661 0.1570336414890573 0.30732051920183945 0.9500712991639683 0.09849569292775273 0.11820344865827781 0.5851355389308263 0.6233059343604361 0.6968696901463644 0.6561006119561378 0.9852751776339848 0.8153767733035633 0.8644596156996165 0.8619005759886929 0.738523894289102 0.09983275794388013 0.28238788350536925 0.06430275085935777 0.9735211768187181 0.9646960509441809 0.44288889126242104 0.929864242624735 0.2936265701167031 0.8451538858718088 0.9609498908702264 0.6737852252091812 0.7075604980023169 0.9692321975910734 0.4819308481473996 0.5540282296727203 0.6445647913054571 0.44763367134908316 0.2874882406865803 0.3460671775379146 0.3483022034861002 0.7039622243125919 0.031230338907641042 0.5512266518824193 0.28844226382871285 0.03784479309072131 0.6458818563980026 0.6784855522291063 0.35485556625955517 0.8410005987429701 0.35533876943422316 0.057783421932150913 0.5065672313733075 0.7450969028540515 0.8978445704717201 0.2922819823351128 0.2360948978087597 0.7702696081311659 0.5206213341887858 0.6376980859135861 0.6795244833492025 0.3644755684419324 0.04164047240049207 0.30873900533466236 0.4536529204375882 0.0763834063377482 0.29081930834664227 0.9558340544615757 0.33375379739847155 0.4882977126423209 0.5407819377089998 0.32977185020521094 0.6989983420715797 0.9506514330176922 0.11642314888389027 0.45751540671121815 0.26729087111693783 0.6058897224924371 0.23286711259039594 0.4893820270090168 0.017254204210474522 0.16710780592307162 0.25301309914042824 0.7459388503210276 0.3523272484618841 0.9255946901031264 0.9787125000357018 0.3923789241148271 0.5004134135079386 0.5014729482582179 0.293723086145241 0.5988066645671272 0.8622452732073915 0.9229148774752819 0.4619373997299583 0.006775860320939131 0.5226071708277117 0.7219533293150164 0.6509846722910877 0.8155872320990714 0.4207842992492494 0.8686954865643165 0.7991562275574288 0.8262666107370146 0.7400831329377955 0.530786124213294 0.7727067835897283 0.3368091577255775 0.9209947191122129 0.8412565944343514 0.8709349081962132 0.8691886674258947 0.32854916225294595 0.08543458901757928 0.1280479388419199 0.3267954233585749 0.011635585976135565 0.9763786418541116 0.5336678658334746 0.33037985715982476 0.18053910490631597 0.9783406068779054 0.2479368286131891 0.16124367434140052 0.9986725023324624 0.9590484767372276 0.12253142650202553 0.9523338247836919 0.03545678783663986 0.8041405814455439 0.35549782678858033 0.5110589000250361 0.25953184116025296 0.01087179526435289 0.9056702986305054 0.4320616080367161 0.7649543995003232 0.6932510065514708 0.3715374996642239 0.9638450136001464 0.517767473544321 0.8770583487904416 0.39977320607822053 0.43006452175255494 0.28630176526979456 0.4407298958490339 0.33024830046815035 0.8744610352552699 0.5757964337031088 0.5668861542553701 0.707193885761458 0.9978255102340334 0.8264024809618069 0.10932033435339727 0.4902859240501315 0.38604879345085474 0.35335964319481994 0.8515509346402151 0.2847737402091851 0.4902245806032357 0.5091131845890482 0.23558241753561815 0.676376427676584 0.8129378856323929 0.3293640284118782 0.7733070942425969 0.8045224093090074 0.2792848724261381 0.48852253327577466 0.01801978774986701 0.6366092871965131 0.8268344033904136 0.7347621158793356 0.669806507467466 0.016312529229557615 0.8356555650083887 0.10084575564889542 0.1161071305091973 0.450572919197628 0.1376994986667155 0.09412561083065141 0.4675411353340957 0.7727448906261226 0.9942378125829644 0.7575910858749002 0.9391246988273393 0.2734885031424765 0.61072430346518 0.9635690212247202 0.2482960985729492 0.6263402268627778 0.4703600652485014 0.5526546425580549 0.5537062653948316 0.951498805467087 0.010807153006673786 0.9626796464130597 0.3425191097544755 0.6592139710177076 0.942908809416839 0.8059996339871622 0.5890067570714781 0.2932679066871884 0.8159395577311574 0.44811005967625905 0.4535127219601456 0.45539007084394867 0.2708213314977326 0.016576266681797236 0.7683956510884777 0.03304830252649882 0.7909071050545088 0.4264896348065985 0.5663555423069458 0.3759103420132659 0.6593463374135976 0.9471387677165375 0.946582588607892 0.7703714514755093 0.2627115649198225 0.5543109404821358 0.64545886038506 0.5468954413648184 0.8424790391228231 0.8136154581898426 0.7810813371868612 0.42151812803653943 0.28912043220475825 0.3224477090713622 0.37466441523685867 0.22071357540787584 0.5979768015148367 0.8016884596794569 0.41691837152971956 0.9679249148338163 0.16175011296947506 0.7729602706689512 0.44379036933512184 0.42041373360539724 0.16136144676539776 0.38323894869924724 0.8134924052410965 0.5366828277659038 0.9350891887723998 0.345844764120928 0.1355309375171294 0.02757898799302949 0.3553148385065249 0.15531457825225325 0.5924908970939938 0.0982845340391022 0.9228676456634005 0.7033826789414581 0.21661649346338296 0.723756596506272 0.5008736417338556 0.17427491443963672 0.5357701401974097 0.31677646273295057 0.3531787926542581 0.6297465257895218 0.3871399220525652 0.44562106996855455 0.4268296945413319 0.007771618979016903 0.11210478621414299 0.33747176854755156 0.6237597041219413 0.3535181670559303 0.7919561221378816 0.26402620250549447 0.14374219307981329 0.9772190095250397 0.6617133757604484 0.5473806942530122 0.8488366799765793 0.8907761044178504 0.34806003319562084 0.8471028139339496 0.9989679395649946 0.3134118702066999 0.11746594320501247 0.593514419150588 0.6389418188199609 0.25640765141426525 0.8918503958648842 0.917557838812683 0.3791159366876198 0.19794639014342397 0.3916800509320818 0.19421878260363334 0.30510719047586987 0.6413027125826332 0.4001845527740938 0.3643315926596412 0.2763324515914958 0.9131005435608878 0.8074113734402805 0.5286938879915583 0.9288424274466061 0.9030848662421715 0.7891314624203268 0.9187689468802113 0.2848230488391358 0.5728302586551548 0.20314520869368857 0.23985616240940966 0.9893026761624184 0.968036599123899 0.04432828465115013 0.5554611460539102 0.8440175888706682 0.1575374578581088 0.5897951041519438 0.33569879550988957 0.4890522134881369 0.9918743824822833 0.6868475540528106 0.027914095981419917 0.7947844604078393 0.825266413510317 0.48891492274187376 0.5243070657552051 0.7698309748275338 0.37703031122875563 0.8284806946752258 0.19919972947955034 0.565100661706935
2: 0.7219846133530055 0.33103042443871367 0.7676847084435595 0.4597295302577016 0.9940960925794887 0.3203442889006032 0.07774641988707609 0.5515833211096183 0.7636042147668319 0.542996815379285 0.08954748360039078 0.24317900252533686 0.20508612810944016 0.7487154126796763 0.7184247586963859 0.5132896517751175 0.11240051313713906 0.20328839232925555 0.9222403439683291 0.3951622754505012 0.5361756172660893 0.2820021891720662 0.3990852111662735 0.044190908691017605 0.32048371934020936 0.394126577964663 0.5279343537353962 0.271052591688979 0.09756985254016504 0.6227558357618527 0.7327034522407485 0.44072714168041505 0.3629801662563994 0.6293525567462095 0.2792597209825164 0.19348583624473714 0.09816132725078541 0.5686304831447337 0.6252899189809361 0.530848632877656 0.033579112644806175 0.9869508739017351 0.8345309827311541 0.42767276114580044 0.05263063987779437 0.9361970489084404 0.2397198959250081 0.28095049201545086 0.42510179327656406 0.8251299763273776 0.4927208769354994 0.1865574104221437 0.5286473614132986 0.8515172133347831 0.37564008098734447 0.2471064842600983 0.4677483546702037 0.21086640810011648 0.26333879873898636 0.8572279933483347 0.5318273786564114 0.6613840704176435 0.925608253785674 0.18700842237658433 0.7476795562941703 0.4398184084442086 0.4363705616040815 0.8899864427377859 0.8761029022749511 0.9691354347700613 0.31762186734752185 0.3990175034340906 0.07858903304212339 0.2765153938762156 0.6874351892717707 0.04148292860309266 0.1371610639622315 0.5489461911502138 0.10419231174458321 0.6047335269529073 0.5489225741630233 0.7937297950774488 0.0033153921044593027 0.9133214969140884 0.036607909910880476 0.1425058684451166 0.10812061845228804 0.441488665275929 0.01740063913471912 0.9399369926110511 0.9630177741436775 0.9775432751314495 0.35451354356847364 0.39198771308313085 0.7851311975209812 0.881171432493083 0.2795002899915632 0.21377005300054164 0.15951908916018032 0.5303931832794833 0.7179949194231139 0.4132156150774625 0.7135197265332719 0.14178791758264253 0.3775528723534731 0.07437531476084669 0.7973547931935093 0.2657768828085705 0.8634925101703175 0.7629348561979327 0.3709713885532063 0.908165786536742 0.7771138109314831 0.9665750118085813 0.7512061000998969 0.4098135071301292 0.22039704353553846 0.8040932793423636 0.6087058239109762 0.928207619946147 0.3822603525683066 0.08974348303150459 0.6206418546608051 0.6078912264495349 0.9136826577635602 0.723038870956603 0.4831049855782348 0.3010999178260423 0.6124739876673977 0.2893027158596595 0.5661714074192392 0.005631272736249193 0.5332024708834067 0.7025401842111763 0.3549801065155441 0.02388394327711829 0.013763509728907164 0.6997440184872779 0.9617647983455466 0.21516697826769393 0.2673032331349734 0.004535572431848434 0.41663416991269886 0.6127944312899163 0.12668513837221496 0.018081769753638843 0.14899653035738836 0.10814398257734459 0.24841493100615641 0.9665179808670495 0.056875949142418225 0.8657728632779335 0.5839157177174972 0.5366454229337718 0.8279689641241134 0.6268479302755811 0.20827173659519793 0.16546091611215885 0.7241420008975734 0.08256116228409605 0.6600355421658828 0.31411624143841377 0.8701719206540256 0.054865777320867615 0.7904206103312844 0.25319246793347117 0.19788281989347212 0.30878217416997333 0.7461767692965917 0.11371497992701596 0.5884345454465174 0.4386871101661849 0.11767380920708093 0.2171230102624203 0.4283693970443353 0.4204133932293702 0.4721939197665457 0.9874465343477926 0.7491255215186585 0.1016516773146745 0.462161243477791 0.0702335380592718 0.3550764267483919 0.11505979834677049 0.4490124760849087 0.6353080500800894 0.8617583630910477 0.4416492322356136 0.11563958218093673 0.22423016995930944 0.3637983977401459 0.12643236990097706 0.8538121472032721 0.9183666979575781 0.5311574972629068 0.45397820754964435 0.8077134618355813 0.04977158713621477 0.2926549845075951 0.22843839940358246 0.33070059472710656 0.15461322736794725 0.9073417537025166 0.6707692821814762 0.26962604885247676 0.377675452385725 0.14714163845682904 0.8452898864011321 0.929534388854868 0.07649781168139647 0.5182813943660652 0.45838007081633814 0.7912743174644392 0.9450100359718832 0.9343819969874612 0.3340362165870022 0.05554296749864218 0.5790540791367687 0.020684804082110264 0.864167422041496 0.8691058541241803 0.039977323206967896 0.27673813632119415 0.25592739330010994 0.652412299637487 0.6375178965916928 0.6539713837966592 0.4540431745295014 0.2925532281817306 0.8494940314730891 0.7149350105754894 0.20301412811518948 0.09148398910445543 0.023346970628923103 0.43258667045851906 0.8322201333159672 0.26666219589630014 0.26337647638041217 0.8608552742879948 0.9963910254488487 0.4897266316171661 0.6975476620618957 0.3618159049649562 0.784553959066347 0.41857002346387207 0.13903567751709411 0.8101607936307995 0.32248896572046126 0.4291351836046463 0.010215130485750734 0.21225246702808842 0.23688765042812243 0.7854901141589872 0.28058914267479296 0.4748970509707475 0.12382319766359284 0.30021493957348 0.08519298885000526 0.6380773760303073 0.4698048115517809 0.13185930722840267 0.6362951771124509 0.74623672566314 0.3106031325683084 0.7422061671386234 0.01875909878918569 0.6743060159588338 0.2811975727636986 0.19330392187637346 0.4682164175125343 0.6475186184821538 0.6096102839948312 0.9027056909881214 0.7712432173010271 0.8981583654440901 0.03805597487250256 0.6950810108367872 0.49801841484068765 0.8877383739386596 0.6167504276952892 0.4893418101832113 0.8804832819707412 0.789709136861152 0.8088847074437683 0.242650919223644 0.28280995831240496 0.4756469518219312 0.36968647743808214 0.8361584898857607 0.37602603788037936 0.07697382984748102 0.018153437829920183 0.43203733748362794 0.32493083801780553 0.3046133990734753 0.0069580546140585176 0.45736557699297387 0.5229788306546951 0.10058711064678239 0.31418726949070475 0.7776313837265187 0.6695939544749544 0.8684079403846994 0.32999415046148795 0.811110645495187 0.27441835073891996 0.4832297237978631 0.5919032460161354 0.30509568819035215 0.9942873907064285 0.5180617374609721 0.33442508975701457 0.2459293029930747 0.5612627435779244 0.6389602507207902 0.3617993127274117 0.9070248139514013 0.4438432433508587 0.9199596110152741 0.02710015755667694 0.35252991436737346 0.7985135487950105 0.9076077652570294 0.9066020471484818 0.8090182325050482 0.7150788954593763 0.625321874268319 0.09521691156966305 0.1935689854415804 0.2367732348392967 0.349381946585023 0.9169792647499467 0.7438223298886474 0.14491771375320694 0.9112315794689212 0.2439686535075961 0.13407358731382368 0.03794508277258679 0.4848565580068599 0.547723818708555 0.6811972819928426 0.8058945624196975 0.30336351247600724 0.269116149047244 0.24516701204430158 0.2040213421268725 0.5154828296757502 0.08581490124966562 0.2111654460957899 0.8629531236736008 0.4405709016399201 0.18089000269422306 0.503753779604165 0.7378660623260757 0.8097888698267964 0.6717629194467634 0.9282972935312648 0.6954408120416745 0.19148649639937698 0.9456297101303652 0.2608205369495269 0.66489876847234 0.6904212327988424 0.7656444840134065 0.414691090940851 0.5382078032108414 0.18329395947999094 0.661565950794509 0.7010088275654438 0.7945853179352506 0.8071851930929832 0.2992333529936918 0.6693028840124099 0.6457162698717716 0.15282589283458747 0.2351520911253202 0.2661161307825213 0.3506420692913905 0.6312397717991332 0.7056340998546141 0.08128268568122599 0.23306603992433006 0.7801448211908388 0.8743511855444234 0.2651812907720197 0.8488596777008692 0.8556036101508169 0.2678242063253756 0.2949732513326708 0.697843149456361 0.9147633564888986 0.965284974599668 0.1438107568738528 0.8514528792362314 0.7371284294435768 0.4775113569376005 0.5642277527647164 0.8766973494000577 0.35465966590888254 0.1486508618730079 0.1354017924162605 0.4768423025788987 0.6650957771963911 0.34571158345744946 0.4437026216904294 0.34055476260590944 0.5882447573435233 0.6623131232036596 0.2669188427135485 0.7937746780491338 0.4915936870327845 0.8564552373292622
3: 0.9147815541638125 0.9823722494273736 0.15943756345481164 0.26647478431643223 0.9418794354675137 0.47868763884687227 0.4088292874371553 0.005026415969982323 0.2937872819852515 0.40133928367549154 0.5660041519054374 0.31783635335066995 0.5732057372037234 0.36522553662347346 0.40853389000545204 0.11214233674625496 0.5201370950193523 0.8374340833011147 0.8513174824881005 0.8091474345977685 0.9885982209246515 0.7648122054914179 0.6086162719707571 0.3554789475751221 0.6720985342169135 0.6602398200156965 0.29969374817085737 0.4405579240327646 0.5810873376428451 0.687187267955356 0.9822210934048432 0.7099490668145317 0.8078013510325254 0.6659273616356769 0.8954615494182231 0.0391744925729971 0.4274199375487645 0.3398119243221125 0.27434809682103733 0.7381390359107814 0.4791621306778028 0.6863107811433473 0.45592042309393277 0.893229109803402 0.8469360727061495 0.5350507967213145 0.14118882841377867 0.9223104978440767 0.5163777419569632 0.263881959589351 0.5983445208196638 0.8172655152671148 0.12359312819523416 0.8840356575355357 0.7973365808142708 0.4793731134759721 0.9306438397614075 0.3967302858617109 0.9511882635694302 0.014750039883657418 0.3637929359484009 0.9061177698338178 0.7060264381586469 0.8502351194125191 0.032754784135690884 0.607253981612212 0.2696495662082722 0.0545129602648613 0.7126684084166652 0.4328147813661708 0.09756117550210919 0.3049370701003089 0.11524120944211813 0.8385690767167774 0.3657475109090179 0.5274267363367438 0.401485994512094 0.9351584154251738 0.3510794388900502 0.3549760477488483 0.29570118285326175 0.9325225710112408 0.013070234519092838 0.19972730758690516 0.3488199808744863 0.653349369518857 0.5248225914189629 0.9142255859389051 0.36898181899898475 0.6932155618099975 0.23634961823851075 0.7293845524765058 0.2881550377649684 0.6576256130069211 0.5700562120138933 0.3998584042457489 0.7658669249188178 0.7899431784227419 0.6460187458466998 0.26192857062413044 0.6445733828121203 0.21925024877531518 0.013802639705826403 0.21467760951885584 0.9659275048933704 0.0034570510227047713 0.7279086666852312 0.47213755702446936 0.6331824329220614 0.12052531636574426 0.14554094501652515 0.302262947056941 0.9621908557678173 0.569456879410123 0.24824046688700674 0.8679939502608672 0.3019396081507577 0.7827376494810643 0.9930302220453187 0.7163381820029839 0.6252850003847541 0.6232173133120894 0.1840690136956208 0.4233145867217665 0.49153031431216987 0.34094315783255436 0.6224128883391605 0.3957659781312691 0.064714316399333 0.9992561360678086 0.8393346669380967 0.8554618482539 0.9349553583385715 0.044495802712216315 0.5477537445794225 0.5865763916040136 0.3349228026201684 0.8899504625293101 0.05667912132903352 0.11454118508497124 0.9694840392334952 0.6122272860788037 0.2851716674312613 0.6024354437271514 0.08380120522737211 0.11700668225632127 0.6851815470094961 0.9004920387015806 0.5836294443051167 0.42118401311337395 0.3367195311268284 0.8649596891171674 0.9912942001420482 0.01969089608825514 0.7141716911875844 0.2744779264947468 0.7718017241339574 0.6578274299894511 0.1391691044682929 0.41528341467190655 0.09576406996544551 0.21372567402956266 0.7332754451823399 0.6809821242629138 0.4192958387098137 0.8106038423281786 0.7628568391969112 0.33828439320783377 0.35576669178248643 0.7247596664645685 0.628850068729149 0.9470151181667251 0.19027027089810955 0.13279035997593125 0.3957470803472778 0.7908746408921503 0.04489669893096382 0.25031618721068116 0.6769643746826245 0.07484023987371491 0.14137243226078022 0.9545226786939942 0.8978687113905376 0.5757623929048885 0.827357521272417 0.5541269949522946 0.4430808797106106 0.8946235149261665 0.033667488359882425 0.9729114710576492 0.9612817126316298 0.45209145588674793 0.6119128168886891 0.2467577864450422 0.1485957382053532 0.893414041212739 0.5655264999323915 0.8991533430234359 0.660729489202152 0.6243643080699858 0.5318755883360448 0.45643109904149703 0.4143928466072917 0.7868613969636905 0.9991304655033508 0.09154258456954356 0.4301338568958476 0.10105502369173835 0.6487910120931119 0.1439535606110759 0.5415683898529301 0.6500758512579153 0.9032461543752521 0.0532901849581624 0.7500882069121767 0.8643186086539237 0.22746947550020125 0.06565317695465778 0.7394819712730845 0.6740380329238171 0.9849302783079097 0.9240561100567529 0.08150576010671651 0.0422025334564603 0.680025961584979 0.6382332148070659 0.9612908286209629 0.8639641511971988 0.232818151597028 0.3441012899153192 0.8305785435725613 0.5247672068301422 0.5265818662901095 0.20944882501333895 0.25712291247792574 0.2460330589397436 0.8446529035779874 0.31996539599303075 0.38020396289856306 0.7155210792383594 0.9702859323902309 0.4885125690911698 0.805045724597153 0.39888128903417075 0.6617119073531068 0.9705769232865056 0.473034759390776 0.35957726123503475 0.9343100344365908 0.14013543334969203 0.029986550872037054 0.3762724963206715 0.08278627270207306 0.2827013661804555 0.48130862210591896 0.6399373383973848 0.658476506467284 0.7961090988962214 0.47076069591688374 0.33734742824012853 0.680369806203474 0.2546343385491323 0.3486141306023083 0.9833090666552017 0.20317284367897015 0.9883361187563579 0.30536392764144404 0.45086071498769154 0.9917138155183455 0.05704533007172885 0.23874875436469234 0.26686384580209843 0.4582105219520759 0.7572140312093755 0.6946852545191233 0.8898107290020855 0.2074037361805794 0.08987871832217498 0.17682544324740945 0.36734048364706307 0.5042836844689728 0.93927972528818 0.3547963854914211 0.9828687971436402 0.7301140845049694 0.06421812347725353 0.21778406388352123 0.24390134975743816 0.42468432755842545 0.38802039301956626 0.01797412186831593 0.8390138887265498 0.8261978267164515 0.48802040482851217 0.927463821523573 0.9961473045918026 0.914929951072642 0.6317570937814088 0.6926118449026372 0.011779144714737178 0.8427665561526088 0.18462546789828105 0.21139288499873 0.5886974359186465 0.28796019367150916 0.7225074665181982 0.8821766091684572 0.019516676720634285 0.7129175313900916 0.7229483825109484 0.7764517938561952 0.18374012988034683 0.7225585002767314 0.2797336226421354 0.1733675807384506 0.788086278409939 0.7217639596964444 0.8882596006401955 0.7605663065681147 0.2729614564442707 0.8526551111024585 0.982881509492035 0.853632605961739 0.3323750963498463 0.7559248692306326 0.572460079857145 0.3155865892368399 0.05025735934761111 0.04516765049311877 0.01661812735454038 0.4681989404098087 0.24305389545323397 0.509130544611828 0.7127570937495451 0.17850858996226804 0.7166356526295238 0.96403568693143 0.22267261424841867 0.4767743053938315 0.7949764370650803 0.36660002574193884 0.15764727436662285 0.5161937904889755 0.6587143958135566 0.268105177368855 0.9621877826421148 0.4200746070947805 0.7436282381429424 0.9408468009636353 0.5891129884346927 0.5787439775109873 0.6922225231740704 0.5405194429129556 0.9424879211396551 0.25633464217186275 0.12603078999351824 0.4815690379771642 0.879938376331319 0.9466869793827366 0.8119092618967377 0.7972726560791392 0.5121695272614681 0.7779578790215014 0.632507706182798 0.6322804016413178 0.5150511779148585 0.4071295263263217 0.13926850513946465 0.17258221096976756 0.17842101532321186 0.2684617205087765 0.3657187812242779 0.2563379436428801 0.9557968753628587 0.7440339621945758 0.009484294824209982 0.6287361279514766 0.35047755144911064 0.8098743596952981 0.05336857122377692 0.3050232398197862 0.07605097164233221 0.9777743623830264 0.3890038707386899 0.7880719014465802 0.5631176185164395 0.9007395971325176 0.03099542593126159 0.950332924846194 0.04907613593105997 0.8391290169182625 0.06514420981044455 0.23474287535418104 0.6841070979892088 0.2948857982996771 0.5612472182997715 0.45513500123037587 0.3140300122612043 0.51286504938262 0.2991388027048989 0.8839284727604747 0.8594975384929101 0.2211152479966928 0.30605042370817104 0.5033470052784057 0.5010303407479919 0.9360714825021931 0.8840303010372487 0.2661445507183845 0.20068453964941146 0.3939702218322051 0.018078310660076813
4: 0.962792637942549 0.4436833143346234 0.18639733317136742 0.7988158792073532 0.8243100949973066 0.46713276456166664 0.475731875154897 0.7679246492465294 0.3033926526346865 0.6579816937562978 0.7453505038484983 0.9002510857084977 0.571226518132519 0.24867363612719884 0.8998083366235403 0.2733894814957215 0.14334649616496975 0.9164787005120555 0.6718140754476724 0.34371870754423917 0.7051257235209729 0.40128198470086396 0.21566830792954717 0.14728269679567685 0.6459609791737795 0.7966440391839749 0.9709361635419463 0.6745688770896171 0.03094344476217703 0.7402381269689462 0.36547613218439046 0.13015212787654662 0.7397822412491855 0.3323083743662303 0.6935494289129428 0.7813366544582981 0.2849737324182515 0.24458121887199813 0.5525849230583174 0.6243420222971262 0.3846869220195297 0.14710241237787147 0.5512768140441258 0.15224303904045489 0.710561164447089 0.27676051890067144 0.6120437544356204 0.09578849316354943 0.3565894218115212 0.6987967863619615 0.08247930601999554 0.1263862616711371 0.4824868983518551 0.571390680273431 0.04327543561766334 0.15995796048695832 0.27342081298617704 0.5134491855175755 0.6542025581988458 0.08102905032361452 0.8277047315188357 0.9970171048233701 0.11508064087093173 0.41833498574242567 0.8350361290808036 0.5382647408027826 0.835277999757967 0.7463884004124842 0.9400836379641525 0.3447980656988886 0.7031253281332361 0.3618654290795442 0.4997061367617375 0.9920761898115034 0.9257351388190728 0.0893341013945661 0.036812806400320586 0.648009311330484 0.7700669251026925 0.9077617713312153 0.06984978872481784 0.3423497810082955 0.6776811874417287 0.45740205156348 0.15412553608446067 0.7862779099224823 0.6484762845778377 0.3860763291053726 0.9096636041093403 0.2876233133640923 0.49280399148624543 0.9245289032985705 0.5299982463271392 0.3784511884829901 0.5367109990322094 0.04244864631263112 0.7673044353327851 0.8742827409635273 0.6316551014389716 0.029914137719299072 0.6714809188707469 0.21800727978173529 0.8678968900272359 0.3734337515394932 0.4242814134266534 0.1265831202286749 0.21986852761719233 0.3514156565203522 0.4543149384437427 0.7549132728101077 0.4621734338101181 0.8608169909253951 0.644714029969605 0.8188206944082922 0.08647199349482793 0.604885638139099 0.8524949859758031 0.3778376365952616 0.6223597673371946 0.9213220588980015 0.1471117677186199 0.26856191532913465 0.7194467148538773 0.21085230644638997 0.14543089762613992 0.5006225776664636 0.5831971478281829 0.13811824189883604 0.5713322305837969 0.27983601079391407 0.8736917808953216 0.5199541430454921 0.7003659280431859 0.7069231276854169 0.9743246516528177 0.09053337079378476 0.6633736544340891 0.6151969795788581 0.6165498728195878 0.13853307798924697 0.677707606679397 0.4569189419137142 0.20714366528031336 0.3483784151441732 0.15065817568488415 0.6255616894706661 0.8460499713271965 0.045792258677668785 0.25692742441369343 0.11000495682863409 0.9457280658518817 0.4472902820881802 0.03046195522156525 0.9167299826475632 0.5670237960002726 0.44392526702219637 0.23068563616283488 0.26736753576094907 0.07193588997589151 0.9114988647669989 0.24414873577563767 0.1814930689634724 0.46025191858818526 0.5326226603103003 0.06483737948134993 0.6883519602933141 0.8048789785239661 0.640424746583314 0.9598626397349145 0.5762368043440055 0.5297960174865166 0.6493622215689178 0.7719764469853798 0.28452769512722864 0.8849068207107034 0.22551353917128147 0.9363368674607299 0.2709455760597467 0.8636732526855262 0.46688920464235106 0.19617286044599147 0.9453577088402362 0.9822607499591849 0.013713431728931691 0.6904743042593527 0.05151350384423781 0.793029370038343 0.18929266921045795 0.5565605322332566 0.19937794296522493 0.7405548265936662 0.9840020860543776 0.44135631610095805 0.10326889468897793 0.9849664768721486 0.9380843325238007 0.3474313631223266 0.9647935172873002 0.11523958221336084 0.7533690004513309 0.053336032805970324 0.35461848891949044 0.25418183702226316 0.7696861150379718 0.9424917715701577 0.8933973242058362 0.9172049682392877 0.2786596631098216 0.45087245094620176 0.009717353428386533 0.12857403709433002 0.015732605558081758 0.500938264244438 0.06171799493794927 0.7216787803456416 0.07068792360143017 0.2277613348056351 0.14907110123050693 0.45397259636302767 0.887594719933179 0.023007931154659156 0.013302897861581675 0.5525765808926953 0.9870225529176395 0.4234194935174317 0.5269764645794259 0.5731474242665713 0.536530786362167 0.6526604975186291 0.4060426525855363 0.0024596816453298365 0.919854413240035 0.6888784797772396 0.9447062973133713 0.8642543096641399 0.010871308999245266 0.5750476443510131 0.7684435725532932 0.6982572014436249 0.9453504090366348 0.3151439529732586 0.8283458308819671 0.6738726446498148 0.8016438142837946 0.10642660988680908 0.11875384176511439 0.27290855994393093 0.7509006034201775 0.846577072508099 0.8901856264225027 0.92979172355236 0.9180436069996388 0.8241734187478991 0.45085018860255366 0.25308266796601 0.40666451490045596 0.2519541567023119 0.0025782783051340186 0.9687018720684921 0.6841572800728586 0.8345528925266096 0.34079088469162166 0.5231299445966732 0.7978230604229111 0.8758607271854694 0.663164482879074 0.3639464863886508 0.6983446933543798 0.5259009451566172 0.17794172003001396 0.2754235631465296 0.28394233118892753 0.6430762710222182 0.680375162760727 0.7884914831320771 0.6466860344285155 0.40487592186436205 0.7745806258524578 0.6072460635608575 0.4018554063797257 0.23860616085415143 0.9581156105731155 0.1982681877961454 0.9118999523651643 0.8634348650509134 0.35788793173571476 0.17437771102946964 0.6784684285321932 0.2360164618078946 0.5085380370037471 0.8710461103826943 0.16913916139000684 0.9741912498306139 0.19822792096671316 0.5615426415390354 0.8698973468542269 0.39672851993566505 0.07180879256407513 0.08599167315920209 0.4100698555676924 0.6618103780502509 0.3776281267829631 0.2798692262667979 0.19334144046922097 0.6129291875985736 0.9717764318508639 0.4790692125576843 0.08664095149274642 0.8480983700180538 0.45236272641272535 0.5515208818236604 0.36809984161275544 0.21675284295144637 0.08644688224203079 0.359440625642964 0.3159494479291264 0.4184415760656153 0.013546155149119166 0.29165346767294054 0.5321374911460871 0.6283919753608493 0.06217207209179143 0.5220196925805461 0.33760847818670225 0.10725198209358755 0.39964318562693324 0.9478556690961174 0.35060657504614345 0.5657918755169055 0.15045804938968188 0.34133740828284587 0.6650237406785592 0.6500755727852812 0.06480181060316126 0.1072285144824513 0.8827297475767515 0.28858631382929434 0.2962991471139603 0.18187480914941867 0.6219851293165607 0.800019338397728 0.3569150775524781 0.03126019434580507 0.023451614483895544 0.5989300811441517 0.35694418899105773 0.4100190543852352 0.2059794652559056 0.05615330021846865 0.7093182804339043 0.5286527853309596 0.5862642231261924 0.5718847612821968 0.5800010013189386 0.542799448978325 0.46963054814908867 0.20154414211787608 0.5000274855765209 0.8262565921273386 0.3436134575664712 0.23801395961209526 0.719785738656102 0.3185595925039265 0.8616731511263168 0.9985761899859282 0.08242599820615815 0.34826891171811025 0.5912919141722907 0.6908443646099632 0.4208229239556328 0.7247215287231821 0.2188667380785353 0.6392163786373031 0.7413047242091786 0.5638529999378062 0.053225148300705016 0.3418485760463783 0.7474026438908119 0.2677987134428661 0.3502554306025678 0.79787932795332 0.5781627281814733 0.31333384360075056 0.19305703897846083 0.29560636732444767 0.9881012693382687 0.020813638351283248 0.4051805023734255 0.38454862395221834 0.5796744862511759 0.2731267789437578 0.24894078217332738 0.06780029325855408 0.1141715680704809 0.23327647381140526 0.46645144401554905 0.3458108661405507 0.37322973984244134 0.46955525417159083 0.5579417140531595 0.11870206494817392 0.5207088999985715 0.5388810526141262 0.060082062502554545 0.11145845017731226 0.4234523371100838 0.001714022717795638 0.9864581842557507 0.9248058638067064 0.9294993992701077 0.04607440121050943 0.5229976507066664
5: 0.5343175056425535 0.6736044823024845 0.3835341022623071 0.5330667476213032 0.561264949344483 0.5824566621995019 0.8466559094579077 0.42011987739192336 0.42095717400893307 0.8857823103959838 0.16520536143534947 0.42019788695998983 0.017787680611834222 0.10455297199558622 0.7275627849830871 0.452234919182279 9.36430541121358E-4 0.183809333918039 0.7441136131414074 0.2410486768674669 0.7206492388461537 0.6651513929994477 0.12099757772342834 0.5460519541852603 0.9322448363871891 0.5527338804680406 0.5254478752671187 0.9781383105881697 0.9834753425921939 0.31664510067322305 0.5780542940894695 0.06785766546217686 0.6905933277293427 0.29883665807113136 0.8426343573318945 0.9599131607095709 0.35945433969707974 0.6393099298756492 0.3009994153010832 0.35217310661574264 0.44021139100523576 0.7240550809639856 0.29775340753982693 0.07180722863200673 0.11763342355688933 0.07127675353423091 0.5193637507446869 0.9868194792063534 0.7338068279247701 0.5187300682647992 0.43209556900975765 0.7881645418385436 0.31595593171099823 0.552529502886468 0.7450017314764228 0.5457986154743383 0.6393442581279375 0.6265820300828304 0.887013046697289 0.8414295103716827 0.19369543690812907 0.36183556805987105 0.19127417157625126 0.7113948576404616 0.1412989878917077 0.5858220440923897 0.4652228455443247 0.5950116897826655 0.8559430299467595 0.2755143380091467 0.8915108864110606 0.9769041943172154 0.9140419084437797 0.6003045124435229 0.7527178739193386 0.43623101411424203 0.4728042271201508 0.42695058132737707 0.30190917315999244 0.3713972037421489 0.815012253456874 0.844627652211573 0.2114420419159594 0.7557499983367286 0.46596141728090723 0.49575853870828346 0.42402481833156846 0.8979219847407424 0.695333976138931 0.7570879080921903 0.9028859987503598 0.32989881733602644 0.40525845271868477 0.10550324231188435 0.732011436460143 0.6265530961388475 0.3755324488330254 0.32439466289571706 0.2527593078570387 0.17229984282981137 0.587963321217701 0.5588851786797971 0.43976467805139496 0.6336931400176185 0.8840073573010693 0.6120514314050648 0.5168957709787102 0.17119767197043834 0.5233653768277934 0.2892946092868176 0.893127520746317 0.22903285306876475 0.30591821693363075 0.04430983119462306 0.8585475731900168 0.07890105764741706 0.7953632827825163 0.6576417026279302 0.12231275709032274 0.1615763041901438 0.8401387928418754 0.1876024936225772 0.1972252656245873 0.6697427518962588 0.0256998833277019 0.9733688589826068 0.8396990642402825 0.7461372190417204 0.9119365306989904 0.041361379957525646 0.2392390566794792 0.13296382888874614 0.9105003441584916 0.8685514190084522 0.41815679134784967 0.10171263482113746 0.43903346655161435 0.09012741998261742 0.35009813789388267 0.016928506362004048 0.5527697707776817 0.4039929957450217 0.6350599319082758 0.9431404647724703 0.5987045958087623 0.6208579305875169 0.1789242379824446 0.29107574138878145 0.5635064582088751 0.5362215690258031 0.2171402156474005 0.6174468106089601 0.6935701323758656 0.059338275583802 0.19503548301957696 0.3420139695236102 0.654087301752248 0.824292902254158 0.4713398691923997 0.3262896098138779 0.963737913812899 0.32960342704197854 0.5468569425196245 0.970165106765057 0.6925811422368142 0.5053072193755348 0.5368190322530431 0.7259045677590259 0.44295213761505303 0.4902762246618426 0.9033141852784131 0.7033641610169951 0.4466469405354435 0.3175455008360747 0.04327432640498052 0.34595993925328383 0.20640464724202467 0.1517284777621153 0.18786575533447902 0.9938205799396901 0.48567236853200413 0.7001317312406932 0.2107246153558725 0.5187261765159338 0.6078651094565733 0.42797077507850334 0.36533139110439883 0.11484780853349741 0.9648094654377238 0.2481272563350828 0.6759204165329802 0.7599667772191718 0.3537862196420295 0.42717791436591457 0.6916715925767151 0.8237669374768075 0.26356369915477984 0.5519634255625283 0.5805329954224501 0.7929565358590551 0.5120404778250806 0.5347555413224981 0.08687526276133173 0.1073912657383218 0.7015921800639635 0.8001189832937814 0.7062794162343959 0.6570335395498734 0.8029441579834589 0.9928546341597564 0.5411115870724181 0.576497218901042 0.8043678363210023 0.773948303024503 0.6921402136233605 0.5920911189517748 0.7702255870595627 0.5302401162403947 0.7143020051237652 0.32568878199418283 0.8413654694017421 0.11356672647284216 0.6188251469249759 0.6404159240632792 0.6795931550939582 0.04641952530299853 0.1392692805302399 0.3250609851279377 0.6094260593965175 0.9836992881361755 0.4956441114203397 0.15727850695186518 0.24255986742599123 0.6039383122678473 0.6886190687088681 0.660068952526795 0.6839555591688767 0.5183990648878324 0.434938869254599 0.671682514099038 0.5131804638724814 0.23274788440746985 0.21551092121796223 0.18600893987542677 0.6106143159109909 0.6735414833268974 0.5492321753323612 0.7886789523894485 0.5553572825323799 0.30055257099547983 0.5284746556190486 0.413517296878142 0.7601536199812364 0.36600057859275315 0.8562503854995172 0.07465147495828117 0.7283714370207469 0.45304193169109863 0.1104281576820827 0.6914937873965045 0.8190553183906032 0.02841387263358064 0.7269758019591304 0.11697929248751215 0.6882950749979938 0.3779145634211637 0.24205350604359932 0.003855435034107124 0.13863098537283614 0.9584416048701644 0.6618852530129101 0.1994836189123501 0.45294145816110376 0.8965995801478702 0.4396868379377791 0.9465272594778794 0.41523687797760767 0.09142712480524473 0.4305306777881831 0.28506416027091497 0.12800874332148382 0.13758221185668684 0.36787892806646194 0.701076064014336 0.42426069973504965 0.07536417206918788 0.8596184440098812 0.24693166741717665 0.14207397376816133 0.7952394959870166 0.636782204701894 0.07139346816679049 0.7805367207059083 0.7770777118911837 0.8047434749512633 0.5398432028912384 0.08809324249736705 0.7280927535092051 0.14452092921907944 0.899834576839943 0.9478452993173933 0.5985242973559015 0.09093414621308793 0.7527457179838951 0.5190647972775383 0.4003824428908558 0.8747002557009423 0.4292184575661201 0.9701532276391132 0.23211832096100904 0.45716484057823914 0.7342349404668361 0.29551047543607645 0.920872315124052 0.30921088936259067 0.4270966905797088 0.6472508933451053 0.7339904323092898 0.7899917416119127 0.23223511687136278 0.3324328120316009 0.6827887238267685 0.8664853510105288 0.13869614096231941 0.12744276197273785 0.04408434288973262 0.18146856798984856 0.23930648312711678 0.8434030081323559 0.8588014100930415 0.025362141600018373 0.38494243365205727 0.13994734408784604 0.33199822772610266 0.5964982390066528 0.4849863278186558 0.42943678248954686 0.2549521301952431 0.04471410467907677 0.37197019860305125 0.33966289019656104 0.7974769373967883 0.18477697208101473 0.7665698140662184 0.6103139862302586 0.2774370658334182 0.4389970945177981 0.028526335920619816 0.48695492585912703 0.8044615058759138 0.522486735654639 0.059737325808762676 0.6459983705593817 0.01614985442160599 0.6198754786794836 0.9376725992262231 0.43512219022113074 0.47760189202803105 0.3188926700604092 0.6004340202078849 0.7458134988539075 0.6988907693241729 0.36408041146891335 0.1791938290339664 0.14819696375757174 0.1401394625581217 0.37300133270137326 0.37940812098270404 0.013031558217466377 0.02014888008149851 0.017657265453215887 0.6491179928317719 0.2217361025760345 0.22206520640328709 0.8154364620724573 0.7408141335832165 0.722530845811636 0.09836307271532774 0.5967585821737597 0.6727541177798262 0.6292590407458738 0.5174602405219224 0.9206880946147554 0.02628737545117632 0.779178290151118 0.06556846958048967 0.19513856416607456 0.9776547570071595 0.6669890854502567 0.9199245598138478 0.024891542669785216 0.4558957862091706 0.45459347558330865 0.543334181007359 0.358505596066098 0.342908933857929 0.31955410996577815 0.015000553874290778 0.3342924475031698 0.6873755823902945 0.7499501650609119 0.5088989952569853 0.3358887796668505 0.49117186979213867 0.5193030363217193 0.1584972656669359 0.6595539462785583 0.745056639592712 0.9824717521752157 0.3054109017803667 0.36817502285789916 0.03983786497546293
6: 0.021894175390762216 0.9196218030602236 0.3610626810413038 0.2598842933313765 0.4432766748115854 0.8001770021497234 0.4239726896634558 0.577762376492583 0.8708119280219413 0.017824288094050345 0.04038921920613536 0.21194347872410024 0.22423034805466424 0.9448298154119612 0.04295819484927632 0.18393977497741176 0.6734679373193837 0.13226218122634503 0.7630598296751818 0.6168915501069584 0.5614595071438025 0.2413164502757923 0.19686181108452794 0.9545428618475222 0.16154278589568793 0.21279070070279926 0.8477953554439349 0.8477060806958264 0.29318560006259364 0.8676166732344445 0.32824875175382606 0.35473051617744455 0.7582249466016829 0.17138524135445343 0.5073736872372546 0.5331538120256855 0.27953308331013493 0.46709632268368617 0.9772520730770887 0.46162944163943676 0.12500270058180463 0.08290223729493396 0.8762720186172617 0.2243870309327496 0.8819692678884706 0.8554021353899985 0.6564133766760243 0.414896851932974 0.9106657833108985 0.2740846186912024 0.210245126334897 0.27107375987788895 0.8500315019986128 0.14880439811572266 0.8837876997827085 0.6412696255473044 0.17517242030761926 0.9297181655185816 0.2929959383233802 0.5984677776060802 0.2129985088429478 0.06789361741588007 0.5344688200982244 0.6695067310254138 0.21103869944475206 0.09484499043030503 0.3350946554570895 0.32682478888513433 0.024161554267717822 0.4205373000385304 0.9206912507381138 0.6021308484545205 0.7349058595952396 0.20194041639945215 0.9003026224188686 0.42457118500152724 0.05535212108235166 0.018003506329942742 0.2606651001185495 0.5603756828776355 0.6719423009732081 0.5019593695048078 0.6444572808545089 0.8366313635792935 0.7893821149666239 0.5281568145910259 0.44630009457171793 0.6687449326042141 0.005736083173291329 0.028158902695793686 0.9020743331021878 0.7793200717515517 0.30805294352628954 0.019633604655456383 0.2699750652041927 0.39558951987314217 0.4163346492123201 0.9716025015214361 0.40582353163199614 0.14320586791049283 0.9233897094750085 0.20090238059233356 0.520508995621111 0.3161089499885362 0.6790874894226137 0.5972531825392876 0.6740342001315964 0.19535211391133367 0.6497566732386968 0.6081157353299976 0.6084901033932891 0.6141833542275361 0.0469485058526794 0.07956071501429973 0.8513867598121111 0.02234158550548737 0.8645104122246278 0.2456599676764839 0.6311189699337008 0.8894422987074061 0.08889406669604272 0.8864502820973718 0.037946687245248856 0.40549101602090687 0.7548467649961987 0.43330875336757035 0.03672215440755178 0.08597672824660851 0.7071128781046602 0.5906178003348626 0.39169676752383753 0.06966196653865386 0.3984978609358173 0.863887081783571 0.2990924628045686 0.6091000603519411 0.3056242515035055 0.23703884862034097 0.5397243447282497 0.4970738979993974 0.575935629110622 0.12535165880015364 0.2618120172250894 0.9465651038402066 0.3329807969052355 0.645597267355468 0.08321953034844087 0.7475261886661824 0.6617376622404029 0.19119406937072214 0.06271469138934804 0.3606425266538609 0.671711755263073 0.2777394625098757 0.23144066186215173 0.9764349053219444 0.19277219456088313 0.6330730120643514 0.7986437519477333 0.46746759953317363 0.5971633803404282 0.5460609447335125 0.8498033520986048 0.5920908853635984 0.9608579577230191 0.5595816532876536 0.34066126415083586 0.7700610816653801 0.27839263528945535 0.6957312648711879 0.4572492800272169 0.2435451542380147 0.7275555617627709 0.5350566592837255 0.9598654516343516 0.46143086321464766 0.043770100327009454 0.6366635258555007 0.9580511008535586 0.08052813852416074 0.908746321744193 0.9823347673720392 0.6739720845899144 0.06416025320507646 0.883948855889097 0.3553348185923989 0.14320948450105375 0.9768087959642717 0.8266550355492667 0.8233636258857805 0.4748163617484116 0.7228893860995294 0.9148552451028659 0.7851637394638115 0.24659886152632282 0.6583998321756841 0.37697278987951466 0.36157259290714316 0.8469314722055612 0.2160960304272801 0.7733578105706529 0.2643512700063757 0.0910178184914402 0.928015505325805 0.2087362179864355 0.659910290312309 0.23735998214134046 0.0035818630213423353 0.1682708382963547 0.9600914371610224 0.6093006547857842 0.4271880767431443 0.7646192191405708 0.9184547745899754 0.3868544932333652 0.8760704996690495 0.05934836416438627 0.8880576248705083 0.775646065272489 0.6274490883719147 0.7792936155103068 0.6055027707678725 0.6826236358594224 0.02332390453029287 0.1869255451880697 0.406071201288818 0.2323195725108892 0.99198203913319 0.08351491292241797 0.3460441363849357 0.942779702328225 0.5871826272113798 0.9248628560569464 0.3108584143359121 0.14688545686312704 0.4991523058239984 0.8115893208004868 0.8215277559744161 0.29264425890507295 0.01593707844478731 0.6794500355515964 0.9168020037949057 0.08512505410547289 0.9693209327714046 0.3598784585235285 0.1848253384694003 0.04306787050813565 0.7864353305156754 0.306925638236231 0.7455935348392182 0.9347970421926607 0.8863481284223798 0.6939979109515361 0.744299161533827 0.730920299193782 0.3103340498884074 0.2722685274017732 0.7056931619570994 0.165396475037077 0.6551932793510247 0.8523658144911139 0.9208799893613145 0.7319072283502863 0.09089881558374369 0.5219176787597557 0.8905024034779806 0.9590684606225895 0.4870170441924656 0.7437578078112704 0.732061573023335 0.1058700599828516 0.44675999117569853 0.29307644459523396 0.3741567325256002 0.9978329507422106 0.35319243484253526 0.586524640341245 0.30671790775498486 0.5847247699540522 0.36903023259537604 0.33225747651569104 0.6338441979017052 0.9422768004497003 0.6996307082028773 0.5871285863959258 0.18464946999537313 0.8631961822981241 0.32819037330547873 0.2457246278674865 0.4775558152922541 0.8868693782497933 0.8628284319182071 0.7056549208078321 0.404764720329586 0.6025039529470076 0.09714937415203273 0.9544881904190173 0.6061746650062365 0.32705787766656946 0.3790419422661353 0.6059548199780519 0.6358030727975067 0.8071563930185723 0.9068849378959937 0.47650948090833856 0.18880939938613628 0.42329878257800857 0.6279958035154476 0.13807580266407982 0.8535056241670302 0.48500850396131745 0.5010708855132089 0.508771139504993 0.08027879062634646 0.5971815848021856 0.5025307046022868 0.950636022262881 0.3181400597037901 0.7507404515635232 0.9060977378032071 0.531869565565731 0.5596532680077231 0.7448009008493396 0.04559805064063871 0.08079869627047942 0.8562854255379064 0.7829125605485041 0.9828924578342609 0.4097853535449676 0.7187600082293606 0.6025336451188196 0.24600661806134505 0.6195028133130424 0.7007839366685144 0.2947534665458721 0.07694380521577304 0.7074883705064976 0.8795573564824234 0.05037693706856339 0.43432809131178995 0.7996065747941146 0.3927649072095538 0.42883711227968935 0.33293956319923634 0.19903350946066833 0.6692855517290476 0.388003541197142 0.9703675428144768 0.10459945078265176 0.49964835189718837 0.2358054259290937 0.49042172452037014 0.288803350191598 0.6322991389503761 0.8686906440258965 0.16360498121264833 0.2455396424626335 0.1530332784071109 0.14729252496447098 0.2268661279516796 0.31855415667941156 0.5074880641784842 0.026278640261331532 0.6180145138889049 0.10387254019626346 0.6603778246213312 0.10320685873166158 0.36459259422513923 0.9829212118140827 0.5501933491663177 0.580315680171226 0.44266698801465265 0.987787140884889 0.6943770278025044 0.2435275130668857 0.5079117776227647 0.3260400153634022 0.527523454891312 0.954544762113334 0.019522827479689808 0.7997659764267467 0.8139446124055945 0.32477088904920026 0.9269152959848351 0.04193939804572555 0.26597804286009896 0.6938891446018806 0.2698208331022167 0.9629854499004391 0.3207050081680255 0.2712841654376855 0.7543149903550809 0.0513627721962151 0.8802849528373239 0.31509273519085323 0.6104695070063847 0.20422221322963652 0.7049019330540509 0.5215214961298529 0.8117378844631794 0.5776739816591622 0.06235681539333959 0.3761713721203256 0.04184721246005085 0.5409224308038448 0.18462964093578393 0.07945946394718295 0.6318828368249062 0.19450382983407455 0.059273617082699626 0.7998314250368158 0.05841690304541036
7: 0.07008964476711976 0.09229332504881238 0.43130798795344416 0.4929453439015733 0.56779357714476 0.21919728647092607 0.7360120107135263 0.32356257437077984 0.4066479895920212 0.11220457593916588 0.7376727660274435 0.5317167031659408 0.8648915986177992 0.23412477528367037 0.4987068552006969 0.30005256869917485 0.8689364642001064 0.623218466895943 0.9613257702708289 0.2517635102284943 0.05335967910415618 0.45838574014864497 0.362222344201075 0.2775371315711149 0.7589910464991594 0.6503183965543656 0.8407397652138847 0.9930943768741091 0.5621448164553514 0.9317909937306373 0.25202774094667413 0.48848541785252386 0.33527048525832537 0.17905489658512186 0.869543329147035 0.17971927046828606 0.027773226254784622 0.9863382852154026 0.615353912206146 0.2539691153171617 0.32548242753147805 0.8367447055181136 0.6920525646078354 0.41150848824285235 0.09822229175576225 0.5653811840619756 0.006697070690159568 0.35069814396477605 0.07716548558198866 0.19433633896821456 0.5750355536680741 0.7167570468999217 0.5171273090890072 0.6341679324529998 0.17338319648128087 0.040715323512926616 0.693684400708125 0.19284842005825187 0.865866153832695 0.5318609571516221 0.9609787043359835 0.3106558839004251 0.6763501151423205 0.45515584724328206 0.753293617349608 0.44828706736204293 0.5972230933376149 0.22451148400935428 0.35196629685932945 0.595508207171654 0.33130276846977535 0.2734778958467978 0.45892620880771384 0.43894837319470015 0.6484908648006023 0.22681385498950646 0.6191268442802764 0.8301789870835508 0.005398588491106415 0.8895708627479245 0.31636410125880166 0.8290126048491628 0.12401830895706256 0.09473640529067928 0.1304510188112542 0.26199279783236606 0.554618622431185 0.5061472041772906 0.6884458295884975 0.43233599024281766 0.8583914693912837 0.06029656995528332 0.268606027981817 0.3451254690028551 0.9369811329821377 0.8488240650980425 0.8229682560141542 0.5703466237156146 0.20887704957924424 0.892890017544368 0.8729303647422192 0.6563915760322618 0.7867536717792089 0.44130132755463636 0.2019382242524964 0.8279504801034141 0.54519212183096 0.13616901496357658 0.5203566839159363 0.5547456509439278 0.984819925733777 0.6330420462847512 0.30983070685993885 0.46135412498203454 0.09675711235246931 0.03687637012315215 0.8679190739186232 0.9634028313907129 0.01035762469878776 0.8208614189742168 0.16850953026120008 0.9617100123481874 0.06758776416949785 0.7320412581367267 0.5295012944095121 0.903485444634087 0.10898369835902955 0.5558309488996203 0.23646682531176355 0.5284908756763852 0.17898258804283862 0.5109430616749787 0.20948170490035745 0.6581017287868187 0.5625230080744194 0.4769035375565538 0.5200377721975472 0.4564993494871663 0.05016189799826243 0.218249449222507 0.0659316114501236 0.6957629569771219 0.5955568788216268 0.26266623207339224 0.9942465118458538 0.6904190516942411 0.07701475533647861 0.1147351869324551 0.5260230023396816 0.7320450997069591 0.7039075408953656 0.04262659597656149 0.6809396808922513 0.0508135842408699 0.7191102232197666 0.7619876917603952 0.02630200497393964 0.5584014773268803 0.44021504179080984 0.9594389140171248 0.981864030973325 0.8854792278076593 0.3551289055235084 0.7475055608016871 0.4004843403794779 0.5170324112402238 0.9417625814662698 0.8234767435170314 0.11434374747434162 0.15005825748866575 0.11687103048821212 0.31659658370271937 0.8874290851933703 0.7507184375177668 0.7357066004395864 0.0511578515815021 0.7472144127895073 0.17181845405231622 0.36199776066541445 0.22748116759644554 0.9819466077293318 0.6065229499746226 0.6068680731062797 0.3284277898655744 0.18466956449998484 0.6005055961230054 0.6956613414925381 0.39600765908087787 0.6010976809208689 0.8222708885445349 0.5632407769393649 0.6908084815174085 0.6956758324024568 0.3001747835713582 0.7011808966499645 0.14638578326359808 0.28863913953867004 0.37470940705859124 0.18437351895009557 0.9614179751288287 0.8366134914124896 0.18590710177753733 0.7899196986022328 0.13434425970785258 0.43027301742669255 0.11825705430712008 0.887781724991095 0.7383676583593162 0.864798257813294 0.2593178272328728 0.8305205064097897 0.2591191058759319 0.7023550611454016 0.5932474993493426 0.8985453658305574 0.3729430637121862 0.5905405027724624 0.34676228926341923 0.46765494077423253 0.13067866555366525 0.22671902677539513 0.6325741635861869 0.957249020459752 0.6299748198994841 0.26539858231520896 0.2941458193087193 0.29044336174359975 0.9085917908953394 0.15427282763322792 0.6456420215288368 0.05142052157128596 0.9718055310970461 0.3542821522028896 0.6222438652864739 0.26070139040400364 0.578945312430421 0.6500230812136956 0.7085326571069401 0.7056243338476509 0.6572593684942608 0.28906172732107027 0.8964386801246569 0.06116920470803455 0.9857170096045571 0.5021839517470401 0.8392891131205306 0.6153661323492492 0.09702011918706999 0.5513410469299183 0.3147788184539667 0.27388022015280833 0.183010491867711 0.828026873938241 0.0872264642173951 0.6599643963652976 0.1568243352577151 0.6820481403027338 0.26826747056254296 0.5488250395889257 0.9245581060243632 0.5991270915297559 0.31517465845052195 0.5795457765894477 0.34987557395892943 0.0655014380385619 0.8772862028819667 0.17306703700405723 0.3568981382976031 0.9586635888042939 0.8035596546549102 0.8513201180387476 0.10988620048272513 0.5856075015775336 0.7580601117547306 0.7004660481582878 0.23263258328423175 0.5534283114160834 0.05522913992805267 0.5502916209063005 0.5861527367808975 0.5018459934985593 0.5230707585865225 0.5521658549121023 0.21017183020909047 0.35320130682128126 0.42992927913646894 0.22956213352495336 0.6520712055656526 0.14269875170066748 0.7693231986073117 0.7480025396211725 0.05637224808309049 0.6801476285419201 0.4873384603576334 0.10538311178643833 0.06849872862896267 0.26417892532373766 0.5583730615626497 0.17898909096502247 0.8184732362399963 0.4208926568857847 0.16756449563025733 0.08211235095200553 0.9933674933329291 0.17111628300128068 0.6420203169341393 0.08103321092386606 0.2817397591093419 0.6439317623129985 0.18801133777981627 0.4022317038240054 0.2789574730696265 0.9488553740073334 0.9375757490657114 0.6200440544479762 0.27921668583137005 0.0950307480048751 0.28552191425331275 0.9565820774789761 0.24823399319096762 0.4030223623174769 0.0066063799138887935 0.7485846205658847 0.6700012590451817 0.29327321389265226 0.18270272894823436 0.5399720044880775 0.8916565505588028 0.5550169682768854 0.5410661404701601 0.7442255190251919 0.052439856993792056 0.2004112712510835 0.4073372427516292 0.5873160137702046 0.6758651495791476 0.790885881787801 0.11071825954164216 0.0897569578721521 0.5286553360243746 0.6861755042453452 0.34379352731206547 0.1754590001460724 0.4056501381876598 0.011233657026244459 0.67575502273764 0.6054146090085923 0.086811095275652 0.26220095771352137 0.14533310590285065 0.32584285499150833 0.8306121568275457 0.3798274004462935 0.6185218546360242 0.9932760704724574 0.41751829219174474 0.8072247570004812 0.38622663236146937 0.8931716837181162 0.9379182509422428 0.5185518208752851 0.29825159304386983 0.20398391775666713 0.23079246241314422 0.25621223598296006 0.5825831804025827 0.5752318501278026 0.1225603055386425 0.2463702605542767 0.3827151111141541 0.2859516680318068 0.3899655032975452 0.47606739516849494 0.9607990848621936 0.829022852994368 0.6765223366309395 0.20994865590673362 0.46069492364275744 0.6272089103576576 0.42895958009500856 0.8005841264237706 0.10253257817909678 0.7283558188110332 0.2882626267575168 0.0035981139450017574 0.6891875682291173 0.750041858693862 0.2693291897016703 0.9472943316888334 0.34511064795895763 0.04807516157168967 0.493917038215276 0.6261927178214081 0.47924139017419776 0.06858555844298997 0.20347730771711858 0.28886940948562756 0.06627435147655802 0.11006033508577573 0.27162982647995115 0.37271861251199534 0.4743359017787345 0.2695239213799153 0.4604523529185528 0.7017310652139629 0.2321684988714905 0.17616345966256297 0.2204181458957828 0.5081107531717365 0.325208547703296 0.22605414007573066 0.9207318129204618
8: 0.46452797119742895 0.8374825294887089 0.42323917497005203 0.014976383838574803 0.32103340440213757 0.015035978375691594 0.605271231987019 0.796399004362614 0.9291343293299122 0.11664823234889476 0.7854233130175454 0.07782689541512422 0.4052608698276209 0.7388751192148881 0.5791294505832247 0.3431190274619318 0.9368266164160757 0.6550010830459805 0.19881594585497364 0.6602229545280771 0.26631438375940797 0.5912709960959324 0.2991365595521014 0.9203205596343996 0.20229487053025708 0.7788110492224702 0.03372588622577988 0.7732105306221058 0.6010118157066454 0.5659372828278731 0.04493717846475653 0.96598909353716 0.13814476123424413 0.8530893463472524 0.7496320840077313 0.660255012414266 0.8475860524582671 0.6214158232640278 0.20694160572220377 0.7024786144142351 0.8425464219987737 0.3660772865191876 0.05801892962323729 0.7528390036366872 0.8540286116377912 0.8166213247845827 0.5131564389236527 0.6397472550408038 0.22268677195695075 0.92932359026246 0.12824100411108974 0.30043773677755203 0.7623144036086066 0.7701777663435162 0.1603727204756099 0.19242382629192178 0.47668105946527395 0.5722561922782646 0.6215741603813354 0.11627802868283998 0.45616435209414075 0.9474523080379011 0.7598687704976318 0.9771109329939709 0.40660031734756175 0.9601549781740443 0.5886086020050662 0.13028722714724406 0.17000170843407847 0.5291934465572514 0.25778289095141727 0.6063312229074366 0.28527066346314167 0.4144317886086534 0.5151407770056119 0.6906383629293791 0.10675837496024931 0.8656792407238728 0.24031317010430642 0.045523052194003766 0.24950098001240384 0.8641235392787963 0.0517198498604694 0.8052977402528526 0.16218788452663946 0.7702820460080779 0.28389995123348544 0.8494915415218663 0.4423947934623732 0.10750524767053127 0.2120053084101301 0.7649812472835429 0.1033405544650231 0.15635624533089842 0.2605475464814486 0.8447216265372056 0.3774032237815268 0.012728673440158489 0.0750918339615908 0.8389255078859454 0.798857901584923 0.7713546178260304 0.7584412589579215 0.07395899489934576 0.24677460879967494 0.536393311194219 0.2769576858089059 0.9848803275122872 0.34874187374229704 0.03208025755674149 0.028016271647051894 0.06946556576160567 0.14705753082110073 0.6889556287974359 0.8261928849207556 0.7647284874720436 0.21125551520908625 0.21497982542050476 0.11363423524707383 0.771355247433164 0.4443132312863869 0.8258829994056847 0.029163470369132583 0.9071394521942661 0.6746113291731752 0.5053846662574789 0.08102413585299584 0.6574168153684706 0.7516937904338361 0.8934584364196579 0.5597680014904126 0.2086626190472637 0.2711032467957434 0.6596058500670821 0.5006435055775137 0.9008295791642962 0.24204224402042984 0.508142616809216 0.9589425719023289 0.7146671745169434 0.9813389802456216 0.2837895128865845 0.5971163558550248 0.6221785987545663 0.2681709917014894 0.9983990561349302 0.09907063502798796 0.37153411925312907 0.32622854247776 0.9834386232911958 0.7249040380849758 0.552175304747587 0.5134745275679519 0.7878890771789997 0.3984538997998661 0.5915071011020694 0.6943853609981353 0.8875076618282777 0.08036513568793857 0.6714900521278104 0.1455331082107475 0.7489426217765671 0.8210004844362134 0.42160817742799894 0.5025963569780688 0.3009761381794841 0.8103608231986424 0.6441025889266159 0.6953632025466747 0.40521121248348413 0.946286534808742 0.2580247360600312 0.03701699227719135 0.48980745571520046 0.9275620721408427 0.11057706594180383 0.6349712717200353 0.11240919562793983 0.6451478007678301 0.2973738526294386 0.07274776749673417 0.8521992195984374 0.6926144315030963 0.15766735304344093 0.8758669840847454 0.596049684140713 0.14595702676682876 0.1662504253923084 0.6194482704799291 0.9800314161461654 0.373317246848061 0.5306593552009793 0.6611921677120252 0.47508150307481356 0.5267438215150579 0.42046517903811365 0.3906450125120391 0.36441841804421304 0.5409731129296171 0.4048563694407685 0.5741216873847719 0.6503328931076019 0.9183129300563045 0.8553787966228031 0.8443895465175724 0.7492713995859087 0.3140641779812675 0.7826137362846296 0.6351926900847472 0.6866691019505958 0.9535173718367317 0.8187386362053974 0.8929226798241091 0.38677716868465106 0.20941108709953304 0.8323289386373197 0.7112180557563971 0.567769164474641 0.2478425991270109 0.9674240454575346 0.6290015216594517 0.6986997986649152 0.5109713244468324 0.7357937816531644 0.7084408624318846 0.45242878540881404 0.946457893493427 0.15950664886856813 0.6665451854021085 0.09741122304406846 0.3164329130609169 0.8603143818665939 0.27258566524825034 0.3112953034235696 0.6228913409472825 0.4230318517836583 0.9432557590919537 0.9705571092542805 0.6717596433994806 0.3220056065674407 0.9684630035605094 0.5729410916629566 0.0644846109179309 0.1929276602259764 0.08287049088094123 0.08326431607793161 0.453844378002885 0.25666610148766744 0.16178339016701604 0.15818138098699353 0.7297836487107683 0.25744738111542975 0.6647016017650398 0.90179584096387 0.9114264618425864 0.3646399740856773 0.07583708509219589 0.5315432558698021 0.913021916377445 0.10555213047167356 0.9981200671580394 0.5925601207914697 0.024429435560918034 0.5460717696837738 0.7456957961842684 0.6487915782465892 0.9008517924707262 0.6166395279493015 0.24963925065717363 0.7003803612818388 0.09187563996335946 0.6929605916780873 0.8425924972143493 0.9294182837812714 0.6564811455908747 0.28402497467956 0.020255156244301853 0.7599303935446813 0.20853345448352756 0.95441983171318 0.5911359751211341 0.6330014987518294 0.8163706251407585 0.41358142337989856 0.720699085415047 0.34424338116067366 0.5404539442465388 0.041548741020257074 0.2520158277009765 0.26834030362699557 0.03464845322855947 0.9889442388713793 0.3422591898081533 0.304199406901283 0.5595527404073628 0.3883220629420374 0.8928545904427834 0.9142717330923927 0.9603986709172155 0.14468721442745014 0.4708272497198416 0.20289841894807958 0.6473936527183334 0.2349040248984352 0.41986307888599494 0.5810762036781795 0.38297907886709126 0.4388759621144924 0.6418265357760757 0.19882461786753458 0.728330263685534 0.9497927384527531 0.09295514091333001 0.9913774297550951 0.33052538436455614 0.36640509272493826 0.3836775684352567 0.8817086077411633 0.8421614593758371 0.1572015665028591 0.996978136324563 0.4094434437340534 0.1567976234196059 0.804525306605819 0.547457461230905 0.8149935938726828 0.8164576752255386 0.48608360311459553 0.19171546476288426 0.39779443105889223 0.9015248558351502 0.3319665651143805 0.7704095804704612 0.7888117493063643 0.44871356604320767 0.0072052513271855245 0.5133172879767564 0.6300242565977482 0.4594049544397407 0.613063963192527 0.17095936376195553 0.037377189040444736 0.8584836177873699 0.6746755436367871 0.24981562592778628 0.13874141537440388 0.34291537462765276 0.288291973602829 0.622892888523649 0.9247015922133917 0.9196570734133198 0.3383372873455066 0.16338029310249103 0.6275359340677911 0.07409098779061685 0.06261383978005008 0.20635421911290897 0.8525389633009471 0.9330281017738112 0.1434261504907991 0.5819717874832526 0.725878410706412 0.4904257663053653 0.9330521678205375 0.6833178033544552 0.39446546084303846 0.9493176489231492 0.38390416542334027 0.533047367568341 0.31585742841321973 0.5000539640770346 0.7468868612640808 0.09519234198501558 0.9100008666948669 0.4028033254925242 0.12587374339655433 0.14197663106197667 0.3096615678806228 0.07136754304968629 0.5318867397632285 0.8302121112218784 0.1426778999927445 0.9657133000995348 0.1674785654771752 0.7678227784702473 0.5067123065852182 0.4922257951577903 0.2899811715591799 0.7582723035334155 0.555965181419189 0.7835407238230955 0.15169749529408805 0.5991458677732697 0.40935408157598385 0.18391347054568008 0.1957780087051776 0.2808642401591924 0.41095087897229254 0.5014346631572524 0.8984378118796026 0.6824843551681216 0.12600773679030786 0.6050038309154 0.3913335514594912 0.39376720672225385 0.8396925949547146 0.741824148431494 0.2723340049779561 0.6061709374802885 0.7406935050717159 0.03028248434453773 0.8185817770126533
9: 0.11015259411784806 0.4181400410995767 0.9434312033523694 0.15265840872345282 0.31213943082240747 0.7778299470093506 0.2398888302163954 0.7808280001774925 0.8417571332740792 0.9925367991560881 0.7218293955987742 0.3217499086124569 0.7583781721068317 0.641215108531772 0.40383066513028754 0.17471401494210903 0.5857810773321083 0.7632072146632793 0.16170394548907296 0.3383668859129396 0.40468707287156536 0.15609580528507394 0.6970290243034802 0.5840606370229804 0.015167814367584853 0.8796349820049949 0.7009699401029966 0.7123708803049547 0.7443939237848063 0.5932318098179447 0.4300485783645589 0.6769938246004112 0.8199210398724126 0.05073925240768351 0.5169043695015199 0.9471468741254224 0.3546864161859692 0.8038606782403125 0.7306706824014827 0.5977608710682205 0.8971157113482108 0.924254890029363 0.5744490018142336 0.2661668205716293 0.1882162315370689 0.3444699402241438 0.06146480694604595 0.2946427501223329 0.23725930911134596 0.239123013275104 0.7468394785612903 0.09010238629204637 0.07863131496504927 0.7202825007717389 0.10851473995284644 0.9753688313486857 0.6046591562743177 0.004797917496184523 0.6687176842323412 0.5808932848497159 0.6826925869113865 0.12636168704745254 0.8264558482480261 0.13144036701008366 0.3594525827736943 0.21137679187974368 0.2318831365679922 0.8191774769606129 0.3316313357294256 0.3152422431836006 0.6749797055494989 0.822768886236026 0.01895581306925298 0.8244585427529235 0.8838396245517508 0.4314892787161043 0.5144038358184205 0.4699934008826744 0.3319620998624482 0.16403587496339667 0.40598796750374744 0.06863774122755584 0.13929383148521002 0.7336320485726836 0.9654988306377088 0.21162039578185043 0.4183709732209666 0.20417966176520486 0.4818264667298908 0.253540074464607 0.9647615815585757 0.7066311292396554 0.5799546710591503 0.11971047544553015 0.020110224623237527 0.6404162976971998 0.21144987901668932 0.6463056984640494 0.9464384398387019 0.37167388661130185 0.6282423369971296 0.3952299552164116 0.04195608559332076 0.05820013423270787 0.05872489472248521 0.14442646187743946 0.4014905648570606 0.3804426783363948 0.9936700077365792 0.5443782560321204 0.678741663940816 0.6385306862498429 0.9591930728660742 0.7528433465948069 0.8429223872576194 0.8872470502792058 0.404966310418577 0.21240542828383635 0.5389466110206267 0.5240119833303358 0.8681142154466084 0.11921056398971175 0.45817703603879545 0.019361790677000834 0.886697785444106 0.5462992373849743 0.20584751551467662 0.28507054184871783 0.23142209640003553 0.6312323023967864 0.5116260485965546 0.5119764175418521 0.9001770351538527 0.7152482182688094 0.2713859119825791 0.17773831757329628 0.9772492294794357 0.8299784976503952 0.8311043978615338 0.32416304948672037 0.8975180705706943 0.46778669252671634 0.12790951465368994 0.1344067489059163 0.8756767074208069 0.14308586812788482 0.7886473056820309 0.30226849629396313 0.261494659461077 0.8545283416704303 0.05294346784999626 0.6789584814499452 0.36436525278927745 0.1917504147627085 0.4355847937893532 0.20713673709525637 0.8538582873594819 0.4953942780759336 0.37214745448027164 0.2076824891527006 0.18772398225387732 0.17541772432844327 0.7021505532560774 0.671568568704822 0.6447717508790193 0.020242110234827138 0.7356152379281119 0.32737930937163084 0.4472730172352619 0.08807728390956238 0.8217610614319696 0.904423943774438 0.1460147788855104 0.5618020407283402 0.7926726352364751 0.19206247218891614 0.9108561521018801 0.7700669883977921 0.390121624125668 0.20777396757663724 0.620617842419129 0.4298263817911281 0.8003303702514691 0.02966234213490082 0.6783598693211702 0.049294190490944745 0.7193150112465552 0.6235081252386361 0.29158052658921874 0.3453587280456871 0.9505478120785905 0.3001385942060545 0.5515950692034703 0.4757795271871226 0.3970294158289849 0.27580364117817313 0.02233042416068476 0.8640288956030538 0.4514641592728691 0.17640769880006701 0.7059973491598087 0.4034297008878289 0.2110819187433547 0.22586272882831582 0.1915792742348612 0.8672801725844234 0.6477530825667012 0.2894915703985488 0.5118028036082894 0.42294551615810805 0.8493933172982566 0.9053241034111904 0.7352320449729339 0.25043480399483853 0.7152571853911486 0.92929374716936 0.6023547845694688 0.3997715216206038 0.03557125254683924 0.4447552385540132 0.5780057508200452 0.18650414424487594 0.7150584067531974 0.14240904025220413 0.5371985121290481 0.6209932227555306 0.010257143324325257 0.4636313297254442 0.9274137702333833 0.5946496610218007 0.042140837483462534 0.4183733849779583 0.657619354787892 0.8050884758537683 0.5183937500711073 0.13820728882344846 0.15277226810787192 0.6922011865532136 0.5538019924604428 0.9057597359278279 0.982281408107375 0.9784390512468168 0.7125693011514626 0.6136892022792659 0.2218847794754023 0.7591384137001477 0.912968912968268 0.34952640280667024 0.24062224382412944 0.47250865568585654 0.632594594940374 0.07711118212790125 0.9180613724067116 0.4939420105708965 0.9315752386515895 0.19102413842315513 0.3916603013800075 0.545593856479064 0.17146916685069213 0.05732413926728186 0.31012832003197677 0.5897208204791073 0.9491556157739736 0.52206808517846 0.225871188922099 0.3830538172798227 0.6878929569248681 0.7685025499175295 0.19808501998419492 0.40952088763807126 0.5318137079033214 0.8344810925218467 0.8977890155413306 0.47992545949832965 0.6754796193175535 0.5635757370519118 0.5070638602134218 0.8897230957897112 0.02671973614641865 0.7565142063010116 0.48698910376087656 0.6598300709879463 0.14882769322646272 0.8139893578313062 0.8522497769265169 0.05043539112819517 0.7572944781578114 0.21755101382891007 0.9351083307027737 0.23407753639454065 0.656606022466952 0.7822040882003245 0.7474154494696312 0.7417857136150042 0.8942350793504065 0.7325019957722358 0.9565591563713297 0.05487482921835729 0.08180945698319642 0.3033370690170585 0.17972840852150396 0.5050223903563456 0.2875397470940233 0.7472949055815812 0.7705940419671339 0.4665445301947312 0.6393413352501277 0.342352918610078 0.5234864718013831 0.677327526543872 0.7946871209135505 0.23686772244923282 0.752375891987163 0.4086599747902765 0.7310788330130776 0.7432100922014823 0.01543759739512418 0.11925031899295291 0.8901265773596504 0.9970701463605632 0.35071134968466433 0.17500307009235028 0.5685774314501318 0.7363692664297645 0.2643404720457304 0.19366613325326165 0.5912360150723033 0.3218802035767143 0.8701027659088224 0.58225122742623 0.7235709105791027 0.021069551763031713 0.5174220362705991 0.8751676658288964 0.9859029838293647 0.007341998169759445 0.9647754101275702 0.5522994435272217 0.01642278571800082 0.48877926319040454 0.6563883307069637 0.1187945316716994 0.8968857552544912 0.8736307830672686 0.9423358554122611 0.362123909546915 0.4026859728005229 0.9042271488396875 0.14564469418444115 0.8670076059355728 0.4681102809329928 0.24665187051520143 0.22471815834162512 0.06509345639228303 0.7679263097827926 0.11042029281907162 0.4053817053767559 0.32381391626307165 0.708059598357067 0.09057939895385969 0.5640737581531476 0.8376348058949098 0.7909666230853257 0.5740554338465689 0.33218326360999806 0.3749491223972288 0.2754116229983907 0.7327413793582778 0.8612615000324536 0.255158405695622 0.2857074952976767 0.3377292081597829 0.9398126418859435 0.2830228503986708 0.0420817900719781 0.37225703058720117 0.684593967639159 0.7511503479552293 0.6816808791973543 0.6953542743365521 0.34283313866579157 0.036534149228977686 0.21882677486192204 0.8138330130565461 0.836496552111514 0.763337455250454 0.5534928260691754 0.157187014783587 0.5557195116501354 0.9816625381460212 0.07856543479796352 0.11812433931349253 0.5657351967791369 0.3208310412163373 0.3593117639492842 0.5208734809509914 0.8301162613069777 0.6157411452624341 0.5625732841098929 0.11006678689394067 0.2728693267825546 0.07615615362271799 0.7985583181085252 0.11491958250359602 0.5028991932527637 0.6713185307506139 0.3047067709085963 0.9365865100830966 0.8065861486980057 0.03607215762335958 0.4489530572453343 0.5309918373297049
10: 0.5776964837004399 0.8697147190193562 0.8588136600701719 0.11509340029043535 0.6985724940900933 0.49509119119384126 0.5930784929789614 0.41145489868502105 0.512525401408027 0.9729785325344217 0.16448556080393006 0.7641644653535128 0.9345805187506179 0.925600611267108 0.39461129143009566 0.10855227320990046 0.9362010668039061 0.013151699454066246 0.5363090885452171 0.9578233229964574 0.10934352840372341 0.8284955528008627 0.8343814193604786 0.2816362300508609 0.2661734240740513 0.8277465669815177 0.7117717671091027 0.39482219051632506 0.06299814577813667 0.7982282184745957 0.06641398249289931 0.7488533371762386 0.4504485610182474 0.28034334709084663 0.7429790787894828 0.8243324882748853 0.3466690376725733 0.3061797157766296 0.10411021771283735 0.1596917815791118 0.3062510069459412 0.795213257141635 0.7673385373716403 0.9194504465196066 0.11487257337727952 0.9562610219260739 0.9967241194794642 0.3047968573033192 0.1780827336368328 0.08487383221617972 0.9423676611293942 0.5399239150677956 0.2923954170109474 0.21664919886386902 0.9062904841444344 0.12946054701769338 0.8878355119885976 0.1994825109243128 0.07978137059758861 0.5755065642119772 0.11330470080745492 0.8815650140747205 0.7451609940672111 0.7671919610539493 0.19961281876342207 0.27697498757641326 0.7640156807404747 0.8113458179415073 0.3797455807459911 0.7669984545525561 0.2843043710945138 0.15977431376418705 0.2719172829540727 0.6228543356121453 0.9903435475828615 0.5068107152890835 0.038182769404954575 0.39428808850562413 0.8925270946327631 0.08021522346519083 0.8198602163584664 0.9985372834267868 0.6077392993403344 0.6291658993361132 0.9207421380058284 0.6654608440702573 0.31677060212240393 0.624996067979548 0.960049374345657 0.24716392315416713 0.10164783249038445 0.9334981755547657 0.7493086025478108 0.7842381521788392 0.16364147459356082 0.49202717459018874 0.9608111263237556 0.6357770472835613 0.5018148463585509 0.33030171236079564 0.7500367212755282 0.9266149557957687 0.9923308603880325 0.6107145540666297 0.370403412860698 0.5427771776027253 0.45033439351897164 0.23212807968580818 0.47593006191842047 0.41491761462335064 0.1790791554393426 0.9405449501289403 0.2458756466166352 0.36955999543447626 0.7150699078247336 0.8207076231261436 0.6851456094819317 0.39924712553501895 0.963342453966174 0.5045950555687472 0.4552317924778284 0.805242051394491 0.6836050544226422 0.4259482279160214 0.37267972751451195 0.30021394860814143 0.33581689972961215 0.974371271512523 0.27555302991998687 0.8233809495476654 0.6228806008207072 0.4582177244129638 0.3030914891451477 0.5168703151214298 0.67847714623572 0.372386509246988 0.7597360169240877 0.03959665160050574 0.7396736161100581 0.5853162799157792 0.6419199727718122 0.15374680657810347 0.31678527210070917 0.7088797032867138 0.5945032255278456 0.308999790533095 0.3270751601566857 0.09554503595370856 0.5334516739716817 0.7708990438669282 0.39422633760848624 0.619084915083367 0.4223414502922581 0.6923332593284925 0.5321227028094977 0.6382770899978537 0.7224940995222847 0.41087097014847285 0.7293268169191295 0.3174559568270042 0.8500247138972308 0.16973371671174886 0.5297437553150482 0.7834372073933614 0.5678122986014598 0.4064807975467053 0.5653123676295598 0.435252766538344 0.6163781256311285 0.731018642257046 0.13816655910466047 0.09129647422219123 0.04488382336058272 0.7233359745733984 0.37256064315373616 0.5578957991785537 0.641938417799356 0.7214057690396588 0.1609545302111376 0.6339881353339102 0.5856290900057757 0.8409835051357897 0.11400621312066739 0.5284949555481202 0.9331679616859716 0.5715707273569232 0.9908202970302015 0.16015092511188855 0.8527729827588477 0.42660161097651716 0.633653036487253 0.833958844314765 0.5638780998521498 0.290949481825748 0.26037593282630656 0.3441060085524711 0.7964940534344886 0.3051393589689153 0.07835132159624292 0.6400909361948758 0.20651821642588264 0.35319147733724354 0.5749753473578376 0.8109739221808837 0.5910175836885616 0.47981001414869706 0.5129946425594236 0.2920788452126698 0.9359868515533157 0.8526699942196146 0.6128053123614703 0.8791376249308697 0.29880870621182143 0.20684488146613822 0.13929379601903424 0.3467828713784673 0.27862100599462547 0.06095593356369744 0.12738115232592695 0.2114581900728475 0.3600219189791315 0.3784136579101084 0.7782835731413229 0.45323009186435426 0.7290198898807693 0.7621611381815169 0.6376036572512943 0.8166488832391323 0.25486324098256974 0.7176172458747816 0.5267186552237646 0.6477203659866123 0.207359388273886 0.9960576415155961 0.8405330774607809 0.09221444820366087 0.9365211125904964 0.5394599658417841 0.747514964232045 0.8799501908959053 0.17985356460290303 0.08787903192578161 0.03203676461166183 0.8503614721246283 0.8823223709173639 0.08170670946667824 0.8043925946919437 0.8365612128688565 0.4150193479572588 0.09371022781376903 0.07046657974261028 0.5182862272243832 0.8607697684247881 0.6595318295815107 0.20087677001092952 0.3785189362212352 0.5984006582550683 0.04037178395686569 0.6685224164373252 0.9542460617806685 0.7621169106532459 0.1478655540714816 0.03381277829125051 0.1587285315939323 0.27840833133548126 0.5887052703803369 0.04845774387481683 0.5708210428773544 0.09013707385433711 0.5453446232799167 0.9215516361831328 0.23629357620458868 0.8659319415293677 0.999165479061422 0.2457840766398054 0.7067714096986931 0.9627421136991039 0.6237730496583072 0.8169620111567775 0.7538240839236724 0.660379861406335 0.5286264095762977 0.5966298662816617 0.438897815486723 0.7191078438759586 0.9169993789406332 0.36542533700628566 0.9942002314625729 0.12480387231905321 0.6373064090034692 0.193910654440119 0.2753099541987537 0.4809618349833902 0.5531167762418312 0.7179700478449728 0.383197788355221 0.8827644195737309 0.6347196928663442 0.3474664370116012 0.4215104531270133 0.2656901391908738 0.6838921151939437 0.9597011128965602 0.2543816495702247 0.15959280349597527 0.6435595702744068 0.3333225501831746 0.5606995753633247 0.49891919654695605 0.5153301774529749 0.5636813263329284 0.44267366469953917 0.640706660991203 0.010420249868461573 0.9672303481829347 0.3397077698330846 0.024228914317879102 0.19327959517540738 0.5304204823088566 0.0230010806042793 0.9696350214182513 0.542263361842647 0.7876439612220927 0.001961575528508397 0.9576534658083609 0.047986353224758305 0.12312874788340045 0.7604317691119503 0.35840879218645794 0.19753508172146783 0.8832893066200241 0.8588896717962575 0.9846259565100858 0.9515013123437792 0.35889029692310737 0.08820254919512072 0.03297350178724323 0.1108406542662227 0.6504815298288387 0.5411750208936641 0.947023094247591 0.7918481139450605 0.6659138380516887 0.6800467081705934 0.4862801631210423 0.08008216593617146 0.015347502834147209 0.22125946998557733 0.8179662421351008 0.31785748817138804 0.367015883674508 0.9332272921194159 0.7617105707405596 0.8949659544968842 0.906109042558524 0.2485071387756581 0.4120351027727036 0.8585742886257113 0.899493177075669 0.9286820390987877 0.23949334935661204 0.1357858990818911 0.01058363320653477 0.8884325799645325 0.42855024113206985 0.6711436255993588 0.9315406387061244 0.6846864582909817 0.6487669703699822 0.32138891224484734 0.10405859084930846 0.1074002398943108 0.6755806573072025 0.9210822200326838 0.7853709282856216 0.7704412043318198 0.2779460910284529 0.5352286314391741 0.48269498480094697 0.5942014077375551 0.5723327432402892 0.5488411637722602 0.8271917826712318 0.5959900636993022 0.6060471423998018 0.9084140263431607 0.2876177830759722 0.4599146515989815 0.2775769016533717 0.526566633041907 0.7341977551065006 0.9448746204485461 0.8276298858383742 0.5886585692901997 0.7548479627853997 0.30745645887920403 0.041767826019776244 0.2589643756132106 0.7987322252313227 0.5659321938451166 0.9940107523773059 0.07403672247504611 0.6762334625425711 0.6122279079054483 0.6305150848844694 0.13217466015385726 0.6797759999927743 0.8906428991160643 0.743404543162982 0.040453828780025236 0.6065347251869136 0.6052637827047417
11: 0.9170599870155401 0.4645635752946665 0.26191902303752035 0.1924324462224979 0.8426504916283194 0.041735496790407334 0.6018213726206341 0.10029042731108351 0.9914149162105577 0.3633371359256419 0.531971028438287 0.7543365651259071 0.013179138861586503 0.7112429170201625 0.5243361112438022 0.9560985652175874 0.38382173063819536 0.24088446424154075 0.633367738291406 0.861433679902646 0.7638761197248983 0.3439204159841509 0.19898226822179965 0.11563719410058515 0.25018508026274167 0.9947561081665061 0.5085287604128872 0.6844518021351779 0.20349913981574508 0.9876812157513851 0.9565909155095603 0.41323504219700324 0.617137214880148 0.10518392114045483 0.7893232268764786 0.3709559306583651 0.05530465060762557 0.4230379216822543 0.34912425753805576 0.5913557337149074 0.034390203368461436 0.15404870745779853 0.8457997394031065 0.9105225315864343 0.3465398546626327 0.659883892248865 0.07197120223455289 0.218292695173107 0.23203224843999637 0.5192018559755136 0.15333665489457182 0.5903066480914183 0.49545704744096 0.8303317230687441 0.37849139640132434 0.44821047904093847 0.6304238312335829 0.24804715893055573 0.3883690759552194 0.1074088024545774 0.7685060095565655 0.6065150363039598 0.5219641443132378 0.8149384993212164 0.8003504817929539 0.36428934415744185 0.9128487063543278 0.6544470833994038 0.33036086740809345 0.5222600832273905 0.010098363899036622 0.5009232519504431 0.22108788741786345 0.11175509276289874 0.5575929139211936 0.5447413204573932 0.35943776933364113 0.8275329860297481 0.7072597982010594 0.7727457373655834 0.9340359486694885 0.8891931972082732 0.8646791682762386 0.1935151034536372 0.9515593854365385 0.7545693129335993 0.06957171843460008 0.524609942044657 0.939578128316054 0.8799600565396946 0.19904109903256606 0.5215222880930984 0.7844228240998871 0.3245919393478617 0.04804543319920107 0.12120877599549196 0.43482171207301556 0.6304964559115314 0.38942260264161555 0.09750400650494362 0.7655268168748353 0.07402350914940892 0.4448969966252765 0.9813736880783372 0.23987613853702272 0.08150234123319045 0.8088459380435369 0.5858824735485073 0.13621480201323632 0.3290998437060325 0.7582059159182954 0.5939142741802954 0.01032484580464621 0.8057154243260933 0.05475039575812757 0.31609788340974554 0.7544898700883776 0.9077904711663636 0.8000725416565638 0.9070540181708843 0.08354736749199698 0.45620006865055784 0.6389574284228883 0.03999457553304131 0.5292579561052674 0.37793249697113085 0.6234303510867716 0.2828685179095908 0.05654769934092452 0.6790527901783173 0.34761895407391086 0.19366293578057647 0.22865554701797075 0.25048407006774664 0.5426690403635384 0.45813237348763214 0.4429453934564429 0.9944304136884752 0.18130456371396175 0.2301427871810362 0.13511804318632237 0.7368038818494339 0.2832250755613829 0.20298109742536508 0.006785319404684409 0.39980716690856233 0.0353843072105714 0.8393952651510844 0.26984515444821744 0.9488625872224348 0.545295774867539 0.6187939930395615 0.620822675875899 0.6993672072639096 0.5308630200364928 0.12194861117640998 0.15931947679038738 0.6712927859881924 0.5168329235835332 0.26670478538508424 0.7469392293947025 0.813438558183201 0.6558227382354676 0.03262481278055718 0.36653459304095926 0.08418355080159434 0.12097286606187596 0.5681457647206671 0.8863472669245446 0.5718747336565819 0.1276290076634703 0.6607529335502723 0.259588806313803 0.06552573011023355 0.03305847270875406 0.16883175751675517 0.5972373059038251 0.7452904824796025 0.6360578658563703 0.16327553205435796 0.7403009166831906 0.952214675437451 0.7524098740250112 0.2075906162776835 0.9275259666042408 0.31805772971369695 0.3774993547282428 0.417154393404378 0.9055042466763191 0.8885159881147652 0.2639999037086873 0.6814458204898336 0.3603601025028589 0.2569680350377689 0.5403939028670155 0.7074818754366559 0.8636750503907382 0.14090115089328858 0.07519056909669908 0.3483579917267534 0.6200336755148838 0.2794677572802914 0.6520579795240657 0.017703951702877974 0.17955171298991324 0.008158959914702058 0.6626868411462193 0.8590312057955238 0.9359732855140973 0.37537232676288035 0.9470550982941317 0.7383614842167443 0.6694009126368643 0.20568904877668248 0.6148640151781137 0.05919062928387653 0.6124489527466519 0.08596567318371762 0.1672684459222854 0.8607556814841076 0.5195869355522771 0.8528838597576094 0.004624658911507429 0.6537374006452469 0.0016662488297075617 0.7943912032212007 0.4538315197081334 0.9719441630053327 0.9511005919285069 0.4425051229674464 0.7779418832995824 0.6741875141492676 0.2278959055540164 0.5312405171472295 0.2410728477783176 0.6174738763499629 0.9027037818248415 0.4209614592599451 0.19324475152999887 0.44080030645991997 0.26029731755691243 0.04924614687179574 0.31263107883993413 0.848257057024425 0.45534600231324995 0.2583927876934573 0.5968020625111448 0.9608032967182675 0.18209225434932286 0.17098448235654362 0.4298969254678756 0.01799642507879673 0.9705091057703057 0.13746835454117712 0.06926133003598467 0.9541195684878566 0.7537447432778431 0.6634953699846456 0.19293776325097578 0.14756611414717158 0.1651365633316073 0.6398043105072609 0.7284983818314272 0.948003632326424 0.6178036847746531 0.14372422944969476 0.04406155611447693 0.42275428099848533 0.5958034465468366 0.058907168861907944 0.7239344369378874 0.13199235222276728 0.7430642583338621 0.7686933739166324 0.5741761113093758 0.6417738242371148 0.2747832843942317 0.2185493617244889 0.20747673382747256 0.9145770609269318 0.9557044495990634 0.7143084917761247 0.5421001332204908 0.6789474060992722 0.3906683290675784 0.925483234658392 0.8162389046037972 0.3730030823341236 0.6550528538582324 0.6967065649634707 0.26698201242858144 0.28097310912695705 0.3561990673195329 0.43539967445492733 0.45219738375869023 0.0376029871161756 0.061644183188297896 0.0400518005616477 0.3039827670243005 0.7621768099067815 0.6559596076319271 0.5610374942031231 0.39394005427938306 0.7020697029034295 0.5952186250949391 0.04468515775557935 0.5633796612051742 0.41515762400717215 0.2165951152729959 0.3013501207000435 0.025663531340150203 0.20107596167305375 0.23032109991032834 0.659534560947293 0.28324613584242864 0.7032328246762297 0.2722071730035369 0.12063553693510654 0.7185751895144413 0.34664603428330587 0.9271571384890782 0.7126913289449912 0.5158648666215039 0.5510880902448503 0.9475839323959394 0.25653588314200193 0.6498561325758031 0.46468622735917864 0.4853611815959512 0.20405939694563668 0.03802997932384167 0.3000397584688699 0.03192079196705888 0.6858129895266517 0.5943416365067223 0.22308035323925934 0.41833379155759454 0.4139837031396887 0.845394515147473 0.14431508431587048 0.6656881467139113 0.6268059535921708 0.9740749444087223 0.692756372517761 0.6958038979468235 0.8317636386547531 0.6410197493286971 0.11475673984615087 0.9133023103316104 0.7074771618291401 0.7008909215811037 0.8331303975398103 0.45227256042113473 0.1579580295243318 0.9782823144013444 0.926357992277757 0.44425592373452405 0.17795287614273103 0.5971858294412713 0.8433345022531128 0.008994020306684058 0.8843880783896569 0.9682954407832755 0.25603468712636746 0.7953640778199449 0.7964648369390566 0.43002919756281643 0.07063441501537071 0.8071509785348284 0.20574402681563853 0.7120008099189893 0.2670401819372833 0.9367824268423454 0.26759877227429074 0.8437743877804218 0.4174433981995428 0.0998796703567898 0.2667021968969101 0.8670867440721265 0.4464297672822515 0.11445354268925689 0.3617564810557682 0.7263238966929851 0.43833860726315843 0.5008014136732184 0.9984586126192543 0.009889652679835548 0.07198048957037317 0.19163765976697178 0.09473746165499153 0.794205685040224 0.568486076661582 0.7367167303954382 0.0485852710565281 0.7024343625052384 0.8749728899940846 0.9621842470516218 0.5963464782502783 0.4316167665486723 0.1748807370301516 0.2021183823990218 0.5581153756270782 0.4247700652354508 0.7152408498309426 0.1582004452551251 0.5469331033141988 0.06859036707407296 0.3718075439598594 0.16317939913473867 0.7897640112716969 0.7827577556305507 0.33489557213446375
